{
  "seed": 42,
  "initial_weights": [
    [
      0.5343874386741561,
      -0.551965358279181,
      -1.1300912334239128,
      -0.383211001049761,
      0.25218267547065526,
      -0.3711203649158856,
      -2.1581627205196448,
      -0.9139734217361261,
      0.1827798495286124,
      -0.4960879355298761,
      0.007822872372707332,
      0.308993648972736,
      -0.23974502506253267,
      0.4317705016820572,
      -0.37789111721885377,
      -0.484949809575665,
      -0.5609794879583335,
      -0.5581456120363542,
      0.22482925847538085,
      -0.3723221270522117,
      -0.5519653582792792
    ],
    [
      0.08335237636117707,
      -0.5203127793409915,
      -1.0162807345642866,
      -0.6429555743276787,
      -0.040601240719667114,
      -0.6342315153228945,
      -1.3107005603212047,
      -0.49454959679334015,
      -0.09785300280266196,
      -0.24924874538714492,
      -0.10892341920287942,
      0.04084891052713964,
      -0.5588525877189284,
      0.10618965496455438,
      -0.6381383188646652,
      -0.6855749343851145,
      -0.7070878404037594,
      -0.45822836284664253,
      0.40495459311458815,
      -0.6328892592342346,
      -0.5203127793410061
    ],
    [
      -0.4477253805894565,
      -0.09612587342986456,
      -0.6720403398180097,
      -1.4186742837405948,
      -0.33249752835496693,
      -1.4172760377850298,
      0.22119773245996113,
      0.3682328785538754,
      -0.4506403490978295,
      0.3621988503660563,
      -0.40980098509637375,
      -0.27921584294164886,
      -1.5857246264739633,
      -0.44744609586254647,
      -1.4177619464596525,
      -1.2634883968055652,
      -1.1262777837985347,
      -0.023025246186084748,
      0.09011661825415102,
      -1.4167933647076445,
      -0.09612587343024563
    ],
    [
      -0.541898914564187,
      0.02144148631353803,
      -0.6237743331534239,
      -1.0733750348548072,
      -0.623298811800618,
      -1.0765287685892722,
      -0.15461102539320784,
      0.47374191327814524,
      -0.6907302357763652,
      0.6511570355433495,
      -0.7599444064254074,
      -0.5678715865129305,
      -1.1214339326632656,
      -0.48980464072383384,
      -1.0772421934882221,
      -1.0211050902781,
      -0.9598252761716262,
      0.16941984741048383,
      3.4654202334920865,
      -1.077456232728159,
      0.021441486310318593
    ],
    [
      -0.7071339476544753,
      0.31766472769378906,
      0.3481084312751596,
      -0.6483913317442338,
      -0.9161111442586732,
      -0.655311383020389,
      1.0847573877962713,
      1.1228923793759509,
      -0.9180255011648643,
      1.0271690916272813,
      -0.9148829903062656,
      -0.8940438753417551,
      -0.731825295575782,
      -0.7036294131003553,
      -0.6520954699562426,
      -0.5901384077153239,
      -0.5425174831688375,
      0.5388274819461452,
      0.5007143052293915,
      -0.6552978100563154,
      0.31766472769288573
    ],
    [
      -0.7987014812007275,
      2.0463906931578544,
      -0.3047378428850142,
      -1.3371873682528437,
      -1.4663550382350137,
      -1.3585044034168041,
      0.6190019457111456,
      1.6034792886516458,
      -1.2308198145151326,
      1.770473115199224,
      -1.69501650723661,
      -1.6084884470390712,
      -1.5409933266487394,
      -0.8105413538815444,
      -1.3578791624600555,
      -1.2007194788277367,
      -1.0668199624075048,
      2.1283031176079894,
      0.09682030251870855,
      -1.378508004348647,
      2.046390693156085
    ],
    [
      -0.8151385352909325,
      2.279393600293212,
      0.7631060623991759,
      -0.5794349978764474,
      -1.4874089403193889,
      -0.606540193822854,
      1.3016508491699479,
      1.817136739918941,
      -1.238381152136599,
      1.8256611966442882,
      -1.5962576511523352,
      -1.6370780886081804,
      -0.7078036187140336,
      -0.826228843848019,
      -0.6027724548223492,
      -0.522658883732835,
      -0.4617937229974471,
      2.2510425554310984,
      0.371812878934344,
      -0.6257501152404149,
      2.2793936002905633
    ],
    [
      0.07956431540050787,
      -0.5524414447693418,
      -0.9882175995062289,
      -1.2657536420059452,
      0.23564656083479962,
      -1.2577245580611602,
      -0.7221758236127167,
      -0.5468227559445956,
      0.16363397168416366,
      -0.48524534410794357,
      0.3056046650976303,
      0.2949759090643792,
      -1.3254683196914017,
      0.02063574961516624,
      -1.260396105405001,
      -1.1768956210367305,
      -1.0863493871265073,
      -0.5569501608643413,
      0.24419904000463713,
      -1.2548253664408673,
      -0.5524414447693
    ],
    [
      -0.24738572131839265,
      -0.4956919087785417,
      -0.6853951806981479,
      -0.6611509035384124,
      -0.17639037013099423,
      -0.6550324286606932,
      -0.432717238344529,
      -0.15790473703651406,
      -0.24128968170780837,
      -0.10191167654625605,
      -0.08081792811787061,
      -0.08826840341379616,
      -0.6287665398660784,
      -0.24460711591011652,
      -0.6562446605781661,
      -0.6631113881717361,
      -0.6562274867201653,
      -0.3953963334878297,
      0.10720925378304197,
      -0.6512452038080512,
      -0.4956919087786533
    ],
    [
      -0.20359546111409324,
      -0.5505827544731463,
      -0.22739513553153406,
      -0.7039956976027216,
      0.24442666643712646,
      -0.700239647688139,
      0.38874552987014666,
      -0.27022276456758726,
      0.16643770797634713,
      -0.4770933722412475,
      0.513999382898704,
      0.3010162282176312,
      -0.7380751768035114,
      -0.19064938353268696,
      -0.6990981084887802,
      -0.6593420833379223,
      -0.6221174310618123,
      -0.5539813154823736,
      0.6433163997388172,
      -0.6935471084920376,
      -0.5505827544731356
    ],
    [
      -0.5360153852407787,
      -0.008678355152777201,
      -0.11558601540557867,
      -0.49728156255251144,
      -0.46954837756064666,
      -0.49894036268768394,
      0.460920778278861,
      0.5648603697881109,
      -0.5715344558940776,
      0.5279496899743829,
      -0.5399262487358751,
      -0.41841400103200554,
      -0.4933864821690912,
      -0.5321419277914915,
      -0.4971825066322425,
      -0.49441428621024186,
      -0.4877935276722305,
      0.09296669831026087,
      -0.04081217535153682,
      -0.49709337149559485,
      -0.008678355152576343
    ],
    [
      -0.673344848817208,
      0.1356562467625313,
      0.6945520884572468,
      -0.36328695171240355,
      -0.7756018464582746,
      -0.36840197098886296,
      1.2966802819300447,
      1.0027426517055973,
      -0.8035895757627337,
      0.8194911796951794,
      -0.6525035709987077,
      -0.7307455114732652,
      -0.4404430888776362,
      -0.6610598545341309,
      -0.36429732274415233,
      -0.29812015658652324,
      -0.24256901682498092,
      0.31651637606839594,
      -0.32778061772461187,
      -0.36566579098962276,
      0.1356562467636339
    ],
    [
      -0.7978711528451223,
      2.0279106996174803,
      0.09926895685836298,
      -0.5164395165700947,
      -1.4753035794569647,
      -0.5390146388276855,
      0.5146032543888641,
      1.575646524505947,
      -1.2296629644059285,
      1.7675023868541635,
      -1.7184009086313465,
      -1.6155182997037973,
      -0.5443344312848201,
      -0.8126380292967005,
      -0.5371674641856232,
      -0.5279261344340064,
      -0.5178119586972078,
      2.11820068805739,
      0.268571197751718,
      -0.5576075611531179,
      2.027910699618116
    ],
    [
      -0.7965658711535705,
      2.242679929485231,
      -0.1418194180910273,
      -0.9353643679434774,
      -1.5291287012259305,
      -0.9629634075277037,
      0.429362239054264,
      1.5297548297024925,
      -1.2393982600764304,
      1.8002131852681968,
      -1.6890989963788503,
      -1.6917484602613158,
      -1.027554802923713,
      -0.7961425246019646,
      -0.9619209215534367,
      -0.8999050078207089,
      -0.8425888995726437,
      2.311021150241014,
      3.7348574224648994,
      -0.9845262617881029,
      2.2426799294743076
    ],
    [
      -0.15289195579833115,
      -0.5669135600370855,
      -0.2540690405771826,
      -1.1992126951123563,
      0.4640186042136866,
      -1.1947033590743426,
      0.6816828373375365,
      -0.3472998875584707,
      0.3908564849777348,
      -0.6549878209076845,
      0.7638324599364351,
      0.4970426396820663,
      -1.3738148383092552,
      -0.09241857569880298,
      -1.1938312841793384,
      -1.046986997569571,
      -0.9278548199242949,
      -0.6155430242455583,
      0.38081825676509584,
      -1.1881181504763607,
      -0.5669135600371087
    ],
    [
      0.6495228780430796,
      -0.5885449299427846,
      -0.5585987332244633,
      -0.7172512751158506,
      1.2528849221062903,
      -0.7107847210544691,
      -0.24823635634640825,
      -1.0183406020842263,
      1.2184931070525677,
      -1.1295117549671212,
      1.222796219454213,
      1.1803841269486397,
      -0.7046781324978115,
      0.5998637759677243,
      -0.7114887672035668,
      -0.7063655197858996,
      -0.6928486583745394,
      -0.7437581042428091,
      0.19063701626981064,
      -0.7055537593136524,
      -0.5885449299428108
    ],
    [
      0.05416019203960614,
      -0.556423794032252,
      -0.7053280032079435,
      -0.691066197668317,
      0.31798269383382405,
      -0.684270390787958,
      -0.46983838152437446,
      -0.5330134581979186,
      0.24245826529523576,
      -0.5411222670218444,
      0.42718735482182985,
      0.3674558691893824,
      -0.6528668883764199,
      0.052398314332300494,
      -0.6855415346097223,
      -0.697538076571961,
      -0.6946470082597401,
      -0.5754696612455964,
      0.0979011982366192,
      -0.679929654210353,
      -0.5564237940322386
    ],
    [
      -0.4709122083218877,
      -0.46353964084771215,
      0.16787349196632426,
      -0.4796406836555743,
      -0.269103009933201,
      -0.4771606778743271,
      0.7447003641828753,
      0.216545866064639,
      -0.3346140135819124,
      0.020834496991444285,
      0.04934027512133694,
      -0.1840679420917885,
      -0.5171383922930336,
      -0.4668902920529293,
      -0.4747959287127302,
      -0.4384534196365113,
      -0.40979976974288945,
      -0.3286100286406829,
      -0.20156226994612172,
      -0.4701231273844933,
      -0.46353964084770166
    ],
    [
      -0.5162141172926225,
      -0.04879681846334746,
      -0.7818895568249163,
      -0.6041981676227542,
      -0.8273738893724758,
      -0.5958038172239796,
      -0.9964273679052925,
      0.3331434112443695,
      -0.8242164157113118,
      0.7507469832216415,
      -1.06279782923987,
      -0.7783420923330343,
      -0.5247816847455928,
      -0.5277618226750814,
      -0.598696215434137,
      -0.6463536290439431,
      -0.671896375821853,
      0.23993588311339484,
      -5.013673364330443,
      -0.5982003651079312,
      -0.04879681846220526
    ],
    [
      -0.7873591018389732,
      2.2528214479535023,
      -0.08060722784746077,
      -0.4843678174465153,
      -1.4605942619791041,
      -0.5009212548348542,
      0.19491902678732573,
      1.4687135927263164,
      -1.2336677618683078,
      1.8262237858236674,
      -1.7288054619749171,
      -1.599776440071935,
      -0.47427482192577347,
      -0.7669351703259045,
      -0.49992984702285403,
      -0.51655251743041,
      -0.5259121743480554,
      2.190328321612528,
      -7.506931936626048,
      -0.5226362488111599,
      2.252821447959242
    ],
    [
      -0.8069329882158505,
      2.034510476914749,
      1.0644366230923423,
      0.45467753801893956,
      -1.469992796850731,
      0.43049824452164315,
      0.9880403939407327,
      1.69121327163918,
      -1.2296216260799953,
      1.7659022341091468,
      -1.612193632821979,
      -1.6104575816256186,
      0.4471105767454042,
      -0.8185404422344056,
      0.4344857659983997,
      0.41610415951283947,
      0.39349793930521754,
      2.1149065085924614,
      -0.3454724053124229,
      0.41397668183369823,
      2.034510476916799
    ],
    [
      -0.2229458044319389,
      -0.5803752326424897,
      1.7908639811815272,
      -0.24455823838291574,
      0.8710370906611273,
      -0.24272890724829566,
      1.7988468930201738,
      -0.30009814488936704,
      0.8004284458925954,
      -0.8995671786022043,
      1.2210369451906298,
      0.8473735105786782,
      -0.4299230406159683,
      -0.2574003111775797,
      -0.2377601789885738,
      -0.07850312219410663,
      0.04986272429642388,
      -0.6895275247184799,
      -0.8606147268029354,
      -0.23191467448521239,
      -0.5803752326425196
    ],
    [
      -0.17242020248394926,
      -0.5509442208083907,
      -0.16996952331168647,
      -0.19834766598984738,
      0.24323194220706876,
      -0.1943613470632351,
      0.15612704778969663,
      -0.3251795639328343,
      0.16140708962879113,
      -0.47453771561549735,
      0.4685976788839074,
      0.30015437260256705,
      -0.1522772215054557,
      -0.18174668042214276,
      -0.19341002376240063,
      -0.22583736878611615,
      -0.2517990966077821,
      -0.5546927696298963,
      0.5440659862518129,
      -0.18785466906890305,
      -0.5509442208083976
    ],
    [
      -0.1870300726982669,
      -0.5287147343056543,
      -0.29702851838900746,
      0.24497723750828937,
      0.020477650105063493,
      0.25075202932563573,
      -0.33532202152187235,
      -0.2846837697775385,
      -0.06212265435269938,
      -0.28334012861823,
      0.14869364069841948,
      0.09707312455255543,
      0.35509091657064407,
      -0.2234372073588942,
      0.2502429197605113,
      0.14956231809402037,
      0.05663155247436266,
      -0.4800079440460037,
      0.04941400229246071,
      0.25557463523931023,
      -0.5287147343058257
    ],
    [
      -0.28343684395028207,
      -0.4812532098301352,
      -0.5021424410377479,
      -0.10082999377542026,
      -0.2499341584162193,
      -0.0952646303691343,
      -0.43124166146222204,
      -0.10036623672851808,
      -0.3047282490635935,
      -0.03077602144121084,
      -0.16349966717621958,
      -0.15955881031440747,
      0.0013290638164406548,
      -0.2928797495176587,
      -0.09607763782422078,
      -0.17911414310142862,
      -0.24729891614084018,
      -0.3588274557849547,
      0.08789657645039926,
      -0.09122347376838207,
      -0.48125320983019393
    ],
    [
      -0.5320265804954808,
      -0.022614078670104076,
      0.5172588044528922,
      0.32850482923711655,
      -0.3626552665114461,
      0.32586132394478284,
      0.7202776073443334,
      0.5700961916327885,
      -0.49704994112441625,
      0.4592915690288814,
      -0.4068086302001912,
      -0.3188682906141259,
      0.36814352925583615,
      -0.5224231685512217,
      0.32900233275646235,
      0.2876581714192154,
      0.2453419094234756,
      0.05196097244831474,
      -0.2648216661689731,
      0.3292303775222376,
      -0.022614078670149904
    ],
    [
      -0.63459106268363,
      1.0059085476368472,
      1.673777496984619,
      0.9741401776706083,
      -0.7585825301433307,
      0.9609336657502721,
      1.0613813289400194,
      1.013185801810309,
      -0.7294671980633879,
      0.9189715959237613,
      -0.7500285642181808,
      -0.7964829830665632,
      0.9216749825921401,
      -0.6310778896002514,
      0.9650257284807853,
      1.0020379450232824,
      1.0340346681546708,
      0.9103355384334816,
      -1.0196623489743486,
      0.9548818170332974,
      1.0059085476376362
    ],
    [
      -0.8164412952470073,
      2.54171769072095,
      2.9370864991472287,
      1.759623771661073,
      -1.4716343300130619,
      1.728868328777597,
      1.491961279804886,
      1.8452398995027768,
      -1.2336246800668778,
      1.8100697822797684,
      -1.5257728676746036,
      -1.6158517332710802,
      1.6145539497455959,
      -0.8251564257937645,
      1.7342838659450661,
      1.8384941591563995,
      1.9302484447355255,
      2.2176354108766474,
      -0.2118291879350189,
      1.708654253421713,
      2.5417176907229995
    ],
    [
      2.2145539549527036,
      -0.5972217188376215,
      -0.8928794131614394,
      -0.7006834704739676,
      2.0582061733289736,
      -0.6917392553219137,
      -0.9414339296624351,
      -1.6282558067898794,
      2.234851494199819,
      -1.5772992456215846,
      1.781451712027962,
      1.9056589683140253,
      -0.6564899502085524,
      2.25686308726799,
      -0.6946506903094963,
      -0.7091028777026209,
      -0.7065257538289691,
      -0.8289071402977369,
      0.0076461843115010475,
      -0.6886273774121594,
      -0.5972217188376472
    ],
    [
      0.7091184305755543,
      -0.580698913348541,
      -0.8128803474545381,
      -0.08391798293524867,
      0.8459530314504315,
      -0.07514670835081794,
      -1.0443365372999156,
      -0.9987444516047884,
      0.7997354495727346,
      -0.9085233031357272,
      0.7884677680400551,
      0.8259996890106742,
      0.0384604021722696,
      1.1159862217690828,
      -0.07814796497454826,
      -0.1764550346490002,
      -0.25575176116668624,
      -0.6881134828486466,
      0.08268407037086278,
      -0.0722908851722219,
      -0.5806989133485623
    ],
    [
      0.07669206828984572,
      -0.5570073548912643,
      -0.5819392518151559,
      0.018488653356224297,
      0.2948045906384202,
      0.025786499925727412,
      -0.7432841087163937,
      -0.5943168751322022,
      0.2282870486928108,
      -0.535277993503595,
      0.36278718289597933,
      0.34773210568282364,
      0.141255906111376,
      0.017751208050276936,
      0.023890679482209385,
      -0.07982937343211194,
      -0.1677424684662575,
      -0.5737616387125299,
      0.17606980626576385,
      0.02950864961994102,
      -0.5570073548912838
    ],
    [
      -0.13172407400679204,
      -0.5625726770230132,
      0.4585669861742575,
      0.33901734363623054,
      0.5264906819079619,
      0.34193688479029294,
      0.6131038534555078,
      -0.36262644351466455,
      0.4203814274954205,
      -0.643336982835875,
      0.7535612801463049,
      0.5468715272781958,
      0.3672206662201031,
      -0.11935171660004137,
      0.3444933823444464,
      0.31577090237430255,
      0.2822950097314837,
      -0.6128801911286234,
      0.12707582099779838,
      0.3501637532009475,
      -0.5625726770231317
    ],
    [
      -0.3549538491977525,
      -0.4005315840816392,
      0.012089970687330157,
      0.6857336251117541,
      -0.23514324282101282,
      0.6902235426829008,
      -0.09401452070579944,
      0.02640191135272975,
      -0.31128744128342456,
      0.034556196180950315,
      -0.14229318013517447,
      -0.15922840080326198,
      0.7714628619261783,
      -0.35303492659827207,
      0.6904170075253216,
      0.6018344581752737,
      0.5107907686834201,
      -0.2901268259395391,
      -0.5412374628136604,
      0.6944545729678272,
      -0.40053158408174916
    ],
    [
      -0.40637446420576273,
      -0.563628404952965,
      5.306591310926728,
      1.9388724535635127,
      0.5461057027987057,
      1.938401128543899,
      2.2176508647086863,
      0.041157729694474766,
      0.42023808501264664,
      -0.6323202551919956,
      0.9824986908020396,
      0.5625070651687383,
      1.6387314939411854,
      -0.30548917862554775,
      1.9456117514371143,
      2.2410632201382468,
      2.52101739276912,
      -0.616632839635998,
      -0.8950863074347195,
      1.9512783747985447,
      -0.5636284049530095
    ],
    [
      -0.6487394096821646,
      0.02831736931164411,
      2.491563536839277,
      1.5575026986849076,
      -0.5652912026398756,
      1.5522347216564099,
      1.5253551928097515,
      0.8705532778114788,
      -0.6578200525601308,
      0.585992438048579,
      -0.36514653406147635,
      -0.5133224192445951,
      1.4539992531468864,
      -0.6370990199895633,
      1.5579252955265235,
      1.656344098935257,
      1.7505601169327574,
      0.1186440958816004,
      -0.550973597112561,
      1.5576320373611965,
      0.028317369312567287
    ],
    [
      3.351398738992203,
      -0.5979851911222506,
      -1.1455305856494975,
      -0.7218403305573966,
      2.19342135119163,
      -0.704894025466446,
      -1.9673672683107917,
      -1.9752355632836234,
      2.3330179979546344,
      -1.6139861163183666,
      1.8142620993980187,
      2.033830827577032,
      -0.620920065107277,
      4.078192430413324,
      -0.7109833601322502,
      -0.7636356155302243,
      -0.7856271774756397,
      -0.8401956283327062,
      -4.707837662230592,
      -0.7049508196583526,
      -0.5979851911222861
    ],
    [
      1.9009167570405197,
      -0.5981411030681907,
      -0.26195037891771283,
      0.24971064991551975,
      2.2637337769813124,
      0.25627797397030005,
      -0.27107625968975113,
      -1.5490385168950813,
      2.4571503475895295,
      -1.6471698968336967,
      1.996681710881738,
      2.1073236028886257,
      0.35321848068598455,
      1.7242721775322574,
      0.25598449181692323,
      0.1637678424187148,
      0.079385958122841,
      -0.84496460204092,
      -0.21469456637940396,
      0.26201579768424543,
      -0.5981411030682147
    ],
    [
      0.7975084580275359,
      -0.5645096155874284,
      -1.0612454485153473,
      0.427662089756503,
      0.407611495699325,
      0.4407315129365828,
      -2.2870100526272013,
      -1.0516344959878623,
      0.34057994383071954,
      -0.6236045311385282,
      0.13973190088006968,
      0.4482850105057383,
      0.6059361990446431,
      0.719016911353689,
      0.43282307336851017,
      0.2623926926295488,
      0.10536750759619912,
      -0.6035262494838548,
      0.4677271842309023,
      0.43851698440341574,
      -0.5645096155874719
    ],
    [
      0.1962210566104831,
      -0.5693898887041653,
      -0.13635340169518928,
      1.0553125615556425,
      0.5902575881966209,
      1.0623092693785632,
      -0.4507202661355067,
      -0.6841593713561607,
      0.481542386160107,
      -0.7010670158647951,
      0.6479298820624326,
      0.6052328392005004,
      1.1368712765882751,
      0.24521063679598468,
      1.0608433121273249,
      0.9673127943947846,
      0.8635463280209297,
      -0.6343923590429902,
      0.15355411293130886,
      1.0665816914914796,
      -0.5693898887041586
    ],
    [
      -0.2590896896042424,
      -0.5542483764521073,
      1.4621268833045622,
      1.3672185542747797,
      0.44093144128601447,
      1.3695322786977846,
      0.9831603607382788,
      -0.2045017657511275,
      0.303164631660834,
      -0.5495751316279791,
      0.7258279886043741,
      0.47050098451804423,
      1.3348329517515989,
      -0.2631503383223358,
      1.3733388847208015,
      1.4020835005181684,
      1.4216923991228698,
      -0.5840452272754972,
      -0.3262605401691597,
      1.3789203951960707,
      -0.5542483764521312
    ],
    [
      -0.1270294580031532,
      -0.4777439069919551,
      -0.098002206752398,
      1.6449580852321073,
      0.011311616191501672,
      1.6522143902438127,
      -0.6437716502133823,
      -0.3133576861845853,
      -0.0894724082214059,
      -0.2092065227281495,
      0.01837668496406765,
      0.07758873128121618,
      1.6978769512190703,
      -0.10536720585426718,
      1.6494498178726198,
      1.564891319346057,
      1.4535766640438794,
      -0.42666995195083135,
      0.2123347474678629,
      1.6542617753778248,
      -0.4777439069921024
    ],
    [
      -0.518062936839255,
      0.04067356173186485,
      1.4206040556474908,
      2.1604541966890047,
      -0.31886681732080846,
      2.1578027597047913,
      0.6591579830989176,
      0.540863852814281,
      -0.4803244753253612,
      0.44975502455899996,
      -0.3999251118955401,
      -0.2800529645117966,
      2.073922119860367,
      -0.49745770595905114,
      2.159907473171093,
      2.224657361705688,
      2.273717678288326,
      0.04845944845546011,
      0.0549308791150356,
      2.159488300721074,
      0.04067356173109249
    ],
    [
      4.062069689102484,
      -0.5997049382092426,
      -1.0465383924380975,
      -0.631450539403222,
      2.566345026614631,
      -0.6206456016985235,
      -1.7405591935070683,
      -2.07506391983063,
      2.9425556532138426,
      -1.8145070984009681,
      2.1372230574948277,
      2.404319489281771,
      -0.5445552244663104,
      3.7009156241864005,
      -0.6261107666511921,
      -0.677488227970372,
      -0.7033508790149847,
      -0.8696009443515766,
      0.7076626440190785,
      -0.6200613979372945,
      -0.5997049382092688
    ],
    [
      4.531349928044856,
      -0.6000702962747427,
      -0.7557552309913221,
      0.7885543204901831,
      2.7071011256160697,
      0.8011814982054898,
      -1.6947591543479161,
      -2.1150428144329383,
      3.261041609489011,
      -1.8769497833393523,
      2.2806653116305773,
      2.5532265011851103,
      0.9247102679573805,
      4.535802893899651,
      0.7950145309324153,
      0.6552438910952343,
      0.5152410185486841,
      -0.879314918759019,
      -0.35199194898608754,
      0.8010645311044229,
      -0.6000702962747747
    ],
    [
      1.9029173817069214,
      -0.5969202932100393,
      -0.12649447371949277,
      2.073094949574072,
      2.0278126685796343,
      2.08355096239009,
      -0.889771230602411,
      -1.576033348780073,
      2.089910073059454,
      -1.521038884058213,
      1.7298076674599534,
      1.8792518017431679,
      2.0834372756467108,
      1.802699625009626,
      2.0791193196473894,
      2.029696255878087,
      1.9444025225571264,
      -0.8257251484910326,
      -0.041395422957744635,
      2.085129992055956,
      -0.5969202932100707
    ],
    [
      0.5400265290609005,
      -0.5765808934940649,
      -0.4511570937418192,
      1.4896333951181002,
      0.7666823938749618,
      1.5003450904057942,
      -1.2630902481150434,
      -0.994873765230604,
      0.6579804683801763,
      -0.8180143933438622,
      0.6616882401700943,
      0.7598009129144547,
      1.5813321441609616,
      0.4970818770780756,
      1.4951805210274873,
      1.375748698736529,
      1.2347187235605896,
      -0.668429685419001,
      0.16683647889782705,
      1.5009903229795365,
      -0.5765808934940866
    ],
    [
      0.45545141343239115,
      -0.5926849987182224,
      1.3042831613321013,
      1.571148333631347,
      1.5913059093216013,
      1.5746781676255328,
      0.8552334943095703,
      -0.9270725082767332,
      1.6124095176824702,
      -1.3115343131617814,
      1.6191510955126696,
      1.4834375124610937,
      1.525142901747721,
      0.3555895387655567,
      1.5778458315518638,
      1.6226860162890135,
      1.6613709986782066,
      -0.7813475421746012,
      -0.5442553132806397,
      1.5838137456412529,
      -0.5926849987182475
    ],
    [
      0.2174099090078089,
      -0.5582649445888636,
      0.19099779668131167,
      2.6215123163804934,
      0.49802872482626137,
      2.6316852104801294,
      -0.6934553474125701,
      -0.6541650333816689,
      0.34560169673698793,
      -0.5792020230653138,
      0.47349297515669914,
      0.520370734128672,
      2.529737636219373,
      0.3923091036156608,
      2.6270574756601763,
      2.6766838077804413,
      2.6836972933801055,
      -0.6001373224906791,
      0.009493638916689862,
      2.6326738919341586,
      -0.5582649445888767
    ],
    [
      0.35539564545020363,
      -0.575647984357808,
      0.9579811822184776,
      3.908918222850299,
      0.8820183851350422,
      3.9197376638032178,
      -0.18005462733801675,
      -0.7570075710620838,
      0.7579222717530916,
      -0.8474125657966497,
      0.8973803652915622,
      0.8579638384929262,
      3.5183049509707276,
      0.5905035539415411,
      3.9149598577665565,
      4.2981094403446045,
      4.6663895143934875,
      -0.6760305292626926,
      -0.19947393755455994,
      3.920738946655813,
      -0.5756479843578232
    ]
  ],
  "sample_order": [],
  "config": {
    "grid": [
      7,
      7
    ],
    "dim": 21,
    "learning_rate": 0.4,
    "sigma": 3,
    "num_epochs": 100,
    "num_samples": 300
  }
}