{
  "seed": 42,
  "initial_weights": [
    [
      0.5169734802864846,
      -0.5521650381086821,
      -1.080885531069935,
      -0.3573771279677558,
      0.2917599403734312,
      -0.34620945783380974,
      -1.9052811212399035,
      -0.8683103875046487,
      0.22283897219141383,
      -0.5145140531218908,
      0.08646688911981956,
      0.3416741588002799,
      -0.22155261541756432,
      0.5905400823288114,
      -0.3521173576451774,
      -0.45364261200307693,
      -0.5264440800943936,
      -0.5632835785877939,
      0.28435700415285825,
      -0.3465466512405022,
      -0.5521650381087595
    ],
    [
      -0.33232242546049906,
      -0.2530774986448252,
      -0.8621837320359503,
      -1.0832644538202059,
      -0.4249101996801517,
      -1.0816312229920007,
      -0.7979525663789677,
      0.011212946673219204,
      -0.4850949653356309,
      0.2657008551038943,
      -0.5036042595866792,
      -0.3487953150280328,
      -1.099624262854342,
      -0.34405771743260527,
      -1.0842480794213476,
      -1.0459204984930586,
      -0.9937231337830054,
      -0.12111330557118472,
      3.387905348748615,
      -1.0816940928610492,
      -0.25307749864618556
    ],
    [
      -0.459017142960552,
      -0.06599884605973264,
      -0.6858121767682619,
      -1.322677166529611,
      -0.3953330840568813,
      -1.3215170502249098,
      0.08705443843074556,
      0.3968798573104293,
      -0.5097944286541684,
      0.4369534633751741,
      -0.5234899758332496,
      -0.34195399263402404,
      -1.4500765311779944,
      -0.45413573820773745,
      -1.3221164064555815,
      -1.1981774852485563,
      -1.0830573884454073,
      0.02275575049911692,
      0.13499033590352938,
      -1.3214506649784783,
      -0.06599884605982213
    ],
    [
      -0.5518076524544983,
      0.0034153539666084017,
      -0.12677083683694643,
      -0.5044086601219898,
      -0.5254955844392739,
      -0.506053612277594,
      0.4268125177909897,
      0.5933226688981033,
      -0.6131079528893788,
      0.572722145644168,
      -0.5964632919677193,
      -0.4730003807287057,
      -0.49929902182563246,
      -0.5486800585584581,
      -0.5044103958741093,
      -0.5022982272755108,
      -0.4959963463890621,
      0.12196662182173736,
      -0.04312460640462268,
      -0.5044431066364823,
      0.0034153539668143147
    ],
    [
      -0.7981770234516938,
      2.101332915000714,
      -0.25304781804284404,
      -1.223458963849754,
      -1.4847636305470724,
      -1.2465690892990706,
      0.5808061145574577,
      1.5877072542510584,
      -1.2327867927895535,
      1.780196997653314,
      -1.6914241896013724,
      -1.6315912474306002,
      -1.3979909874249608,
      -0.8069446019950908,
      -1.245795910995582,
      -1.1140124838922632,
      -1.0007458666746338,
      2.1748635363218525,
      1.1307807290544716,
      -1.266978043417016,
      2.10133291499666
    ],
    [
      -0.8049741278875775,
      2.118124902643434,
      0.3389126486191425,
      -0.578088055005859,
      -1.481493405546563,
      -0.6023301343118336,
      0.8457664560099666,
      1.6761339094126704,
      -1.2327791462820943,
      1.789858542368758,
      -1.6663363795782846,
      -1.624644891372263,
      -0.6507242384028189,
      -0.8183876051508188,
      -0.5996880101249006,
      -0.5573300474325259,
      -0.522409215938415,
      2.1653645819854477,
      0.24044603577500928,
      -0.6210385332393149,
      2.118124902641802
    ],
    [
      -0.1835983612003702,
      -0.5086894985861328,
      -0.5788579061600617,
      -0.3134944088303477,
      -0.07843479105992651,
      -0.3074893792824907,
      -0.4538238424719845,
      -0.24383735373711804,
      -0.13515979796807023,
      -0.1997162540760677,
      0.026436025434217855,
      0.0019082624119313718,
      -0.23257846814253225,
      -0.19896148433825958,
      -0.30850715252069677,
      -0.36693217021334085,
      -0.40994365758063567,
      -0.4321326011932226,
      0.13477098203144697,
      -0.3033763789897341,
      -0.508689498586252
    ],
    [
      -0.09460977197790069,
      -0.5583074321258146,
      -0.5950841439587098,
      -1.4712742395353777,
      0.36680566241699325,
      -1.4648923975341936,
      0.2696096353298435,
      -0.38452821029939166,
      0.3004419360920124,
      -0.5794187954808899,
      0.5998640438921786,
      0.4092749962667888,
      -1.7030425838656862,
      -0.12129454859890786,
      -1.4658683238654628,
      -1.2729006894187445,
      -1.11589437434568,
      -0.5860935690297352,
      0.2826103737285162,
      -1.4602427255679198,
      -0.5583074321258003
    ],
    [
      -0.48154814085143127,
      -0.45643363482899385,
      0.17460223834867736,
      -0.5801758438367964,
      -0.2766517002799799,
      -0.5777010384367273,
      0.8610510987672158,
      0.26191892467043193,
      -0.34870550549439766,
      0.0444304355132487,
      0.05155753226357507,
      -0.19327481630397067,
      -0.6451129930167214,
      -0.4340772326159812,
      -0.5751670346606138,
      -0.5130398142042868,
      -0.46146300290178377,
      -0.31744008671755936,
      -0.41955460917517196,
      -0.5705663376974757,
      -0.45643363482903737
    ],
    [
      -0.6828650980993947,
      0.18633118062692308,
      0.6019935477276765,
      -0.4470174458149576,
      -0.816167783037761,
      -0.4526035742651372,
      1.2529551070392868,
      1.0394969916550725,
      -0.836388312282559,
      0.8776485857966089,
      -0.721552195755636,
      -0.7775187988152411,
      -0.529152887982555,
      -0.6720670409096935,
      -0.44872269466992126,
      -0.3801156197683991,
      -0.3230507103474817,
      0.37797846782338457,
      -0.1469794833693712,
      -0.4506018312449208,
      0.18633118062693943
    ],
    [
      -0.7873246214110985,
      2.2537676814435716,
      -0.08725521337465468,
      -0.4980506018646518,
      -1.4615603385717257,
      -0.5145350171902165,
      0.19396364745009734,
      1.4687368806587828,
      -1.233703507319164,
      1.8267598054788838,
      -1.7292429117005865,
      -1.6007844353386886,
      -0.489513155652212,
      -0.766932120165268,
      -0.5135596278847938,
      -0.5285490832726644,
      -0.5363347421112034,
      2.190889205601252,
      -7.573317371934038,
      -0.536275571267026,
      2.2537676814493244
    ],
    [
      -0.8044260101338225,
      1.9961883636763527,
      0.9745899963768951,
      0.48054142415659995,
      -1.4643269436495059,
      0.4571291788225361,
      0.8887488490826438,
      1.6583352954553818,
      -1.2279310822570155,
      1.7583452371437194,
      -1.6249934412990081,
      -1.6027002202980047,
      0.48304078578691134,
      -0.8146542317069239,
      0.4608090617308175,
      0.43191059974701745,
      0.398322172828098,
      2.090232361744749,
      -0.3681254904737724,
      0.4406864608607763,
      1.996188363677854
    ],
    [
      -0.06731711354288288,
      -0.526616271876227,
      -0.7917958061284919,
      -0.7569319216429607,
      0.05098748589004061,
      -0.7502610699402456,
      -0.623164526852,
      -0.37546216185381004,
      -0.023147722084938885,
      -0.3074618742969822,
      0.11666760163158549,
      0.12315511835410195,
      -0.7215647236338137,
      -0.07849558382137686,
      -0.7520699257723585,
      -0.7581655989541886,
      -0.7473273406430535,
      -0.48354232549890974,
      0.44471033704080687,
      -0.7467583632503114,
      -0.5266162718762544
    ],
    [
      0.793361348332002,
      -0.5883555797760628,
      -0.5994311066005353,
      -0.571943756352494,
      1.2814082477799222,
      -0.5648300015677884,
      -0.44499262036882437,
      -1.0826692826648252,
      1.2555486176293311,
      -1.1421672814881585,
      1.2119976088984683,
      1.2074207625066908,
      -0.5283074575636731,
      0.7956716592846089,
      -0.5660080959038437,
      -0.5861447563714883,
      -0.5929339176402746,
      -0.7448988400046771,
      0.010661874439727964,
      -0.560074568342512,
      -0.5883555797760919
    ],
    [
      -0.5204485770594199,
      -0.010451725111741389,
      -0.7515383950254392,
      -0.5051965406006909,
      -0.8530963800032593,
      -0.4975679632561046,
      -0.9563731358493337,
      0.3701832215469949,
      -0.8375308650781621,
      0.7747432536260976,
      -1.0852914994721325,
      -0.8062202413081238,
      -0.4186742427978445,
      -0.5218198916858594,
      -0.5003475888225519,
      -0.5586491437336658,
      -0.5960499517814462,
      0.2749069434892359,
      -4.691142159202244,
      -0.50023834615044,
      -0.01045172511026203
    ],
    [
      -0.5028165915647174,
      -0.10707122891623383,
      0.4616529074933089,
      0.3705821487298282,
      -0.3211261757324837,
      0.3691803294567851,
      0.6282895051164566,
      0.4586235601352924,
      -0.44004983431119743,
      0.3468580617839026,
      -0.31198187907208585,
      -0.26941433800361425,
      0.41563301464038954,
      -0.50009315305831,
      0.37199161664560465,
      0.32518635765327714,
      0.2766955976195289,
      -0.03175392866067266,
      -0.29992108162116254,
      0.37307099340528854,
      -0.10707122891634838
    ],
    [
      -0.621908628498775,
      0.9876861227035457,
      1.309891509125748,
      0.8659491442687413,
      -0.8006129636506328,
      0.8537985484178072,
      0.8328945677332605,
      0.9797364050732976,
      -0.7635760051138948,
      0.9499070582850996,
      -0.8288976051668357,
      -0.834962959318117,
      0.8340021854057493,
      -0.6170392585755602,
      0.8571020237865492,
      0.8744148400558903,
      0.8875517932717886,
      0.9127812822031057,
      -1.114428583668416,
      0.8471427102223079,
      0.9876861227043879
    ],
    [
      -0.8164944424007986,
      2.6655843066398655,
      3.005388446859286,
      1.8702101164870781,
      -1.4686327712883593,
      1.837877117899467,
      1.5016405157933586,
      1.838525999174588,
      -1.232023944809512,
      1.8012068251289128,
      -1.5100984740274388,
      -1.611080795025545,
      1.7120748883595693,
      -0.8255859957176185,
      1.8433142277882244,
      1.9626931003059411,
      2.0735653296596377,
      2.2101580943837544,
      0.011225303265543787,
      1.8164353581684942,
      2.665584306641053
    ],
    [
      2.1426038309138806,
      -0.5960981442820132,
      -1.061538789879253,
      -0.9522793481407106,
      1.8742248558403376,
      -0.9424259933351693,
      -1.168147620507855,
      -1.5841448578899313,
      1.965771758455171,
      -1.4766164411767218,
      1.5956358146526581,
      1.7313127974246187,
      -0.9387450234956285,
      2.2352784815966023,
      -0.9461861710158102,
      -0.9257386536994238,
      -0.8878236501693534,
      -0.8130783384454985,
      -0.03946296706727166,
      -0.9401742771457502,
      -0.5960981442820323
    ],
    [
      -0.2197784045819141,
      -0.5802185738974788,
      1.770372957479849,
      -0.2664996569535939,
      0.8717959236740568,
      -0.26462261105532087,
      1.796060731014663,
      -0.29926296297631605,
      0.8006609615800983,
      -0.8978333086640846,
      1.218822910023194,
      0.8478127521640879,
      -0.4570949273317849,
      -0.24029809711683256,
      -0.259724009157961,
      -0.0966805909668079,
      0.03423640819336269,
      -0.6892341879793983,
      -0.846998914043161,
      -0.2538801639940958,
      -0.5802185738975072
    ],
    [
      -0.1123775891643359,
      -0.5492087017599656,
      -0.019286040718998365,
      0.31464491019001484,
      0.30563473368311245,
      0.3193803954394435,
      -0.054133535016539114,
      -0.4006772144612495,
      0.21986607735603148,
      -0.49889723960725885,
      0.45914238429450205,
      0.35127878847758487,
      0.40322593911065757,
      -0.1539297949422896,
      0.3198094913138125,
      0.23655318012634224,
      0.1561023041409802,
      -0.5581869617508254,
      0.2951216385295828,
      0.32534696019299036,
      -0.549208701760103
    ],
    [
      -0.1848011348842095,
      -0.5569930425426901,
      -0.129996632325316,
      -0.7961662057640936,
      0.3561883630320489,
      -0.792675023260284,
      0.6030286837467969,
      -0.28355627387158033,
      0.2721240560297862,
      -0.5528008538864637,
      0.6380087694770431,
      0.39946791960817063,
      -0.8789595305288094,
      -0.13653572580204643,
      -0.7912601236973187,
      -0.715546748586671,
      -0.6513372295245508,
      -0.581075001757917,
      0.6971680537372125,
      -0.7856456104182317,
      -0.5569930425426991
    ],
    [
      0.02082099677586366,
      -0.5687092985382664,
      1.4101355792822288,
      1.4214707116936827,
      0.8906456452554744,
      1.424203036214178,
      0.9363682419675926,
      -0.483793436949144,
      0.8131866779387629,
      -0.8420805927130868,
      1.0729087316543076,
      0.8672135554619215,
      1.3865040548574386,
      -0.02660792135767308,
      1.4277916733087381,
      1.4594926295612765,
      1.4825469193034537,
      -0.6593946870961777,
      -0.3852822164589971,
      1.4335187025758889,
      -0.5687092985382901
    ],
    [
      -0.6442662110301433,
      0.04377791022193192,
      2.5313422690938117,
      1.6529109291385142,
      -0.5457556647062308,
      1.647562773616318,
      1.5134857426986952,
      0.8629465536153551,
      -0.6445448683088741,
      0.5810769796052124,
      -0.36058052181176203,
      -0.4960490849960234,
      1.539739726591548,
      -0.6331713604426654,
      1.6531562897779586,
      1.7627307293108043,
      1.8703323877289886,
      0.11995946524845383,
      -0.5551122335525708,
      1.6527066203510496,
      0.043777910222192684
    ],
    [
      3.5921092210616323,
      -0.5998452038189234,
      -0.8841138834061998,
      -0.611127176100456,
      2.6030546318552537,
      -0.6016741415624391,
      -1.2493768939963612,
      -1.9672260828738797,
      3.013255621145728,
      -1.8332484266147187,
      2.207314284198876,
      2.441995506288927,
      -0.5391332200904321,
      3.2607986689155166,
      -0.6055230663421027,
      -0.64781733607203,
      -0.6695869946974214,
      -0.872335927914184,
      0.4296366410977228,
      -0.5994727805270028,
      -0.5998452038189491
    ],
    [
      1.8719865506726199,
      -0.5979487286226003,
      -0.3441526544352883,
      0.17012803065904175,
      2.198009913878519,
      0.17736478129290834,
      -0.48446840681464054,
      -1.5782492871850784,
      2.3887773676525432,
      -1.6306459516695078,
      1.9333606220179935,
      2.0401660866707454,
      0.27522046666581873,
      1.6251711177527086,
      0.1762736932500039,
      0.08367861690692238,
      1.0897438323443677e-06,
      -0.840322001633394,
      -0.12403870010487664,
      0.18230335702015174,
      -0.5979487286226249
    ],
    [
      -0.1667245903689632,
      -0.5511088375070213,
      -0.06557833289934656,
      -0.1879553149157478,
      0.30110038231088054,
      -0.18425578167644374,
      0.3630523192083208,
      -0.30383968491061863,
      0.21321553209138697,
      -0.5012537187852218,
      0.5455778411285765,
      0.34932873317606955,
      -0.16505144262780871,
      -0.13456875813144287,
      -0.1827204528165354,
      -0.19491189421348723,
      -0.20364280020233128,
      -0.5632745828537453,
      0.3007288232047965,
      -0.1771641414933509,
      -0.5511088375071164
    ],
    [
      -0.22036711201159057,
      -0.3591915948896169,
      0.08230754832762133,
      1.6346962688248106,
      -0.05649562156655088,
      1.6397104388576702,
      -0.3972125854281583,
      -0.13103548539060367,
      -0.17623779938448297,
      -0.05799244867001517,
      -0.08574918178308694,
      0.0024977716100873953,
      1.6791439857104906,
      -0.2296812759699948,
      1.6380213846340235,
      1.5650111264474045,
      1.4690972023853988,
      -0.3198635756116247,
      0.19158681560340723,
      1.6416381488511187,
      -0.3591915948895686
    ],
    [
      0.03598802003187637,
      -0.5627846246123657,
      0.7167860711893439,
      2.4542167828964923,
      0.5647368393633776,
      2.4612359977602356,
      -0.07642905261668431,
      -0.5496147332504491,
      0.4131104950306326,
      -0.6283392359107427,
      0.6521046524208798,
      0.5792783245308516,
      2.366238257311426,
      0.11529877088176654,
      2.459751287304814,
      2.514908656361942,
      2.5357891296804946,
      -0.6148428770223697,
      0.06121060531931973,
      2.465413892008509,
      -0.5627846246124047
    ],
    [
      -0.40637440927490265,
      -0.5636328246958598,
      5.306914644188482,
      1.938913749678762,
      0.5461428449704718,
      1.9384422342311323,
      2.217755376334087,
      0.04115770688223944,
      0.42027663096144163,
      -0.6323512379366464,
      0.9825474743646049,
      0.5625405940555221,
      1.6387497023163036,
      -0.30547743169569314,
      1.945653139839452,
      2.2411278168421287,
      2.5211047729230986,
      -0.6166451556330362,
      -0.8951355777989479,
      1.9513198069621638,
      -0.5636328246959044
    ],
    [
      3.804392035219971,
      -0.5974653574600878,
      -1.2083326541401984,
      -0.5483062845847698,
      2.120003242246201,
      -0.5307943128701436,
      -2.268261026423605,
      -2.0044173415841304,
      2.243026722282924,
      -1.574815597180095,
      1.6967420012411134,
      1.96268342699383,
      -0.4232505584415388,
      4.622272112833835,
      -0.5379922282803757,
      -0.6177436247250936,
      -0.6662114696058093,
      -0.8336550107861124,
      -4.102360786366618,
      -0.531964762325186,
      -0.5974653574601155
    ],
    [
      4.563060714203158,
      -0.6001208259145866,
      -0.7432446470445294,
      0.8316839603768071,
      2.721638978249019,
      0.8443197706780855,
      -1.7042901669521826,
      -2.1229933334248545,
      3.2962205785774215,
      -1.8852823103622944,
      2.294285057362635,
      2.5683807339853764,
      0.9660595105767837,
      4.515623785551224,
      0.8380617605652966,
      0.6980485868921322,
      0.556098176120734,
      -0.8803776872799682,
      -0.2869406382921701,
      0.8441120876028189,
      -0.600120825914618
    ],
    [
      0.19234445994881214,
      -0.5650976230376247,
      -0.2574445443208249,
      1.027826691728451,
      0.501172646837059,
      1.03546558873523,
      -0.6448679022492317,
      -0.6820671175099767,
      0.40079343092226827,
      -0.6465446749674317,
      0.539279308898414,
      0.5270142779723731,
      1.1236308530777825,
      0.19810056535692672,
      1.0333369216465802,
      0.9271107071492042,
      0.8131333091205433,
      -0.6142336904503829,
      0.13734761733115067,
      1.039032527162104,
      -0.5650976230376659
    ],
    [
      0.7074910375178863,
      -0.5730468513106672,
      -0.603277912085592,
      1.6488202674818742,
      0.6855891088565264,
      1.6617343432089215,
      -1.6521329289480509,
      -1.0404001103656153,
      0.577087229620941,
      -0.7626124786093709,
      0.5015521754153087,
      0.6890104081784948,
      1.728800866081303,
      0.6801081304774292,
      1.654541254615149,
      1.539585129159957,
      1.3957643162205664,
      -0.6517103418222815,
      -0.006227577548899799,
      1.660314597539867,
      -0.5730468513106587
    ],
    [
      0.3401058810710935,
      -0.5472793116128987,
      -0.12290510428557755,
      3.3341096915062653,
      0.3689972148031136,
      3.3486387527662203,
      -1.271595475660079,
      -0.7089045327274928,
      0.23642487104704613,
      -0.4971621049664776,
      0.2356951262969314,
      0.4051396951673212,
      3.1218530297962848,
      0.47536075831041313,
      3.3398658802003265,
      3.5042582945876792,
      3.6159392767704106,
      -0.566591000844916,
      -0.22109801896715228,
      3.3453658971581497,
      -0.5472793116128687
    ],
    [
      1.7956904949384516,
      -0.5973884308150256,
      0.15570858977174729,
      2.157660856712382,
      2.1154554250860533,
      2.1667944321916965,
      -0.5462259339254798,
      -1.5331515656356332,
      2.2066582573514353,
      -1.561911215249344,
      1.8328400915245568,
      1.9647735847097554,
      2.131124045728998,
      1.8158539876172712,
      2.1636572997772885,
      2.1603960853067252,
      2.129279477831373,
      -0.8329270289222974,
      -0.01405109941714111,
      2.1696713764518547,
      -0.5973884308150536
    ]
  ],
  "sample_order": [],
  "config": {
    "grid": [
      6,
      6
    ],
    "dim": 21,
    "learning_rate": 0.4,
    "sigma": 5,
    "num_epochs": 140,
    "num_samples": 300
  }
}