{
  "seed": 42,
  "initial_weights": [
    [
      -0.17987160093531354,
      -0.5704988793163003,
      -0.19875586776765233,
      -1.4834000983967293,
      0.5472024491637619,
      -1.478715589974999,
      0.9775043138320076,
      -0.32602903364590474,
      0.4801243383630633,
      -0.7131068880167053,
      0.8803203009064854,
      0.5688466771878334,
      -1.806413972939106,
      -0.16862964083315282,
      -1.478259138162139,
      -1.2356057936154252,
      -1.0542812138094546,
      -0.6332062828824347,
      0.6769790774267468,
      -1.472513205902883,
      -0.5704988793163079
    ],
    [
      -0.36824086585409616,
      -0.20602881933475337,
      -0.821324761671681,
      -1.0815701977336167,
      -0.45891150633013494,
      -1.0807573900706702,
      -0.6876946634530322,
      0.09048350507880742,
      -0.5203381834058253,
      0.3317628077330509,
      -0.5475378228429866,
      -0.38634217339250665,
      -1.1033627288453285,
      -0.3690365415140537,
      -1.0830480305530163,
      -1.0416681707484614,
      -0.9879141938594378,
      -0.0713199355618382,
      3.4012001080767176,
      -1.0809684445415373,
      -0.20602881933643236
    ],
    [
      -0.4330297709894721,
      -0.1305356298499134,
      -0.7427000704613453,
      -1.3111550753016281,
      -0.39921984109184766,
      -1.3089787131494852,
      -0.059970870490438616,
      0.32302133550940115,
      -0.500520509572858,
      0.3876249734070456,
      -0.5119196202775506,
      -0.33917242226834954,
      -1.426281231135397,
      -0.432786839671636,
      -1.3099671987640273,
      -1.1937178906835377,
      -1.083302026007635,
      -0.026062895587746222,
      0.15849448210775804,
      -1.3086506248941432,
      -0.13053562984997574
    ],
    [
      -0.707095738287696,
      0.3178151992227101,
      0.3476957588560218,
      -0.6478617313950551,
      -0.9161667393360239,
      -0.6547752173061422,
      1.084528119127825,
      1.1228197714251373,
      -0.9179646715545512,
      1.0271531112075187,
      -0.9149205719064086,
      -0.8940846911254801,
      -0.7311835009711655,
      -0.7030354866514624,
      -0.6515590076380234,
      -0.5896839813092198,
      -0.5421252055368618,
      0.5388913322536603,
      0.49303828108657827,
      -0.6547628631784546,
      0.3178151992212346
    ],
    [
      -0.799930689039252,
      2.017780466846769,
      -0.12187859866065548,
      -1.1202611094151333,
      -1.4734233970815067,
      -1.1419595364488238,
      0.6956757528355537,
      1.618590182656467,
      -1.2286503129778663,
      1.7651198844082192,
      -1.6749657878795836,
      -1.6121354224790452,
      -1.2830935778929837,
      -0.8126893045291869,
      -1.140708736442899,
      -1.0174989393043632,
      -0.9120604999238119,
      2.1046368898381553,
      0.15222687856650255,
      -1.1610486982187158,
      2.017780466845796
    ],
    [
      -0.809454517642651,
      2.169843473061345,
      0.607337844484326,
      -0.49820552766984155,
      -1.481033004234744,
      -0.5234206093074558,
      1.0957708231690586,
      1.7437707359123733,
      -1.234289695736915,
      1.797721605189165,
      -1.6148056166236862,
      -1.6266219757153857,
      -0.5911879222258916,
      -0.8220430691277116,
      -0.5200495494110126,
      -0.4588804064850274,
      -0.4072194285034705,
      2.187957458729385,
      0.013078513005921638,
      -0.5419222229635335,
      2.169843473063656
    ],
    [
      -0.2709974214576349,
      -0.5429605398401709,
      0.0841837032500233,
      -0.2527203989651979,
      0.20068941942195725,
      -0.25031442056814845,
      0.6320392997595236,
      -0.16989850766406367,
      0.11177974240828956,
      -0.4239360131539647,
      0.5077240039556735,
      0.25890522051539405,
      -0.2907940288793031,
      -0.24677930548513025,
      -0.24831107986527204,
      -0.20513789631478405,
      -0.16678701829124026,
      -0.5332523145846588,
      0.9487068566436618,
      -0.24283841625802768,
      -0.5429605398402356
    ],
    [
      -0.254800587935272,
      -0.48662178946513013,
      -0.6959187879330216,
      -0.5958553762853038,
      -0.23092041844469405,
      -0.5901628177617123,
      -0.4748648284708801,
      -0.13064682980728295,
      -0.2852640086687475,
      -0.055958229577075684,
      -0.14548851264368812,
      -0.14017821944401376,
      -0.5479686054147646,
      -0.2641607539958815,
      -0.5914166073061867,
      -0.6125025982279149,
      -0.6172496629056847,
      -0.37120336399834014,
      0.45838815746698125,
      -0.5865083245564642,
      -0.486621789465234
    ],
    [
      -0.5599262945539287,
      -0.00972565516602361,
      -0.1245833078246825,
      -0.5694813402969556,
      -0.5473386556846171,
      -0.57109869124192,
      0.4877803739287975,
      0.6125677739473571,
      -0.6275956193947021,
      0.5775007658144973,
      -0.5886654729887058,
      -0.4935302455765819,
      -0.5862570967206138,
      -0.5545526750686604,
      -0.5694467541722575,
      -0.5486560409668785,
      -0.5269968647848913,
      0.12049258302029216,
      0.07078755830389497,
      -0.5693474250520272,
      -0.00972565516567723
    ],
    [
      -0.6739207949404082,
      0.13804546758918168,
      0.693338316196351,
      -0.3694965338806071,
      -0.7781182329942574,
      -0.37462163195542986,
      1.3024448099818993,
      1.0061740486118296,
      -0.8055645796997956,
      0.8223508892739888,
      -0.6537326756547969,
      -0.7334904629097757,
      -0.4485202113423515,
      -0.6621638106138436,
      -0.3705152013901073,
      -0.3024559445908499,
      -0.2450431409393738,
      0.31920226190279505,
      -0.3416606574385261,
      -0.3719077869359265,
      0.13804546759028982
    ],
    [
      -0.7965668391796703,
      2.2426147798921834,
      -0.14171588239424984,
      -0.9352139371238292,
      -1.5291122945058195,
      -0.9628116124516046,
      0.42941247925758114,
      1.5297748159820632,
      -1.2393953819794998,
      1.8002033753355966,
      -1.6891029041586105,
      -1.6917254865019062,
      -1.0273836904311404,
      -0.7961478403517221,
      -0.9617687794506123,
      -0.8997704930608132,
      -0.8424705608009349,
      2.310963672532378,
      3.733861864301027,
      -0.9843734629026191,
      2.2426147798812632
    ],
    [
      -0.804160893034842,
      2.009522593137423,
      0.971462894316268,
      0.5029162944319324,
      -1.468846401160853,
      0.47949567111026864,
      0.866685048071898,
      1.6530275159214727,
      -1.2287154140169891,
      1.7624642083805988,
      -1.6299269117664987,
      -1.608429356946002,
      0.5068471285094993,
      -0.8148320396276351,
      0.4831032519010227,
      0.4514138373430523,
      0.4139259275019357,
      2.1030711895307217,
      -0.41287322438363033,
      0.4628462142424887,
      2.0095225931385214
    ],
    [
      -0.00453352499227022,
      -0.5415106755410525,
      -0.9517318335580971,
      -1.3695322333383149,
      0.15825316186142216,
      -1.3617385501859056,
      -0.5200056801400663,
      -0.42885301037630474,
      0.07636585013873531,
      -0.399685669739429,
      0.24994798394914805,
      0.22255220393492994,
      -1.4731063873736694,
      -0.041591502698598105,
      -1.3641105688199422,
      -1.2481513786139327,
      -1.1345299492937635,
      -0.5255167711685969,
      0.07468457428575724,
      -1.3586509434785974,
      -0.5415106755409826
    ],
    [
      0.2385872009664053,
      -0.5654091521667562,
      -0.6129548479759652,
      0.079606359108817,
      0.46041535804072375,
      0.08744158150371237,
      -0.8859169358630401,
      -0.7293386634848744,
      0.39127724943836006,
      -0.6502906304911086,
      0.47746638169793715,
      0.4933113427808077,
      0.2091761781763397,
      0.23117102370812986,
      0.08502361044190349,
      -0.028851843705166143,
      -0.12870187612622883,
      -0.6110768978598523,
      0.23814825729791633,
      0.09072627494117358,
      -0.5654091521667897
    ],
    [
      -0.1906515294490299,
      -0.5576173776510911,
      -0.07160218645847843,
      -0.7160504421652626,
      0.3577024929909655,
      -0.7124023181339013,
      0.5484918528589863,
      -0.3012962824552328,
      0.2709298009447905,
      -0.5548069598654125,
      0.6361858069453072,
      0.40151781379565815,
      -0.7769171819533731,
      -0.17770032201175376,
      -0.7109382218172401,
      -0.6538764972049824,
      -0.606658106867937,
      -0.5821902201776089,
      0.4570369700864296,
      -0.7053170455658385,
      -0.5576173776511388
    ],
    [
      -0.4864491358230295,
      -0.4494547929927839,
      0.17602284217649217,
      -0.5644869888752291,
      -0.2995935683187822,
      -0.5621005869482311,
      0.8689533666555198,
      0.2811822859132412,
      -0.3696188573579444,
      0.06950790435254671,
      0.030261672762110052,
      -0.21639619164205234,
      -0.6280644245210552,
      -0.44200541836625257,
      -0.5595228524158996,
      -0.49771014951038595,
      -0.44562498768467385,
      -0.30248473622857497,
      -0.4379954864479367,
      -0.5549925115946035,
      -0.4494547929928373
    ],
    [
      -0.5155927404867964,
      -0.022287233988669414,
      -0.7613210525573971,
      -0.4979147520836823,
      -0.84919818667214,
      -0.49009816252386673,
      -0.9838348974177279,
      0.3557182519740884,
      -0.8337224234435445,
      0.7645830911301177,
      -1.0823977027481935,
      -0.8012741574145098,
      -0.4093193918583571,
      -0.5178919407972866,
      -0.49296540708462755,
      -0.553055104600113,
      -0.5919619825544961,
      0.2642840332539898,
      -4.6655655175613635,
      -0.49273682787245054,
      -0.022287233987201796
    ],
    [
      -0.7873943191038179,
      2.251854999234625,
      -0.0738172020456937,
      -0.4703926851856269,
      -1.4596075443102599,
      -0.48701661936754553,
      0.1958948175769587,
      1.4686898072826606,
      -1.2336312529336746,
      1.8256763143242847,
      -1.7283586662492618,
      -1.5987469081928032,
      -0.4587109040853593,
      -0.7669382856323085,
      -0.4860088507989603,
      -0.5042996318832405,
      -0.5152669172690205,
      2.189755455086766,
      -7.4391281240364195,
      -0.5087055071477562,
      2.2518549992403525
    ],
    [
      0.43695164091704675,
      -0.5409502742302711,
      -1.1436991639801477,
      -0.4410898703170916,
      0.127501309687011,
      -0.429544175997127,
      -2.05239943054656,
      -0.8000371738171285,
      0.05781143105559938,
      -0.39152887541744236,
      -0.10439249832694536,
      0.19625906503676027,
      -0.3070877664570845,
      0.4269482028983215,
      -0.4359336051613897,
      -0.5322326375034125,
      -0.5973944490415309,
      -0.5203657651721691,
      0.2758135776037166,
      -0.43047573288673135,
      -0.5409502742303455
    ],
    [
      -0.15763264883864217,
      -0.5323358734146392,
      -0.4630976723060614,
      -0.29858675438097876,
      0.0624986340771671,
      -0.29319217057483593,
      -0.23474406464359376,
      -0.29177757789412845,
      -0.013870085428216761,
      -0.3214268171506128,
      0.21369543321245607,
      0.13566711505957882,
      -0.22811268549735475,
      -0.157964046725364,
      -0.2934922273206745,
      -0.34770777977538203,
      -0.39104428755880477,
      -0.4950843477482052,
      0.23592041866655547,
      -0.2881234434319612,
      -0.5323358734148214
    ],
    [
      -0.013261277341503366,
      -0.5366257457324388,
      -0.8123704587707401,
      -0.6524636650770097,
      0.08787915204512436,
      -0.6450664858267344,
      -0.7795914054835611,
      -0.45250178859838597,
      0.019323698171642978,
      -0.35605853864643533,
      0.1367381493406949,
      0.1597284911266313,
      -0.592868029806822,
      0.0040945422271750215,
      -0.6472768461694546,
      -0.6762065048046966,
      -0.6856711516606165,
      -0.5058904897947969,
      0.21806076682850517,
      -0.6418640313365251,
      -0.536625745732518
    ],
    [
      -0.21585926510704206,
      -0.5806928994085383,
      1.7763339300515415,
      -0.288393666012406,
      0.8894894227714035,
      -0.2864988890323954,
      1.805318005371969,
      -0.30663192010540824,
      0.8200626186356106,
      -0.9087758798344724,
      1.232113974743403,
      0.8630013992533618,
      -0.4833134452327481,
      -0.24652414618101076,
      -0.2816197877028103,
      -0.11609691454582738,
      0.01585979121247058,
      -0.6921151251000236,
      -0.8461345893764793,
      -0.27577121644182045,
      -0.5806928994085692
    ],
    [
      -0.4979386081889762,
      -0.08982208602235224,
      0.6006863586259975,
      0.4752560572871191,
      -0.2705398208690849,
      0.4733702825206015,
      0.719853470148497,
      0.47804576133539317,
      -0.4172475780379997,
      0.3476738882436833,
      -0.2873944936433763,
      -0.2270826973830888,
      0.5121415409462543,
      -0.4791987901415346,
      0.47648377930876074,
      0.4359747527734967,
      0.39202998617444806,
      -0.027481606275297568,
      -0.33268887665991165,
      0.47738872966049284,
      -0.08982208602225708
    ],
    [
      -0.8160876085708557,
      2.5892761122601553,
      2.916418539338591,
      1.7423148697503625,
      -1.4667129160581909,
      1.7106724194568461,
      1.4924791384059153,
      1.839319349730211,
      -1.2320529642400686,
      1.8041025763502339,
      -1.5177560048562626,
      -1.608974592797278,
      1.60002028673025,
      -0.8248218228875508,
      1.7161349955431118,
      1.817552869062478,
      1.907667741345478,
      2.201271007172018,
      0.05313863465413533,
      1.6900261485088208,
      2.5892761122605172
    ],
    [
      2.0528084512810043,
      -0.5958168672104114,
      -1.0264805459022752,
      -0.864577792054231,
      1.8520002581773023,
      -0.8548187067412104,
      -1.2168645175052129,
      -1.581680790197877,
      1.9313650883650884,
      -1.4607279332830596,
      1.5679176346600903,
      1.7128311564264853,
      -0.8285120913562212,
      1.8795564987889624,
      -0.8586309756889641,
      -0.8604714433688185,
      -0.8423971837801498,
      -0.8104967714161543,
      0.08355678316002643,
      -0.8526215427206456,
      -0.5958168672104345
    ],
    [
      0.5469275322791408,
      -0.5879869838113113,
      -0.43669274188385404,
      -0.6782123071319436,
      1.2333420131941122,
      -0.6723646776140713,
      -0.009954808722130865,
      -0.9450071369142454,
      1.1788596980216328,
      -1.1056356220657082,
      1.234408967142246,
      1.1643559183115293,
      -0.6749589886996022,
      0.5737147072028469,
      -0.6722914287978793,
      -0.659425911362151,
      -0.6404136174329336,
      -0.7402322209341499,
      0.0422817412388477,
      -0.6663624375357333,
      -0.5879869838113334
    ],
    [
      -0.08463235148042332,
      -0.5720577958706953,
      0.4164379485966876,
      0.26200695347454295,
      0.6298304001748707,
      0.2649445822843012,
      0.6842971692985539,
      -0.4324376233132957,
      0.5444235004812276,
      -0.7442440855843212,
      0.8811595569117784,
      0.6394932906287148,
      0.27225360182757735,
      -0.05513291315156767,
      0.2675986551804784,
      0.25365389923272363,
      0.2324585204662195,
      -0.6448571827179926,
      0.1662520708461269,
      0.27336436089283167,
      -0.572057795870673
    ],
    [
      -0.22017108544695763,
      -0.5247379667055295,
      -0.2360246567617932,
      0.2534091883015802,
      -0.013414712795935875,
      0.2588156809801748,
      -0.2521962440022814,
      -0.24699266803955888,
      -0.08442661289962328,
      -0.26390253098990063,
      0.14182870180472285,
      0.06588682511912389,
      0.3582381079184098,
      -0.2679909075082042,
      0.25859524646770166,
      0.16168237861998416,
      0.071070748497439,
      -0.46844889686473346,
      0.08362606857263635,
      0.2638867011715641,
      -0.524737966705701
    ],
    [
      -0.4695821169935652,
      -0.47075940186909837,
      1.726756753096993,
      1.3893048799248207,
      -0.08776650410854442,
      1.3902104349601594,
      1.1412875237188025,
      0.23088950457040658,
      -0.20214493996885227,
      -0.07825454803598773,
      0.2396436387084596,
      -0.0232702548803322,
      1.3370569645720645,
      -0.4711905503799426,
      1.3945452942514367,
      1.4458272921494457,
      1.4909263059430262,
      -0.3698393966709486,
      -0.35480471399626035,
      1.3992846189792905,
      -0.4707594018690074
    ],
    [
      -0.6738810390980892,
      0.23432802060626315,
      2.750595303436217,
      1.6056776478093902,
      -0.6282833363494794,
      1.5978509582074027,
      1.6286248931742038,
      1.026090473688534,
      -0.7214756726041051,
      0.74511210002265,
      -0.5027419959354225,
      -0.589540140512913,
      1.4893206720380643,
      -0.6579403178429579,
      1.6039216598146027,
      1.7100538925120705,
      1.8095681228482001,
      0.2728109729753621,
      -0.44946549147521553,
      1.6015513436266233,
      0.23432802060683092
    ],
    [
      3.908847736847507,
      -0.5997851590430352,
      -0.9795682513709407,
      -0.5963026175539755,
      2.5860550972840284,
      -0.585625020395475,
      -1.6382929338643346,
      -2.056819922213681,
      2.9826589347545713,
      -1.8252132849733935,
      2.1592655442498234,
      2.4245096415864764,
      -0.5070918846299627,
      3.30429160216021,
      -0.5907571210374456,
      -0.647036989276965,
      -0.6792029779403481,
      -0.8710879207456934,
      0.49130606848333364,
      -0.58470699357438,
      -0.5997851590430607
    ],
    [
      1.8437786621475425,
      -0.5979218870304892,
      -0.2351438347437038,
      0.30180290879710325,
      2.2279927606059418,
      0.30852764234066404,
      -0.320056365705726,
      -1.545651374932106,
      2.421978343235727,
      -1.633724748851378,
      1.969426024321804,
      2.073549912039661,
      0.40327282062525965,
      1.663557937521993,
      0.308010570489329,
      0.216701049716152,
      0.13212205890809356,
      -0.8418927713662077,
      -0.18737661433453923,
      0.3140394483860558,
      -0.5979218870305135
    ],
    [
      0.3567357368181572,
      -0.5895909262878527,
      1.1943815703650777,
      1.4479728521624047,
      1.4364972943857406,
      1.4514394450418406,
      0.8399176717488257,
      -0.8456408723057915,
      1.4254788438735868,
      -1.213468309173019,
      1.5042675304533089,
      1.3484027938611642,
      1.4128677651913755,
      0.28754584998242405,
      1.4546061960359422,
      1.4896530417038283,
      1.5193565923238461,
      -0.7596811547411483,
      -0.4914499606091096,
      1.4605436180816136,
      -0.5895909262878758
    ],
    [
      0.5342982848699501,
      -0.56016035797277,
      -0.8817058526896832,
      0.6386182671606646,
      0.3662691549564356,
      0.6504454206656285,
      -1.7877820531667146,
      -0.896932117941793,
      0.2934630245871001,
      -0.5827591355054221,
      0.20596799476912012,
      0.410227924852668,
      0.7965852189253497,
      0.4536852169897093,
      0.6442353198009657,
      0.4893836294152122,
      0.34278392358233967,
      -0.588684125735003,
      0.04600228355582968,
      0.6498841391776911,
      -0.5601603579728234
    ],
    [
      -0.21781428472773576,
      -0.39702579968365764,
      -0.04148768828999764,
      1.6588049199753074,
      -0.129170393642541,
      1.6650793274014566,
      -0.6011963839592294,
      -0.16821105526141866,
      -0.23134927585603013,
      -0.04391163480284228,
      -0.15514378793909228,
      -0.058466105311346155,
      1.7099464102970647,
      -0.24202498040048537,
      1.662501871359929,
      1.5788624866786758,
      1.4685097230039208,
      -0.32977623491328123,
      0.20202563878060048,
      1.6665001127088415,
      -0.39702579968369034
    ],
    [
      -0.40637542468750676,
      -0.5636328510230112,
      5.306915936535711,
      1.9389134335508558,
      0.5461417916542923,
      1.9384419161314574,
      2.217755961912744,
      0.04115845543228125,
      0.4202754420075373,
      -0.6323505986166241,
      0.9825467028042085,
      0.5625396742326914,
      1.6387493549025731,
      -0.305478467084592,
      1.9456528240876652,
      2.2411275319065145,
      2.5211045143703257,
      -0.6166450324584212,
      -0.8951355804219032,
      1.9513194914758374,
      -0.5636328510230557
    ],
    [
      3.83645050561026,
      -0.5974285633405988,
      -1.212776412652371,
      -0.5360240494599846,
      2.114806612742566,
      -0.5184720793312316,
      -2.289551830227728,
      -2.0064810549832917,
      2.2366572515590963,
      -1.5720431624332152,
      1.688424320763473,
      1.9576475137803149,
      -0.4092605955744358,
      4.660776237897622,
      -0.5257484420522731,
      -0.6074174680961865,
      -0.6577589775852319,
      -0.8331920593114654,
      -4.059483689001897,
      -0.5197213352887728,
      -0.5974285633406261
    ],
    [
      4.634932854524291,
      -0.6002128096163349,
      -0.7352927362471645,
      0.9007334764952177,
      2.7384034544140645,
      0.9132814381104777,
      -1.7067591586087838,
      -2.1321898362912037,
      3.3364961823824872,
      -1.8988805315948611,
      2.3111799278612044,
      2.5849986797175446,
      1.0324228475799713,
      4.3994772262006245,
      0.9069343991239646,
      0.7673530752698541,
      0.6242381382663571,
      -0.881757850306131,
      -0.14052414404509994,
      0.9129853673310293,
      -0.600212809616365
    ],
    [
      1.8043263468929815,
      -0.5973652603237837,
      0.13824908001295644,
      2.15042015923714,
      2.110960154474838,
      2.1596240373521094,
      -0.567150322683056,
      -1.5362163790496794,
      2.200721986964031,
      -1.559863723138926,
      1.8272379346626595,
      1.9603594887552107,
      2.126360871439869,
      1.8152497705526474,
      2.156411087148945,
      2.150173110050284,
      2.115678300649192,
      -0.832561736777201,
      -0.01055895644295228,
      2.162425023667362,
      -0.5973652603238118
    ],
    [
      0.23942427641901604,
      -0.5676409454423853,
      -0.2753070295764372,
      1.2301863210404358,
      0.5404677214511527,
      1.2381719356146712,
      -0.7074881710812575,
      -0.7195953776861246,
      0.43722775130506103,
      -0.672871157429912,
      0.5644848570118598,
      0.5620684165877552,
      1.3185729979822667,
      0.2456971823225524,
      1.2355983467515212,
      1.1313707655428338,
      1.0150377377933117,
      -0.6243213528142282,
      0.21073633653498597,
      1.2413187506401497,
      -0.5676409454424007
    ],
    [
      0.23309245256497402,
      -0.5612067040081551,
      0.25683718046215703,
      2.5224199010294424,
      0.5316295565799413,
      2.532287748086373,
      -0.6277926662310118,
      -0.6596317012198675,
      0.3792342464344209,
      -0.6085485545664938,
      0.5128884904522629,
      0.5510981823931385,
      2.4410019137166494,
      0.3288688052133729,
      2.5281043910273686,
      2.570914954646162,
      2.5748591257092746,
      -0.6091833421872858,
      -0.05820587958031207,
      2.533751060177173,
      -0.5612067040082035
    ],
    [
      0.03997108540898675,
      -0.5251699291329287,
      0.2535730118659116,
      4.068839061366578,
      0.13173467840464956,
      4.083556646525951,
      -0.9491278730766464,
      -0.45166198192750706,
      -0.00917775805812108,
      -0.29181065751978835,
      0.03955401046742911,
      0.19009351719974596,
      3.6885319382542967,
      0.10408943568831375,
      4.074681775125018,
      4.41764335213613,
      4.710943517489401,
      -0.4922469456317991,
      -0.4216658906104666,
      4.079951841996784,
      -0.5251699291328146
    ]
  ],
  "sample_order": [],
  "config": {
    "grid": [
      7,
      6
    ],
    "dim": 21,
    "learning_rate": 0.4,
    "sigma": 6,
    "num_epochs": 150,
    "num_samples": 300
  }
}