{
  "seed": 42,
  "initial_weights": [
    [
      0.4741793911704477,
      -0.543343306905584,
      -1.1540380601634306,
      -0.4568462915464504,
      0.15377538748058792,
      -0.4450572657012634,
      -2.1134902291907784,
      -0.8318282906864135,
      0.08238933029141554,
      -0.4117202304302053,
      -0.093062054857688,
      0.21994900159491895,
      -0.3225753331968302,
      0.45060535077955133,
      -0.4516564045749049,
      -0.5477596263542458,
      -0.6123268996114581,
      -0.528327002716957,
      0.269289566925053,
      -0.4461743545997197,
      -0.5433433069056753
    ],
    [
      -0.051346097796659246,
      -0.5470021756276917,
      -0.2912639677882561,
      0.214110470936057,
      0.25758975419140323,
      0.21980079269352937,
      -0.3580959210320959,
      -0.44869403417197967,
      0.1740821829731155,
      -0.46896163782193057,
      0.3696007371213982,
      0.30940179317567007,
      0.3201475970665348,
      -0.11817328142091725,
      0.21919295221126534,
      0.12338502687310358,
      0.03557284755503073,
      -0.5481653721335961,
      0.35147566207682374,
      0.2247089927240074,
      -0.5470021756278551
    ],
    [
      0.002591266560991186,
      -0.5409709273794641,
      -0.7823936008254121,
      -0.5983709143154398,
      0.1276388848887366,
      -0.591308001181899,
      -0.7479448004076803,
      -0.4761128161961847,
      0.059468918953961725,
      -0.39467714209845295,
      0.18903998859480736,
      0.1964936165899734,
      -0.5315914798829142,
      -0.008413714015980116,
      -0.5933663022867065,
      -0.6297763414354205,
      -0.6462775693529987,
      -0.5197772502131223,
      0.43448271733775906,
      -0.5879096452389163,
      -0.5409709273794426
    ],
    [
      2.142603830175492,
      -0.5960981442797066,
      -1.0615387896902044,
      -0.9522793476049629,
      1.8742248555481682,
      -0.9424259928005281,
      -1.1681476203687475,
      -1.5841448577011097,
      1.9657717580929477,
      -1.4766164410271818,
      1.5956358144423581,
      1.7313127971582793,
      -0.9387450228601486,
      2.2352784804691823,
      -0.9461861704802288,
      -0.9257386532653389,
      -0.8878236498294231,
      -0.813078338417937,
      -0.03946296698673779,
      -0.9401742766101913,
      -0.5960981442797257
    ],
    [
      3.592109221061632,
      -0.5998452038189234,
      -0.8841138834061995,
      -0.6111271761004559,
      2.6030546318552537,
      -0.6016741415624391,
      -1.2493768939963603,
      -1.9672260828738795,
      3.0132556211457286,
      -1.8332484266147187,
      2.207314284198876,
      2.441995506288927,
      -0.539133220090432,
      3.2607986689155157,
      -0.6055230663421026,
      -0.6478173360720297,
      -0.6695869946974212,
      -0.872335927914184,
      0.42963664109772176,
      -0.5994727805270026,
      -0.5998452038189491
    ],
    [
      3.804392035205425,
      -0.5974653574599381,
      -1.2083326541607118,
      -0.5483062846141435,
      2.1200032422147985,
      -0.5307943128991274,
      -2.268261026466705,
      -2.004417341580898,
      2.24302672223137,
      -1.5748155971636009,
      1.6967420012091217,
      1.9626834269625024,
      -0.4232505584691958,
      4.622272112884252,
      -0.5379922283094793,
      -0.6177436247542292,
      -0.6662114696338622,
      -0.8336550107836226,
      -4.102360786626874,
      -0.5319647623542908,
      -0.5974653574599661
    ],
    [
      -0.3323224255189908,
      -0.25307749861529816,
      -0.8621837320311478,
      -1.083264453835891,
      -0.4249101997550981,
      -1.0816312230085796,
      -0.7979525663714417,
      0.011212946734529411,
      -0.48509496540774794,
      0.265700855182498,
      -0.503604259665047,
      -0.3487953151003053,
      -1.0996242628674704,
      -0.34405771749146963,
      -1.0842480794378266,
      -1.045920498510296,
      -0.9937231337995146,
      -0.12111330552600452,
      3.387905349219499,
      -1.0816940928778256,
      -0.2530774986166585
    ],
    [
      -0.1854430536454722,
      -0.570260454164174,
      -0.16658639452708057,
      -1.458456813955297,
      0.5462426146439993,
      -1.4539467828737096,
      1.0055313712267735,
      -0.3170237269108798,
      0.47725246670078275,
      -0.7100262844136118,
      0.8818938676585032,
      0.5678715290879638,
      -1.7757329607592385,
      -0.16678302422182673,
      -1.4533441420314925,
      -1.2147363086366725,
      -1.036342603938491,
      -0.6325506806973831,
      0.6985980067616138,
      -1.4476005261899643,
      -0.5702604541641889
    ],
    [
      -0.2569176126405814,
      -0.4982989290584081,
      -0.495650454645969,
      -0.3221411286292873,
      -0.14296523194764726,
      -0.31671220056872984,
      -0.30085042665760764,
      -0.1511463511150212,
      -0.2027372205819162,
      -0.13166906945810292,
      -0.021608006568420927,
      -0.059029326322128685,
      -0.25384844491740627,
      -0.2572598839435371,
      -0.317258812855273,
      -0.365223235215403,
      -0.40017312047712433,
      -0.40422294250748075,
      0.14060345237907781,
      -0.3122331073257455,
      -0.49829892905853557
    ],
    [
      0.7475418058470995,
      -0.5855045478496326,
      -0.661330843507755,
      -0.4680985745824274,
      1.1402390560188844,
      -0.46053751025740813,
      -0.6279505762133533,
      -1.0506686752133005,
      1.1056708795439882,
      -1.0624990800434952,
      1.0718140679429204,
      1.0844166764030414,
      -0.4023432610115304,
      0.8438476144429508,
      -0.4622681970597916,
      -0.5039932333514415,
      -0.5303087569817319,
      -0.7251954891345613,
      0.07711232467185786,
      -0.4563630971469324,
      -0.5855045478496629
    ],
    [
      1.8719953238536549,
      -0.5979487457655253,
      -0.3441557265787367,
      0.17013392955224185,
      2.1980128247093895,
      0.17737070645986985,
      -0.4844770606376893,
      -1.5782528734496046,
      2.3887812816837646,
      -1.630647439333426,
      1.933361932230645,
      2.040168887701872,
      0.2752272439959514,
      1.6251761113778163,
      0.17627959194966578,
      0.08368364175316928,
      5.306442323669072e-06,
      -0.8403222480403915,
      -0.12403842868166048,
      0.18230925589931796,
      -0.5979487457655497
    ],
    [
      4.563060714203159,
      -0.6001208259145866,
      -0.7432446470445294,
      0.8316839603768073,
      2.721638978249019,
      0.8443197706780856,
      -1.7042901669521828,
      -2.1229933334248545,
      3.2962205785774223,
      -1.8852823103622949,
      2.294285057362635,
      2.5683807339853773,
      0.9660595105767839,
      4.515623785551224,
      0.8380617605652969,
      0.6980485868921323,
      0.556098176120734,
      -0.8803776872799683,
      -0.2869406382921699,
      0.8441120876028191,
      -0.600120825914618
    ],
    [
      -0.05900878878878073,
      -0.5273807285927933,
      -0.8773582738538257,
      -1.059811693003074,
      0.071622308372827,
      -1.0527845089483208,
      -0.5562920551755856,
      -0.36816338978829183,
      -0.008434915971488918,
      -0.3156876800952556,
      0.14458964186172052,
      0.14096992699773914,
      -1.0844705768615766,
      -0.07880949034730295,
      -1.0547043361714294,
      -1.004671134290149,
      -0.9443243273362234,
      -0.4882512081442407,
      0.23113553168191497,
      -1.0493858451500835,
      -0.5273807285928444
    ],
    [
      -0.516014240211017,
      -0.25361219813587077,
      -0.0060774323807855374,
      -0.5382797843092209,
      -0.4160504534103376,
      -0.537596959750885,
      0.631520037014051,
      0.41585529960653084,
      -0.48958845722435773,
      0.2970794251267843,
      -0.26387878370242346,
      -0.34395189678874394,
      -0.5636344291040793,
      -0.4865485624680601,
      -0.5355101102968619,
      -0.5057362672383932,
      -0.4776155350374178,
      -0.11487329116557382,
      -0.21111726832504607,
      -0.5329528062057319,
      -0.2536121981358088
    ],
    [
      -0.1842054928659684,
      -0.5505440675301448,
      -0.17429369484756252,
      -0.6984731266914262,
      0.2842906854831361,
      -0.6946973469302036,
      0.45654529728169496,
      -0.2704935394641925,
      0.19884667822043167,
      -0.49326440882603734,
      0.5501255979815842,
      0.33487429973385685,
      -0.7463495772339872,
      -0.147493832221974,
      -0.6934413607649792,
      -0.6416178621914098,
      -0.5943108787753579,
      -0.5593027378286244,
      0.49303415450770083,
      -0.6878911658190662,
      -0.5505440675301475
    ],
    [
      0.3851329001508977,
      -0.5488713453245466,
      -0.8360207098924279,
      0.6599218071239797,
      0.2397584962489422,
      0.6711673884591428,
      -1.6260650337742175,
      -0.771561048403928,
      0.1687772868550548,
      -0.4787286666890582,
      0.11674847582143218,
      0.29501718292260004,
      0.8120070556484501,
      0.3157362241007501,
      0.665565424846198,
      0.5164681013215726,
      0.3750214750097097,
      -0.5483361390322449,
      -0.04983392896709875,
      0.6711002147365829,
      -0.5488713453246555
    ],
    [
      -0.042177009371553845,
      -0.5739006819072103,
      0.35129284590422094,
      0.23546541513170882,
      0.6769679935416609,
      0.23867180253122738,
      0.571692349780871,
      -0.48855794864133884,
      0.5976639885609643,
      -0.778361361228172,
      0.9015694147479433,
      0.6802138571641118,
      0.2657563958574106,
      -0.007894172256845595,
      0.2410687831844985,
      0.2122096282620186,
      0.18033947335318254,
      -0.6541334357135734,
      0.1580282827049545,
      0.24685371954717933,
      -0.5739006819072179
    ],
    [
      0.31793817160522364,
      -0.5709863017280193,
      -0.2656859254192457,
      1.2998199154433372,
      0.6243059051331851,
      1.3086746328474193,
      -0.8503651526579827,
      -0.8066790147634182,
      0.5223702517327052,
      -0.7291190033860034,
      0.6046919933559585,
      0.635545298362125,
      1.3886709667804038,
      0.26202243753768806,
      1.3054004200748568,
      1.1945874752513992,
      1.066162186369625,
      -0.6407144153694752,
      0.10775581123492085,
      1.3111543366297504,
      -0.5709863017280218
    ],
    [
      -0.42994545193065165,
      -0.13236008717422465,
      -0.6977820137839309,
      -1.2918945776974107,
      -0.3698223281600767,
      -1.2899314672481519,
      0.06132826297767527,
      0.3296262021589998,
      -0.47672274412529175,
      0.3649183594144601,
      -0.45076750592899517,
      -0.3111465616895123,
      -1.4157806576039291,
      -0.42551180043427306,
      -1.2905971994479364,
      -1.1684126919623594,
      -1.0547800191739911,
      -0.037867697067202166,
      0.07979516808214396,
      -1.2892625482099151,
      -0.13236008717428605
    ],
    [
      -0.6828650980993947,
      0.18633118062692308,
      0.6019935477276765,
      -0.4470174458149576,
      -0.816167783037761,
      -0.4526035742651372,
      1.2529551070392868,
      1.0394969916550725,
      -0.836388312282559,
      0.8776485857966089,
      -0.721552195755636,
      -0.7775187988152411,
      -0.529152887982555,
      -0.6720670409096935,
      -0.44872269466992126,
      -0.3801156197683991,
      -0.3230507103474817,
      0.37797846782338457,
      -0.1469794833693712,
      -0.4506018312449208,
      0.18633118062693943
    ],
    [
      -0.5204485771958682,
      -0.010451724954415181,
      -0.7515383951774975,
      -0.5051965407681931,
      -0.8530963803165136,
      -0.4975679634229516,
      -0.9563731360710491,
      0.37018322176039753,
      -0.8375308653620269,
      0.7747432539713552,
      -1.0852914998852095,
      -0.806220241623212,
      -0.4186742429629071,
      -0.521819891820806,
      -0.5003475889901658,
      -0.5586491438986705,
      -0.596049951939833,
      0.2749069437245134,
      -4.69114216066579,
      -0.5002383463196393,
      -0.01045172495293581
    ],
    [
      -0.2197784045819154,
      -0.5802185738974788,
      1.7703729574798517,
      -0.26649965695359384,
      0.8717959236740566,
      -0.26462261105532087,
      1.7960607310146657,
      -0.2992629629763152,
      0.8006609615800978,
      -0.8978333086640845,
      1.218822910023194,
      0.8478127521640877,
      -0.45709492733178514,
      -0.24029809711683386,
      -0.2597240091579609,
      -0.09668059096680763,
      0.034236408193363155,
      -0.6892341879793983,
      -0.846998914043162,
      -0.25388016399409574,
      -0.5802185738975072
    ],
    [
      -0.4786689924139901,
      -0.45535017693223295,
      1.7723972624823183,
      1.462676357396183,
      -0.10105601796794136,
      1.4634890560911624,
      1.1475048950198738,
      0.2527769887051643,
      -0.22013139156762326,
      -0.05400155484359667,
      0.21513155636648915,
      -0.03677131446892827,
      1.4038231446064091,
      -0.4839301796311906,
      1.4678207023659302,
      1.525909922830996,
      1.578562142782495,
      -0.3554919479212021,
      -0.41506603561918254,
      1.4724042865251328,
      -0.45535017693214036
    ],
    [
      0.3167829223999902,
      -0.588586648910139,
      1.1594846143871955,
      1.4226269224044203,
      1.3749947056303353,
      1.4260893713552008,
      0.8375481159388103,
      -0.8132811107662251,
      1.3532152452923638,
      -1.177729060440217,
      1.4600851335958767,
      1.294179171395207,
      1.389047144697409,
      0.2622218540815311,
      1.4292532816826025,
      1.4635415508291472,
      1.493192813387752,
      -0.7519020496052096,
      -0.4917616243745602,
      1.4351807031584805,
      -0.5885866489101609
    ],
    [
      -0.7981770234516938,
      2.101332915000714,
      -0.25304781804284404,
      -1.223458963849754,
      -1.4847636305470724,
      -1.2465690892990706,
      0.5808061145574577,
      1.5877072542510584,
      -1.2327867927895535,
      1.780196997653314,
      -1.6914241896013724,
      -1.6315912474306002,
      -1.3979909874249608,
      -0.8069446019950908,
      -1.245795910995582,
      -1.1140124838922632,
      -1.0007458666746338,
      2.1748635363218525,
      1.1307807290544716,
      -1.266978043417016,
      2.10133291499666
    ],
    [
      -0.7873246214170874,
      2.253767681636471,
      -0.08725521349117296,
      -0.49805060189740163,
      -1.4615603386182119,
      -0.514535017223167,
      0.19396364730681856,
      1.468736880673598,
      -1.2337035073483877,
      1.8267598055582894,
      -1.7292429117844283,
      -1.6007844353992515,
      -0.489513155668772,
      -0.7669321201668043,
      -0.5135596279181287,
      -0.5285490833188352,
      -0.536334742166798,
      2.190889205753885,
      -7.573317373369499,
      -0.5362755713023047,
      2.253767681642224
    ],
    [
      -0.5028165915647174,
      -0.10707122891623383,
      0.4616529074933089,
      0.3705821487298282,
      -0.3211261757324837,
      0.3691803294567851,
      0.6282895051164566,
      0.45862356013529243,
      -0.44004983431119743,
      0.3468580617839026,
      -0.3119818790720859,
      -0.26941433800361425,
      0.41563301464038954,
      -0.50009315305831,
      0.37199161664560465,
      0.32518635765327714,
      0.2766955976195289,
      -0.03175392866067265,
      -0.29992108162116254,
      0.37307099340528854,
      -0.10707122891634838
    ],
    [
      -0.4063752515623567,
      -0.5636332328322189,
      5.306908202970365,
      1.9389118383824837,
      0.5461417544234005,
      1.9384403282093223,
      2.2177538895590043,
      0.04115777062504986,
      0.42027532806479284,
      -0.6323508205111145,
      0.9825466324238264,
      0.5625397060359754,
      1.6387483673150502,
      -0.3054786250837726,
      1.9456512317348424,
      2.2411253359490595,
      2.5211017229472232,
      -0.6166453327406584,
      -0.8951343383207979,
      1.9513179029939065,
      -0.5636332328322634
    ],
    [
      0.44178719388969157,
      -0.5639823314877217,
      0.15151302594975136,
      2.5447636908501994,
      0.5801042964024019,
      2.555850400639131,
      -0.9159609012732632,
      -0.7712044285780236,
      0.43440451056920565,
      -0.6471511570822729,
      0.5103515197679794,
      0.5935920895207338,
      2.468236424909001,
      0.6047453262196371,
      2.5503378804436467,
      2.5827176445788047,
      2.570606458097396,
      -0.6207343753277963,
      0.027547937868298948,
      2.5560126016869296,
      -0.5639823314877304
    ],
    [
      -0.23890220734776835,
      -0.34324667508244316,
      0.07909920717837378,
      1.6534017765418008,
      -0.09896103684571214,
      1.6583392850824632,
      -0.4199442624707277,
      -0.10013006960374689,
      -0.22012196247380061,
      -0.013002165118650266,
      -0.14050697687711733,
      -0.037528470241339845,
      1.6972473672920347,
      -0.25564540576989525,
      1.656537991483526,
      1.5827195917416352,
      1.4848971240803166,
      -0.2967249852103464,
      0.21259367104026144,
      1.6599939596951638,
      -0.3432466750823916
    ],
    [
      -0.8049741278875775,
      2.118124902643434,
      0.3389126486191425,
      -0.578088055005859,
      -1.481493405546563,
      -0.6023301343118336,
      0.8457664560099666,
      1.6761339094126704,
      -1.2327791462820943,
      1.789858542368758,
      -1.6663363795782846,
      -1.624644891372263,
      -0.6507242384028189,
      -0.8183876051508188,
      -0.5996880101249006,
      -0.5573300474325259,
      -0.522409215938415,
      2.1653645819854477,
      0.24044603577500928,
      -0.6210385332393149,
      2.118124902641802
    ],
    [
      -0.8044260101338225,
      1.9961883636763527,
      0.9745899963768951,
      0.48054142415659995,
      -1.4643269436495059,
      0.4571291788225361,
      0.8887488490826438,
      1.6583352954553818,
      -1.2279310822570155,
      1.7583452371437194,
      -1.6249934412990081,
      -1.6027002202980047,
      0.48304078578691134,
      -0.8146542317069239,
      0.4608090617308175,
      0.43191059974701745,
      0.398322172828098,
      2.090232361744749,
      -0.3681254904737724,
      0.4406864608607763,
      1.996188363677854
    ],
    [
      -0.8164944424007986,
      2.6655843066398655,
      3.005388446859286,
      1.8702101164870781,
      -1.4686327712883593,
      1.837877117899467,
      1.5016405157933586,
      1.838525999174588,
      -1.232023944809512,
      1.8012068251289128,
      -1.5100984740274388,
      -1.611080795025545,
      1.7120748883595693,
      -0.8255859957176185,
      1.8433142277882244,
      1.9626931003059411,
      2.0735653296596377,
      2.2101580943837544,
      0.011225303265543787,
      1.8164353581684942,
      2.665584306641053
    ],
    [
      -0.6683474928767326,
      0.2254886747525643,
      2.754543438736677,
      1.666717669152469,
      -0.6127104095291727,
      1.6590894614732183,
      1.6092869402127563,
      1.0065156874915826,
      -0.7082330315354997,
      0.727958101146185,
      -0.48773430956384284,
      -0.5740810965539064,
      1.5439009173166516,
      -0.6525708127747103,
      1.6650432656788166,
      1.7799298459824398,
      1.8907531854270259,
      0.259885509815561,
      -0.465706984904645,
      1.6627616741327178,
      0.22548867475282916
    ],
    [
      0.050319701443993364,
      -0.5258791144078353,
      0.24074097956895865,
      4.043552147522982,
      0.13941602827591537,
      4.058259703971938,
      -0.9595827472666456,
      -0.45999573736284033,
      -0.001270934231442014,
      -0.29844492222490354,
      0.0458817091989552,
      0.19706494955582074,
      3.6689859122408204,
      0.1190122815229038,
      4.0493914205229995,
      4.386268810766842,
      4.673397983147175,
      -0.4946682101355328,
      -0.4151545888402078,
      4.054668878697177,
      -0.5258791144077231
    ],
    [
      1.7956904978481496,
      -0.5973884308175063,
      0.15570858651118422,
      2.157660858641556,
      2.1154554255367204,
      2.166794434135386,
      -0.5462259373887782,
      -1.5331515666979552,
      2.206658257901037,
      -1.5619112154495733,
      1.8328400914843095,
      1.9647735851518873,
      2.1311240476216944,
      1.815853991271914,
      2.1636573017047693,
      2.160396087226175,
      2.12927947971736,
      -0.8329270289595155,
      -0.014051098463183462,
      2.1696713783793533,
      -0.5973884308175342
    ]
  ],
  "sample_order": [],
  "config": {
    "grid": [
      6,
      6
    ],
    "dim": 21,
    "learning_rate": 0.4,
    "sigma": 3,
    "num_epochs": 140,
    "num_samples": 300
  }
}