{
  "seed": 42,
  "initial_weights": [
    [
      0.3617678187675214,
      -0.5489580729263149,
      -0.13997653287556233,
      3.3220123013464216,
      0.3864906368731571,
      3.336748009039334,
      -1.3183311870608325,
      -0.7331387230770294,
      0.2549106198398335,
      -0.5113249016157557,
      0.2451863355203183,
      0.4206259895487417,
      3.1135118583607833,
      0.4392714326466296,
      3.3277793965441353,
      3.4877043490328545,
      3.5943058901743847,
      -0.571145328283649,
      -0.20678866306842794,
      3.3332964800912426,
      -0.5489580729263099
    ],
    [
      1.5044093900869528,
      -0.5971666084932402,
      0.49184832377613297,
      1.9631687815286567,
      2.0749927332249647,
      1.9707811821002559,
      -0.18709128481834109,
      -1.4260601737653853,
      2.157943541362178,
      -1.544133406684845,
      1.8417892351606049,
      1.924998327714377,
      1.9394518709354927,
      1.4503865570039551,
      1.969319925769154,
      1.968153337926699,
      1.9421298177915318,
      -0.8295916273272373,
      -0.09864779864484018,
      1.9753324475811684,
      -0.597166608493272
    ],
    [
      0.6357606902846558,
      -0.5751753452111961,
      -0.5208500954211213,
      1.5841987356575742,
      0.7386771082890433,
      1.5959756241422614,
      -1.4458564497165207,
      -1.0214085277125888,
      0.6281101475916014,
      -0.7966537102176701,
      0.5939987256625265,
      0.7353276155484444,
      1.6675579535679244,
      0.6093234327967061,
      1.5898134767419492,
      1.4747536435364061,
      1.3339980054706342,
      -0.6621926847835734,
      0.09836100867010923,
      1.5956085760908174,
      -0.5751753452112048
    ],
    [
      0.40437469520470887,
      -0.5688112355377556,
      -0.609837997637862,
      0.8879329812151552,
      0.5202834169355588,
      0.8976750202465795,
      -1.1886982401809705,
      -0.8371315534582634,
      0.4331045970224247,
      -0.6812513502644529,
      0.4676113092218401,
      0.5460621169489753,
      1.0170704950503948,
      0.3833716066874243,
      0.8935411538699057,
      0.757199391292244,
      0.6181083245410502,
      -0.6254566256932435,
      0.0892165111656236,
      0.8992755765225469,
      -0.5688112355377819
    ],
    [
      1.7684203514091452,
      -0.5799607021640386,
      -0.6077365800651425,
      0.6821874832078579,
      1.3070862923939126,
      0.6923263591668833,
      -1.2256162420217112,
      -1.26229366826256,
      1.4411152459705625,
      -1.1154552680873795,
      1.1345703909080886,
      1.2639761892900103,
      0.8078376324814887,
      1.7371668284953516,
      0.6880875796383632,
      0.5610236407889347,
      0.43490270487794364,
      -0.7177823748588676,
      -0.05990902434641105,
      0.6939349220387442,
      -0.5799607021640694
    ],
    [
      4.59273425489295,
      -0.6001758486751418,
      -0.7372642591941564,
      0.884933172852695,
      2.7283095269690048,
      0.8974988957968782,
      -1.7021725554003289,
      -2.127105908538262,
      3.310848585180912,
      -1.8927293406070265,
      2.3015072349224512,
      2.5745093766938307,
      1.0171025985267483,
      4.398076083775261,
      0.8911882328423991,
      0.7519186779152329,
      0.6097204066709354,
      -0.8810116098560723,
      -0.18483620935325304,
      0.897238889658526,
      -0.6001758486751725
    ],
    [
      3.833460792081709,
      -0.597431994719513,
      -1.212361992194835,
      -0.5371694639854854,
      2.1152912463820974,
      -0.5196212241030761,
      -2.287566280495729,
      -2.0062885972548097,
      2.237251265643805,
      -1.5723017175064689,
      1.689200018160132,
      1.9581171592926017,
      -0.4105652700377139,
      4.657185403289144,
      -0.5268902709473029,
      -0.6083804622610998,
      -0.6585472373026637,
      -0.8332352337558143,
      -4.063482287229013,
      -0.5208631306859967,
      -0.5974319947195404
    ],
    [
      -0.5240234907986046,
      0.0727563765119635,
      1.459320745096532,
      2.086421376238955,
      -0.32849284277200985,
      2.0828775869740204,
      0.7108259571905974,
      0.561095820589343,
      -0.48770861184305314,
      0.45925148338631044,
      -0.39813134201489253,
      -0.28957261914802246,
      2.0040390561927692,
      -0.49597859055068116,
      2.0852669736212333,
      2.1484188941790365,
      2.1995613648862697,
      0.05784196850569378,
      0.2561804079108711,
      2.0845247709756554,
      0.07275637651140883
    ],
    [
      0.026098647638048228,
      -0.5612985971920148,
      0.6506855463986855,
      2.412198195729521,
      0.5392764823850729,
      2.4193408751675096,
      -0.10517966482474653,
      -0.5359780365812757,
      0.38268313826917616,
      -0.6071434416147192,
      0.6185257686682826,
      0.5571142330393694,
      2.332670463579082,
      0.10815977485663106,
      2.4177939464903124,
      2.465206374576554,
      2.479591329327557,
      -0.6086897692612983,
      0.008445139987907066,
      2.423441941870807,
      -0.5612985971920604
    ],
    [
      0.04465529525006491,
      -0.5703007856880756,
      0.3254199549343564,
      1.292729200062038,
      0.6434211543645866,
      1.2977217412689035,
      0.10303985064210724,
      -0.5779245409486435,
      0.5430310479082657,
      -0.7330856946516225,
      0.7828855192743656,
      0.6503467225810661,
      1.3264270724968275,
      0.09390640386262183,
      1.2982246892789746,
      1.25364005827398,
      1.1980730182528148,
      -0.6409465477411068,
      0.17649274968828374,
      1.303970146957126,
      -0.5703007856880952
    ],
    [
      -0.18522742219347,
      -0.438429997261379,
      -0.09722026647834642,
      1.6428777310423268,
      -0.08028114548487605,
      1.6497688250517286,
      -0.6549003166396729,
      -0.23173188083389226,
      -0.18502964408747433,
      -0.10500648126750041,
      -0.0993953381510061,
      -0.009923164560313568,
      1.6987618723276725,
      -0.21279667523001855,
      1.6469799940006529,
      1.5587538687694764,
      1.4437285876859782,
      -0.37059197488536744,
      0.21438944788027423,
      1.6513957663364642,
      -0.43842999726155474
    ],
    [
      0.7098327884649036,
      -0.5807263840591582,
      -0.8126074182912054,
      -0.0834875673353733,
      0.8469331247197097,
      -0.07471746350900438,
      -1.0433218441374106,
      -0.9990714407462269,
      0.8008207289746455,
      -0.9091584639743678,
      0.7894983884615824,
      0.826840187897784,
      0.03881144137318022,
      1.1168302157757832,
      -0.07771573443448757,
      -0.17595394827225272,
      -0.2552004793038962,
      -0.6882772163106415,
      0.08131482421665187,
      -0.07185838138659643,
      -0.5807263840591795
    ],
    [
      1.8393609477000263,
      -0.5978953999143934,
      -0.2503785597376041,
      0.29426884230310396,
      2.2183583404944156,
      0.30106562283956056,
      -0.3441433001632178,
      -1.5474443912939575,
      2.4070159356095533,
      -1.6298634599195003,
      1.959341612199963,
      2.0635890343168244,
      0.39734894299685075,
      1.650172968186177,
      0.3004685477803724,
      0.20769379390547948,
      0.1218957590919407,
      -0.8412181918008819,
      -0.17954891054394884,
      0.3064972283348229,
      -0.5978953999144175
    ],
    [
      3.8686499714160343,
      -0.5997803037675441,
      -0.9706812312053402,
      -0.6156558613083164,
      2.5874735448594697,
      -0.6052483716326039,
      -1.5805347153960243,
      -2.042718943821829,
      2.9838933532008203,
      -1.8245681757442591,
      2.1659680953925977,
      2.4262210868246434,
      -0.5317021350913212,
      3.3595043426817126,
      -0.6101906541765637,
      -0.661580714418086,
      -0.6894738460433356,
      -0.8711494632789516,
      0.5705341134296709,
      -0.6041406628426786,
      -0.5997803037675696
    ],
    [
      -0.6806329734999005,
      0.2398849973256324,
      2.781583765162769,
      1.5667364986729924,
      -0.6471064203339932,
      1.558796180312264,
      1.653698206056619,
      1.0449280328192583,
      -0.7352993609637796,
      0.760100099003515,
      -0.5136271413734155,
      -0.6077485610418187,
      1.4523772050547048,
      -0.6664884871821803,
      1.5649815447700746,
      1.66908211027059,
      1.766330730403293,
      0.28305667694522657,
      -0.49141244131362016,
      1.5625553918518402,
      0.2398849973263627
    ],
    [
      -0.4063679818650567,
      -0.56362193003326,
      5.30640739648778,
      1.9388407236598237,
      0.5460939116855,
      1.9383694881514435,
      2.2175840754410356,
      0.041150759522446664,
      0.4202263287960359,
      -0.6323086816865596,
      0.9824764000009822,
      0.562496068799805,
      1.6387126972426562,
      -0.3054878522977437,
      1.9455799133121692,
      2.2410180008665894,
      2.5209587310674424,
      -0.6166257417810583,
      -0.8950458908097841,
      1.9512464718769076,
      -0.5636219300333044
    ],
    [
      -0.07038044982192093,
      -0.5725506558322654,
      0.37427477532038805,
      0.20866707868323267,
      0.6428445987185352,
      0.2117741504742343,
      0.6532193302823256,
      -0.4478140262355239,
      0.5595073836078489,
      -0.7541824641000808,
      0.8866689274350705,
      0.6508519874712956,
      0.2268732745491936,
      -0.048033542981612984,
      0.21437547632613418,
      0.19555518700062066,
      0.17215628253267373,
      -0.6474058072499347,
      0.0689349368368759,
      0.22014653960266897,
      -0.5725506558322517
    ],
    [
      -0.27318732650948563,
      -0.5026324244624955,
      -0.058930531254552374,
      0.7726218359525469,
      -0.16702869900537165,
      0.7787347813869224,
      -0.27942516965138364,
      -0.14425313617483196,
      -0.2288194100150785,
      -0.12671201341625982,
      -0.016197082436673352,
      -0.0785562984851561,
      0.8610953372530272,
      -0.26887995824072825,
      0.7781337601108153,
      0.6849407824172979,
      0.5869128685629802,
      -0.40521487401080997,
      -0.33366036587723036,
      0.7832002948963719,
      -0.5026324244625431
    ],
    [
      0.11944136354164889,
      -0.5572284571293881,
      -0.6059702245102514,
      0.08871894979454617,
      0.32111524465157404,
      0.09625750539427678,
      -0.8446546916490951,
      -0.6308715160241092,
      0.24941385150881207,
      -0.5487806763068165,
      0.3561284700967037,
      0.3706270589543734,
      0.21769461994843417,
      0.05179550262511837,
      0.09398968783123784,
      -0.019811787083247264,
      -0.11975455456755159,
      -0.5773257653147197,
      0.29583036981825445,
      0.09960984932665516,
      -0.5572284571294137
    ],
    [
      0.6031499413620635,
      -0.5885142321028404,
      -0.4554555450491117,
      -0.6680358428599277,
      1.2673689724986799,
      -0.6620586153902929,
      -0.06000386912334113,
      -0.976806598925635,
      1.221865663468244,
      -1.1271061827006867,
      1.2554468204249551,
      1.1939421587496999,
      -0.6601991803149927,
      0.6080710532317924,
      -0.6621353885431182,
      -0.6535823689537463,
      -0.6382755049516375,
      -0.7444883383642054,
      0.06361526839824572,
      -0.6562009828328834,
      -0.5885142321028631
    ],
    [
      2.0555579050956383,
      -0.5958656444462144,
      -1.0280222651397586,
      -0.873690418876839,
      1.8549075656024063,
      -0.8639449789760105,
      -1.2035664271158801,
      -1.5810920406565483,
      1.9379181076646546,
      -1.4638665976399774,
      1.5732013963232208,
      1.7148959900912841,
      -0.8414252799437137,
      1.9256332014194302,
      -0.8677371890423495,
      -0.8661837557897692,
      -0.8453382867563257,
      -0.8108963524966215,
      0.08121305791049281,
      -0.8617273446569357,
      -0.5958656444462376
    ],
    [
      -0.816035709044848,
      2.5902884323840523,
      2.9240110733142757,
      1.7642682925551496,
      -1.4667019659359761,
      1.7326535617579333,
      1.4900400975249655,
      1.8374430808254827,
      -1.231869881125341,
      1.8025944574241806,
      -1.5167210113989609,
      -1.6088472887864322,
      1.6198860669524395,
      -0.8248480279252054,
      1.7380976269234831,
      1.8420057727418138,
      1.9349756552115265,
      2.1994116838075874,
      0.03878192997291197,
      1.711978447380661,
      2.5902884323841686
    ],
    [
      -0.4688358503455711,
      -0.4721359364616362,
      1.7395283016508625,
      1.4082512043049398,
      -0.08101147373871817,
      1.4091920065602717,
      1.1420880597203442,
      0.22691465545646947,
      -0.1972402801921101,
      -0.08363984613756978,
      0.24531035784303187,
      -0.016735428694580542,
      1.3547699408729714,
      -0.4725832685710587,
      1.4135266807635225,
      1.4660074418278766,
      1.5123475741423542,
      -0.373183717849201,
      -0.37321272014492896,
      1.418279785822105,
      -0.4721359364615439
    ],
    [
      -0.21737195025325548,
      -0.5806413402802005,
      1.7781064414963907,
      -0.2786121595320042,
      0.8856285050245583,
      -0.27673151742444935,
      1.803280866092235,
      -0.3055965228856741,
      0.8160249281874664,
      -0.9070431666311298,
      1.229908886630371,
      0.8597482217093183,
      -0.47110616557476637,
      -0.24989627440444476,
      -0.27183197195060954,
      -0.10792270905288548,
      0.023082799854500624,
      -0.6916094622758377,
      -0.8498286204517783,
      -0.26598388185779,
      -0.5806413402802313
    ],
    [
      -0.2732489531927873,
      -0.543450764274005,
      0.09107418227588009,
      -0.25708923265805833,
      0.19877309967908446,
      -0.25466920885121,
      0.639426455537426,
      -0.16906977394387707,
      0.1113318521453033,
      -0.4254740454881919,
      0.5099807411602537,
      0.257598077271431,
      -0.29698997263066346,
      -0.24981063487564392,
      -0.25265592063682907,
      -0.20817654370343253,
      -0.16888603439407635,
      -0.5339085966793289,
      0.9322207970569266,
      -0.24717835479854852,
      -0.543450764274074
    ],
    [
      -0.14131034367962306,
      -0.5368990040201896,
      -0.4416875676846436,
      -0.233376867161669,
      0.09755773072001692,
      -0.2279140638254481,
      -0.2610509157686832,
      -0.32626634310278424,
      0.02098324694194276,
      -0.3545034823501835,
      0.24730375380315858,
      0.16789138165484316,
      -0.15539723567867247,
      -0.16025895295833176,
      -0.22825483055673282,
      -0.2895319396807837,
      -0.339320561211128,
      -0.5079329987124552,
      0.25263933486780443,
      -0.22284003957598703,
      -0.5368990040203871
    ],
    [
      -0.2015838021788408,
      -0.5256988242427264,
      -0.2650767567061972,
      0.2118299307806224,
      0.007135064133683859,
      0.21725350780431602,
      -0.2604133349242359,
      -0.25860489584510354,
      -0.0682339202439449,
      -0.275140104217414,
      0.15365649303713014,
      0.0842526426320967,
      0.3176120654813047,
      -0.2371008907528104,
      0.21702999778960835,
      0.12089906575484367,
      0.03239140318299105,
      -0.47356914966422387,
      0.07825203126304915,
      0.22233129426128467,
      -0.5256988242428605
    ],
    [
      0.46148433157848384,
      -0.5412142344395996,
      -1.1457047270677647,
      -0.3955050982190462,
      0.1356278583332013,
      -0.3837977692743744,
      -2.0919438114971642,
      -0.8146023359468133,
      0.06583160921042658,
      -0.39714506445619185,
      -0.10659178454520246,
      0.2033751972553101,
      -0.25885195947724593,
      0.4432596412078429,
      -0.3903744279499491,
      -0.49090334873998087,
      -0.5611787356629903,
      -0.5221190075435086,
      0.3001933092776946,
      -0.3849139604152594,
      -0.541214234439662
    ],
    [
      -0.8055049307843594,
      1.9979347643283707,
      1.0490794197088582,
      0.5254945080114416,
      -1.4657448941396969,
      0.5017180532567312,
      0.931678966495161,
      1.6718420478025888,
      -1.2282030828136505,
      1.7588454631714894,
      -1.6197605251335578,
      -1.6045270888601164,
      0.5230045111379578,
      -0.8169763482589605,
      0.5055339737506541,
      0.47993187393005926,
      0.44821380519114834,
      2.094039418746516,
      -0.19237209280169562,
      0.485393493866429,
      1.9979347643288974
    ],
    [
      -0.7970243926739065,
      2.172667962541674,
      0.5591183877057022,
      0.2728829089564197,
      -1.4996976915608144,
      0.2522639101253242,
      0.5803445071874819,
      1.5562176742453906,
      -1.235393080233143,
      1.8051662995361168,
      -1.64887825179409,
      -1.6498781001529332,
      0.3078878646839347,
      -0.7933688728370814,
      0.2549520245550601,
      0.20074318044685227,
      0.14687007276547326,
      2.217165779848086,
      -3.4099312501156187,
      0.23305200672294007,
      2.1726679625502636
    ],
    [
      -0.5175230341809022,
      -0.03240547836255483,
      0.6305703107636741,
      0.4090227621308815,
      -0.28671997909231517,
      0.4062939615102873,
      0.7913322295321981,
      0.5449635661981546,
      -0.44238463067842215,
      0.4100884961897683,
      -0.3356190962272734,
      -0.24876928122056674,
      0.44336189970136597,
      -0.5043344257481102,
      0.4096829984815586,
      0.37281374648409404,
      0.3338689632520664,
      0.024266300358776745,
      -0.34506320268951624,
      0.41000933458834354,
      -0.03240547836245815
    ],
    [
      -0.4863742355526017,
      -0.45070926615571383,
      0.18585031287199832,
      -0.5659086245635538,
      -0.29343619033251817,
      -0.563517257727657,
      0.8715784869781293,
      0.2781177586734249,
      -0.3643536373685146,
      0.06414141817323203,
      0.03566137554048813,
      -0.2103779443475485,
      -0.629904893492194,
      -0.4436144348612583,
      -0.5609346822129541,
      -0.4992701208312089,
      -0.4477454072427776,
      -0.30574562086269197,
      -0.438437542129111,
      -0.5563917039963705,
      -0.45070926615575446
    ],
    [
      -0.23558524026943517,
      -0.51065994665627,
      -0.576424376659062,
      -0.6133840162289831,
      -0.09055541954214891,
      -0.6081752094572163,
      -0.20531522549837528,
      -0.1694285436482688,
      -0.15908635781593883,
      -0.18316295528978144,
      0.06104523842064864,
      -0.007089266429324304,
      -0.5824713387280399,
      -0.2042647574769044,
      -0.6085875523195572,
      -0.6167149537532003,
      -0.6126682046333335,
      -0.4339254402095365,
      0.33412912007303974,
      -0.603437403305276,
      -0.5106599466563702
    ],
    [
      -0.18475671809052885,
      -0.4909835075926505,
      -0.8203739928628666,
      -0.5561814465424015,
      -0.23407064589814897,
      -0.5490367783265752,
      -0.9358393499032196,
      -0.25056420765410176,
      -0.2807722390206145,
      -0.06921592344385355,
      -0.24146201018334496,
      -0.14154354885036155,
      -0.47051907448627284,
      -0.2105977129618664,
      -0.5516334590648395,
      -0.6055887666008899,
      -0.6366711562956586,
      -0.3761742523774381,
      0.3897857892270603,
      -0.5466802589274455,
      -0.4909835075927103
    ],
    [
      -0.3597939675414918,
      -0.21709319476077601,
      -0.8309335050443827,
      -1.081968616488303,
      -0.4509154560211625,
      -1.08096287093634,
      -0.7136238593324543,
      0.07184155146165257,
      -0.5120500747458356,
      0.31622710033126666,
      -0.5372060177182068,
      -0.3775123211394313,
      -1.1024835392751386,
      -0.3631622961682789,
      -1.083330227155937,
      -1.042668170135036,
      -0.9892802620629779,
      -0.08302977836879197,
      3.398073503541519,
      -1.0811390769974552,
      -0.21709319476238007
    ],
    [
      -0.8094760007617429,
      2.1752762055579855,
      0.6113664948937984,
      -0.49273718996378113,
      -1.4811176534805974,
      -0.5180075725072268,
      1.0873758083990448,
      1.743229690610495,
      -1.2344860309475252,
      1.799693487202761,
      -1.6186361149425013,
      -1.6267882685595667,
      -0.5842193344971517,
      -0.8220900746867281,
      -0.5146534533927317,
      -0.4556221723921664,
      -0.4063217223104548,
      2.190749263735897,
      0.02402488184579491,
      -0.5365808614283292,
      2.175276205560109
    ],
    [
      -0.7873803850427966,
      2.2522373766694535,
      -0.07650371836630207,
      -0.4759220593524013,
      -1.4599979465137634,
      -0.492518101032967,
      0.19550875303580306,
      1.4686992214239636,
      -1.233645697252776,
      1.8258929233913128,
      -1.7285354413387193,
      -1.599154249977119,
      -0.4648688959390624,
      -0.7669370536836229,
      -0.4915168056918274,
      -0.5091475839587636,
      -0.5194787971326953,
      2.1899821108332347,
      -7.465955095910202,
      -0.514217317843995,
      2.2522373766751853
    ],
    [
      -0.5207184071149792,
      -0.00979404757820778,
      -0.7509947654962689,
      -0.5056011665850727,
      -0.8533129879161178,
      -0.4979830369709187,
      -0.9548471004712868,
      0.37098701840859016,
      -0.837742487652101,
      0.7753078289507985,
      -1.0854522890755218,
      -0.8064950784539963,
      -0.4191940671694232,
      -0.5220381610301109,
      -0.5007577935983517,
      -0.5589599833730333,
      -0.5962771011016624,
      0.2754972353283841,
      -4.6925632803305115,
      -0.5006551822391109,
      -0.00979404757672779
    ],
    [
      -0.5576525038354281,
      0.01411996845667918,
      -0.09540227039707042,
      -0.6473854906352676,
      -0.5101273265983333,
      -0.6492047118676529,
      0.619413562717607,
      0.6400384894488366,
      -0.609253551139521,
      0.5761384601767071,
      -0.5502519748171557,
      -0.46016179643602917,
      -0.6840531053936977,
      -0.5468268119098931,
      -0.6472489570736027,
      -0.6074952876755348,
      -0.5686953879344439,
      0.12522610239338727,
      -0.2537873344414724,
      -0.6473903226800783,
      0.014119968456761011
    ],
    [
      -0.291492647544381,
      -0.44240852850557655,
      -0.8782597747749791,
      -1.0328455539267034,
      -0.35490243881713335,
      -1.0266140077426873,
      -0.5546280447966319,
      -0.02870272829802685,
      -0.40848526921105177,
      0.10404295822576246,
      -0.33373932355570385,
      -0.26556449166657964,
      -1.0556790230995374,
      -0.3041915062326006,
      -1.0285270429661744,
      -0.9779824360750122,
      -0.9156579628979102,
      -0.2857841249527142,
      0.19872468836200086,
      -1.0240650880755944,
      -0.44240852850579077
    ],
    [
      0.049377231364366336,
      -0.5455816780562038,
      -0.9801906595952861,
      -1.224745745870184,
      0.1882999094956982,
      -1.2169155705512233,
      -0.6878004021385127,
      -0.4937675970030998,
      0.10464487475021585,
      -0.42634855115606096,
      0.24867780462476283,
      0.25046797781595687,
      -1.2754744578487192,
      0.03698673130727079,
      -1.2194210255630364,
      -1.1440125964714265,
      -1.0601011559231077,
      -0.5371822079688505,
      0.20401956003047833,
      -1.21391930407804,
      -0.545581678056162
    ],
    [
      0.00765184786761337,
      -0.5479746335852951,
      -0.7375156151347322,
      -0.62962985129364,
      0.20134024955894125,
      -0.6226209944623067,
      -0.6105134974716985,
      -0.4891505836713547,
      0.12679992776860416,
      -0.4483190474957478,
      0.28591051951977,
      0.2632003838924446,
      -0.5764766005978375,
      0.020272396012977686,
      -0.6242988211518838,
      -0.649914013699635,
      -0.6587509536945239,
      -0.5434112367302771,
      0.1885320632241479,
      -0.6187718677375835,
      -0.5479746335853094
    ],
    [
      -0.7990119476351074,
      2.0559002888748363,
      -0.14279952264040216,
      -1.0938140155307199,
      -1.4826629174209973,
      -1.1164597236969542,
      0.630828772283798,
      1.5988180452929184,
      -1.2304862721820995,
      1.7709832057777295,
      -1.682101439081938,
      -1.6253715742695867,
      -1.2433263515878639,
      -0.8096293771028316,
      -1.1152991604365463,
      -1.0034929510661035,
      -0.9069299695147298,
      2.139661754834314,
      0.7590464487572726,
      -1.1360230437295498,
      2.0559002888723654
    ],
    [
      -0.7402944025759924,
      1.1615250008276843,
      0.2590956365262415,
      -0.6710318218457494,
      -1.1504084578189409,
      -0.6846275027524713,
      0.8939316908885613,
      1.3116102789458721,
      -1.0362896113577382,
      1.3381001928465295,
      -1.2151950636538749,
      -1.2038606258126552,
      -0.7671253429363913,
      -0.7379229784349016,
      -0.682101954571679,
      -0.6091528897871183,
      -0.5475830554772105,
      1.2805061177128136,
      -0.637799782462513,
      -0.6938105575312268,
      1.161525000827755
    ],
    [
      -0.6780180785990823,
      0.16001971331193998,
      0.6504404244061208,
      -0.4030418168710653,
      -0.7947420727558567,
      -0.408392538739891,
      1.272478177116125,
      1.0198840007890826,
      -0.8191823924786996,
      0.8475067469571168,
      -0.686759457104767,
      -0.7529256523513774,
      -0.4819416532943036,
      -0.6673942829924077,
      -0.4044007249412332,
      -0.33786766376752053,
      -0.28248230452884554,
      0.34636465835650143,
      -0.22824539186237797,
      -0.40601469457577677,
      0.16001971331271433
    ],
    [
      -0.5686867034698613,
      -0.032036399694365454,
      -0.1609776153768825,
      -0.41039102227298196,
      -0.6216165144742278,
      -0.41173747621406925,
      0.2569308151276758,
      0.5846273098645034,
      -0.6745613709766951,
      0.6091263732550214,
      -0.6823129250685659,
      -0.5635390747507117,
      -0.38013612535909463,
      -0.5719882632400478,
      -0.41048818761944666,
      -0.4316338697934956,
      -0.4459618193581868,
      0.13386719505591532,
      0.3927248848469368,
      -0.4101631130711062,
      -0.032036399693381915
    ],
    [
      -0.4739692478445807,
      -0.026042627983036765,
      -0.6556522472772814,
      -1.3687105745088954,
      -0.3820122699411541,
      -1.3681842268782993,
      0.21465300899004824,
      0.44421514843023324,
      -0.505991004640186,
      0.458625393554459,
      -0.5119643974296718,
      -0.33305152593686144,
      -1.5174511935415742,
      -0.4672678373463107,
      -1.368536237712907,
      -1.2290113262338642,
      -1.102584670951344,
      0.048903788641602414,
      0.12341410549840744,
      -1.368273712675725,
      -0.026042627983102716
    ],
    [
      -0.19724493293078066,
      -0.5530703929275474,
      -0.4928953288237612,
      -1.6542781000350475,
      0.3672095934276384,
      -1.6483195220368043,
      0.6508009084887452,
      -0.27988213290831365,
      0.3010373819140457,
      -0.5625479701548306,
      0.6546958542363281,
      0.4059793540629147,
      -1.9904643277094367,
      -0.228725924787249,
      -1.649015423920932,
      -1.3876827482956424,
      -1.1870317570542708,
      -0.5761732392300821,
      0.37946823408803526,
      -1.6434450203625754,
      -0.5530703929274985
    ],
    [
      -0.1918539616717017,
      -0.5570643440981707,
      -0.10682322810154939,
      -0.7465295206794592,
      0.3467527392070249,
      -0.7428924128579509,
      0.5437606810321767,
      -0.2955473876380671,
      0.2607936120527254,
      -0.5478054136650611,
      0.6259592923555442,
      0.3918834476107239,
      -0.8100451064485037,
      -0.17776187886775743,
      -0.7414736831271938,
      -0.6812459605066953,
      -0.6303977709055586,
      -0.5797496038729631,
      0.5197873172283419,
      -0.7358580604029412,
      -0.5570643440982108
    ]
  ],
  "sample_order": [],
  "config": {
    "grid": [
      7,
      7
    ],
    "dim": 21,
    "learning_rate": 0.3,
    "sigma": 7,
    "num_epochs": 150,
    "num_samples": 300
  }
}