{
  "seed": 42,
  "initial_weights": [
    [
      4.662077234557761,
      -0.6002545653314474,
      -0.7280879985970865,
      0.9362576804692756,
      2.7476644706933424,
      0.9487864787764909,
      -1.7106752315240599,
      -2.13733646000465,
      3.3586144803575446,
      -1.905296396901708,
      2.3201681894486774,
      2.59440651994683,
      1.0664996823588393,
      4.3567940365533815,
      0.9423815918789409,
      0.802878554232654,
      0.658766461927663,
      -0.8824787840506023,
      -0.07800852849094592,
      0.9484328315210352,
      -0.600254565331477
    ],
    [
      1.7683317263613485,
      -0.5977281840517965,
      -0.22712978464733677,
      0.22487315475498526,
      2.1993874538079488,
      0.23118864962498495,
      -0.2049306735405095,
      -1.4993282326497888,
      2.3648688646680753,
      -1.611868656007682,
      1.9527632576425378,
      2.046104831203574,
      0.3208596577862266,
      1.6232817232050558,
      0.23108879728526027,
      0.1463332768006844,
      0.06878883225455186,
      -0.8393572838330357,
      -0.17196005584268942,
      0.23711580546816038,
      -0.5977281840518208
    ],
    [
      1.5679087157919254,
      -0.596901524079508,
      0.34318761233723316,
      1.8534153396154263,
      2.0233199107728983,
      1.861571744530724,
      -0.3698326015178305,
      -1.4472596087808383,
      2.0904852429019627,
      -1.5208510351258684,
      1.7838019357177075,
      1.8741566292299792,
      1.857758317521086,
      1.3980959730114464,
      1.859504683769311,
      1.825650075477388,
      1.763195098170438,
      -0.8254009471178327,
      -0.05609313204704722,
      1.865515677757412,
      -0.5969015240795411
    ],
    [
      -0.15772608113004918,
      -0.4544007598513514,
      -0.11290788856035826,
      1.5667806357681333,
      -0.05302401292585664,
      1.5737680567143455,
      -0.6439188268848911,
      -0.25643363638710126,
      -0.16152363871145287,
      -0.13611993128674796,
      -0.05844913689618717,
      0.016954838587202127,
      1.6256489626484567,
      -0.08252503843594745,
      1.5710865466453154,
      1.4807376554063019,
      1.3637558647503998,
      -0.39126958114918237,
      0.182919418136757,
      1.5756636216747064,
      -0.45440075985153605
    ],
    [
      0.22850493098608307,
      -0.5571811307657362,
      0.10775411790931011,
      2.630508753501413,
      0.4734669829291484,
      2.641207069649412,
      -0.7835489539644265,
      -0.661064613558273,
      0.3240847069624221,
      -0.5673270541172386,
      0.43483514992009303,
      0.4992942180075861,
      2.5411493159107286,
      0.3987073129788662,
      2.6361528120522117,
      2.6820095039432346,
      2.68400850864675,
      -0.5956633799432004,
      -0.07012072991030291,
      2.6417583411301977,
      -0.5571811307657545
    ],
    [
      0.37185456858859284,
      -0.576299563966057,
      0.966843813105186,
      3.9237501276080198,
      0.903266547344631,
      3.934612680781728,
      -0.18780446768836206,
      -0.7716482777576755,
      0.78161438045128,
      -0.8611593682203954,
      0.9139849885384717,
      0.8763624996946661,
      3.5300245183758023,
      0.6044998458230534,
      3.9297651422580433,
      4.3157196240862215,
      4.686132841323479,
      -0.679737842274858,
      -0.17931206402807442,
      3.9355506650046532,
      -0.5762995639660744
    ],
    [
      3.858691140384956,
      -0.5996575300828585,
      -0.9942896062646288,
      -0.6260712217966042,
      2.5555698833948166,
      -0.6161907888506729,
      -1.500644460618363,
      -2.010800990125722,
      2.917472862342347,
      -1.8074359429066085,
      2.1479886592228263,
      2.393353331731439,
      -0.5498034068010034,
      3.8751133858364954,
      -0.6208674387920657,
      -0.6638807781179329,
      -0.683752299502334,
      -0.8687715440778105,
      0.8446912566180346,
      -0.6148188636163299,
      -0.5996575300828848
    ],
    [
      2.1527242318706286,
      -0.5973418931268866,
      -0.8769963626188024,
      -0.7028745368759021,
      2.062800016691382,
      -0.6940471218131327,
      -0.9005756602503893,
      -1.6220963294176334,
      2.22296784223461,
      -1.5786994481854035,
      1.7867678204844335,
      1.9066220036583599,
      -0.664575657365576,
      2.102535784231882,
      -0.6968814703308381,
      -0.7068929557510824,
      -0.7013194050478095,
      -0.8297725940231354,
      0.05978828204436931,
      -0.690857106164807,
      -0.5973418931269149
    ],
    [
      0.2507973812941031,
      -0.5712330129874094,
      -0.2032264668523167,
      1.1646404765138516,
      0.614413798124593,
      1.1725091084696384,
      -0.6646312586888586,
      -0.7571826568216099,
      0.5117962400131533,
      -0.724767209819271,
      0.6405316698100596,
      0.6267364635851658,
      1.252252995484562,
      0.28074475001957977,
      1.170097910906839,
      1.0657937515098816,
      0.9479040104159997,
      -0.6407263471754469,
      0.21166683676855416,
      1.1758547038004195,
      -0.5712330129874236
    ],
    [
      -0.1196649817267078,
      -0.5681511086239616,
      1.7670170042249078,
      1.5058493809243585,
      0.7177225476453977,
      1.5083697756937973,
      1.0800092074469883,
      -0.36147819119579977,
      0.6162128828785115,
      -0.7592875216642968,
      0.9765888613901396,
      0.7122848994298534,
      1.433036204696321,
      -0.09628889889816632,
      1.512301519566433,
      1.5856782526582325,
      1.6536839391993263,
      -0.6443471988609529,
      -0.5407391185094852,
      1.5180215755454984,
      -0.5681511086239823
    ],
    [
      -0.5184092041012469,
      0.04164413931572929,
      1.4276992914285056,
      2.15921293777948,
      -0.31845727287693304,
      2.1565195347924524,
      0.6645252290843476,
      0.5420307530506839,
      -0.4800610105030464,
      0.4496005681348809,
      -0.3985504474508234,
      -0.279695804723302,
      2.0723214677649953,
      -0.49749406224947224,
      2.158646780193797,
      2.223963887470254,
      2.2738306277330183,
      0.04849591014541458,
      0.06186633234519528,
      2.1582178184399217,
      0.04164413931494988
    ],
    [
      -0.6466484065026382,
      0.012318160948495374,
      2.446428523188146,
      1.5227288443383582,
      -0.5724842104333188,
      1.51764211944035,
      1.511480659723485,
      0.8616480967326847,
      -0.6600586756593128,
      0.5800460792058061,
      -0.36168654691681684,
      -0.5189906981773292,
      1.421819738202318,
      -0.6307568689427767,
      1.5232804561615754,
      1.6201062426696682,
      1.7133966163023076,
      0.11056268040261484,
      -0.5291022645996473,
      1.523148650002633,
      0.012318160949462628
    ],
    [
      3.351468557098979,
      -0.597985180553853,
      -1.1455506525449448,
      -0.7218291568915418,
      2.193420644792576,
      -0.7048823068652954,
      -1.967461729082361,
      -1.9752600943461964,
      2.3330140883326425,
      -1.6139843367117896,
      1.8142538299832602,
      2.0338302564165502,
      -0.6209004064762016,
      4.078283575054008,
      -0.7109719111116348,
      -0.7636309181384265,
      -0.7856275688049112,
      -0.8401955371882461,
      -4.7081118201895915,
      -0.7049393705456874,
      -0.5979851805538885
    ],
    [
      -0.22476525984322612,
      -0.5804870449568078,
      1.8703175545848456,
      -0.24124126130925938,
      0.8816567891467253,
      -0.23946746319673545,
      1.8316249206619848,
      -0.2959116995952858,
      0.8108497251957749,
      -0.9037113999330137,
      1.2301804923787392,
      0.8563179354107866,
      -0.43417954088041805,
      -0.25586034338241226,
      -0.23444594008685948,
      -0.07034223727235428,
      0.060736487455689527,
      -0.6908289079857772,
      -0.862121578646495,
      -0.228599534822299,
      -0.5804870449568379
    ],
    [
      -0.026927771467898258,
      -0.5701818495679848,
      0.2973595192888792,
      0.3455689521588078,
      0.6436430135919028,
      0.3493254932638838,
      0.440429736015975,
      -0.4885340853854477,
      0.5484362318011328,
      -0.7380911208763128,
      0.8373829547785879,
      0.6505744024012162,
      0.3923117493717149,
      0.007266249769185093,
      0.35134914305975234,
      0.3080931966900121,
      0.2636050604488463,
      -0.6422509125240543,
      -0.06231534968921265,
      0.35709671414372884,
      -0.5701818495680522
    ],
    [
      -0.35261790151383854,
      -0.4151866118076563,
      -0.07008494737220314,
      0.6594214277336834,
      -0.2871029236083527,
      0.6646609929697316,
      -0.2417298742552762,
      0.0022721960882057957,
      -0.34368629480332435,
      0.049709764220819186,
      -0.1934828733150834,
      -0.2067325676758459,
      0.7523528315481429,
      -0.3423398931265585,
      0.6643166552707032,
      0.5698225238920727,
      0.4740813129256662,
      -0.28427139348994246,
      -0.5890722272509574,
      0.6685022257257369,
      -0.41518661180775285
    ],
    [
      -0.5174039831700518,
      -0.031279917161981405,
      0.5600984909494402,
      0.3760198904257802,
      -0.30189293762178987,
      0.37349444006437643,
      0.7376967491055854,
      0.5388394844181729,
      -0.4521256065674545,
      0.41776620431224076,
      -0.35675923848547186,
      -0.26239043998032147,
      0.4152673595511269,
      -0.5069327428850575,
      0.3767089800422084,
      0.33493536178060207,
      0.2913785085509076,
      0.028593191189722145,
      -0.37359591839509565,
      0.3770242122534545,
      -0.031279917161852355
    ],
    [
      -0.8160134697330655,
      2.5611202395158488,
      2.947045766079347,
      1.7916650567132657,
      -1.4715839535707063,
      1.7608195850514168,
      1.480190467411828,
      1.8392544624127276,
      -1.2327982373486834,
      1.806550312147911,
      -1.5239078234601091,
      -1.6150341810141473,
      1.6436277262960088,
      -0.8249937176781732,
      1.766173209583155,
      1.8744042048457488,
      1.9714696176421238,
      2.2108426073931278,
      -0.2786354350530772,
      1.7403478375916699,
      2.561120239516495
    ],
    [
      0.636897986255043,
      -0.5870048868772272,
      -0.5503186736867436,
      -0.616952197696905,
      1.1963185091754698,
      -0.610402165841328,
      -0.25522954028849393,
      -0.9916840570938102,
      1.1560592352018562,
      -1.0946280766478325,
      1.180047819494224,
      1.1322356622223524,
      -0.5895670337815082,
      0.6194460749681268,
      -0.6110306407749128,
      -0.6169012609257875,
      -0.6120121604887496,
      -0.7341014776059661,
      0.015994077650856975,
      -0.6051110514224893,
      -0.5870048868772513
    ],
    [
      -0.2262448170062977,
      -0.5483707620169487,
      -0.0621058352658078,
      -0.782402193090681,
      0.2707242877826494,
      -0.7787214860050884,
      0.6310324799926024,
      -0.21867861140681003,
      0.18589953614148058,
      -0.4796119303588597,
      0.5683468378021104,
      0.32204629869437784,
      -0.8694444240372187,
      -0.186315591285002,
      -0.7772206017812042,
      -0.6971191251573531,
      -0.6301270433376568,
      -0.5533430200810399,
      0.2978189234588151,
      -0.7716931748485972,
      -0.5483707620170354
    ],
    [
      -0.16882762810167917,
      -0.5512454761783475,
      -0.15873977306982268,
      -0.2177428165827337,
      0.24865024347475945,
      -0.21384685112633076,
      0.16274123988771197,
      -0.32820999346594715,
      0.16664125641535854,
      -0.47995603678196347,
      0.4763141224613385,
      0.3051952020582922,
      -0.18704094646143957,
      -0.15523041253124142,
      -0.21299903292370592,
      -0.2311120360065489,
      -0.24439703422419312,
      -0.5561017347692464,
      0.719772326799949,
      -0.2074410135023099,
      -0.5512454761783687
    ],
    [
      0.2661676419878912,
      -0.563842622011754,
      -0.6977918171521488,
      -0.0038185450698754106,
      0.4231380688507503,
      0.004489182087647529,
      -1.0142448457544397,
      -0.7436916982424001,
      0.36487537756253924,
      -0.6305306939618615,
      0.42856593837614254,
      0.46023143160995394,
      0.12743874374701714,
      0.2712347892771537,
      0.0016338036948393975,
      -0.10892712211762462,
      -0.2017205675500373,
      -0.6034036469741713,
      0.1906542283615733,
      0.007320984179541565,
      -0.56384262201178
    ],
    [
      -0.5129798250385477,
      -0.058944553994852975,
      -0.7901686562548237,
      -0.6078611800770188,
      -0.8229735836706518,
      -0.5992929705133401,
      -1.0160201520918086,
      0.3215350545081072,
      -0.8208722217159293,
      0.7427565622752481,
      -1.0592566495124796,
      -0.7731434746978539,
      -0.5277841880399152,
      -0.5259024987670062,
      -0.602246667086635,
      -0.6501089713189147,
      -0.6755905140962613,
      0.23078301212336869,
      -5.024502771098855,
      -0.6016484997713762,
      -0.05894455399374501
    ],
    [
      -0.8066484090905391,
      2.0169332164549787,
      1.0010723105917578,
      0.37180544314583774,
      -1.4685321005903011,
      0.3477559266098389,
      0.9653165614682054,
      1.68437726426101,
      -1.2289944290085397,
      1.7636128650088962,
      -1.6175136375750492,
      -1.6082605927889162,
      0.36714039212021066,
      -0.818727740175652,
      0.35166472287629086,
      0.3305933889901642,
      0.3052654009213085,
      2.105723512489353,
      -0.2093390393096204,
      0.33133315866499197,
      2.01693321645444
    ],
    [
      -0.13829302804462432,
      -0.5211206510804419,
      -0.746063153088879,
      -0.6180855949772801,
      -0.05944740130702488,
      -0.6115548848974963,
      -0.5409289885446771,
      -0.29552823403640094,
      -0.11731730861762579,
      -0.23812194497427494,
      0.04842349417257029,
      0.02525886282352807,
      -0.5677719055066169,
      -0.11122684731778852,
      -0.6130244109682319,
      -0.6354567419675381,
      -0.6407803176917296,
      -0.45614587009367746,
      0.20349926262642445,
      -0.607768257101584,
      -0.5211206510805262
    ],
    [
      -0.03198623561025257,
      -0.5449957872104786,
      -0.8546025241014177,
      -1.3086531878861916,
      0.20366104801302318,
      -1.3013563438335312,
      -0.3903006379004882,
      -0.4293991702458384,
      0.12438824645090629,
      -0.4388951055826666,
      0.31888444565712765,
      0.2631792464452428,
      -1.4113493160213073,
      -0.06762272841798672,
      -1.3033468392845253,
      -1.1931375620973943,
      -1.0875216043493658,
      -0.5383622352707843,
      0.2176854768778266,
      -1.2978522444861411,
      -0.5449957872103902
    ],
    [
      -0.24170342129778669,
      -0.5205905339114811,
      -0.24365666947146805,
      0.1387659727050464,
      -0.039466541725035775,
      0.1439813152721774,
      -0.18845068348553537,
      -0.21136011536965543,
      -0.10632708062787263,
      -0.24148910788182565,
      0.12868837095264668,
      0.04163518321622535,
      0.23824166387928386,
      -0.281845385441612,
      0.1440068188517254,
      0.05559874556867596,
      -0.02476577592285395,
      -0.4578953779226501,
      -0.0033585081131990158,
      0.1492566694651085,
      -0.5205905339116537
    ],
    [
      -0.5551303658450522,
      -0.04393861678775362,
      -0.11284065028034285,
      -0.4386375491522146,
      -0.5526250938324443,
      -0.43997919774185673,
      0.3737762098657798,
      0.5667649673538583,
      -0.6232347631887261,
      0.5527997358439406,
      -0.5934063433854674,
      -0.49507103517610895,
      -0.4225340857705174,
      -0.5571000356317813,
      -0.43843316927571185,
      -0.4468554093582179,
      -0.4504960570692448,
      0.09690619794180533,
      0.21536557109786703,
      -0.43798844440050955,
      -0.04393861678772821
    ],
    [
      -0.6637687553531432,
      0.9817960142106404,
      0.17346445165852492,
      -0.47080271518476347,
      -0.9835690859928609,
      -0.4821844458383365,
      0.6087790594632417,
      1.0722391027522356,
      -0.904477786879334,
      1.1222075682551682,
      -1.070129483707538,
      -1.0207424839232082,
      -0.5026178567111876,
      -0.6664651648047969,
      -0.4801455005061195,
      -0.45943062554226394,
      -0.44086178397098935,
      1.0668308267182107,
      -0.5710095441001014,
      -0.49004125950667726,
      0.9817960142110348
    ],
    [
      -0.808313404487058,
      2.1550322287315233,
      0.5493145978455476,
      -0.4481310117715589,
      -1.4804317682645978,
      -0.47336735671487074,
      1.0126695222037903,
      1.722848177077864,
      -1.2340216240042587,
      1.7966516165068076,
      -1.63534676355679,
      -1.6255083235368313,
      -0.5221806588916356,
      -0.8205438925833833,
      -0.47012515584812536,
      -0.4283230753931361,
      -0.3952201473003295,
      2.183870107545318,
      0.2608021266518835,
      -0.4918481414019664,
      2.155032228730688
    ],
    [
      0.7989711790388137,
      -0.5643342029409955,
      -1.0640200960105934,
      0.4249113868074167,
      0.4047391907870206,
      0.43800234587737946,
      -2.2952709333233923,
      -1.0517496147507022,
      0.33769422963427087,
      -0.621352941273988,
      0.13472484530091333,
      0.44572848590504033,
      0.6033717943401034,
      0.7199815557644295,
      0.43006467317428854,
      0.25955714557156834,
      0.10256497417519472,
      -0.6027976677742912,
      0.47303716730109874,
      0.4357568301538113,
      -0.5643342029410382
    ],
    [
      0.3351129863202105,
      -0.5314449655969835,
      -1.1353980666719543,
      -0.5868585237898667,
      0.06973177554193646,
      -0.5762226385893061,
      -1.8547919047516748,
      -0.7075581066404986,
      0.005605723250450615,
      -0.3392619272234136,
      -0.12316019202573193,
      0.14183182926423224,
      -0.47955141877046836,
      0.34776632259131396,
      -0.5819678717901919,
      -0.6505866337720553,
      -0.6896870096392419,
      -0.49532252104446056,
      0.44942667796107627,
      -0.5766061134395558,
      -0.5314449655969989
    ],
    [
      -0.4800779718382354,
      -0.021969345976596787,
      -0.6544113063958878,
      -1.3526471371814361,
      -0.4025724143933825,
      -1.3524839081349176,
      0.19034831696263138,
      0.44695807522864334,
      -0.5207663803610043,
      0.4738327309655371,
      -0.5293451014443964,
      -0.35296895684338037,
      -1.496209753675718,
      -0.46926310944551974,
      -1.3528714678169695,
      -1.217817626530553,
      -1.0949017893480606,
      0.05889577822191819,
      0.46035087281535114,
      -1.3526498915829814,
      -0.021969345977268538
    ],
    [
      -0.6892605726817257,
      0.22073961083296934,
      0.5321368778237074,
      -0.4951603746298174,
      -0.8405317146284595,
      -0.501138549031275,
      1.1899602513374288,
      1.0575909864988862,
      -0.8566404912408124,
      0.9167164881329882,
      -0.777618012797883,
      -0.806459671457761,
      -0.5737090862178352,
      -0.6820298160676525,
      -0.4974620859286234,
      -0.4351096817508424,
      -0.38526111468404267,
      0.421128891034602,
      0.08775908747643976,
      -0.4996877921911191,
      0.22073961083326882
    ],
    [
      -0.7873082855818981,
      2.254215978755217,
      -0.09040483276523709,
      -0.5045331018092059,
      -1.462018037201823,
      -0.5209848165170673,
      0.19351101701174794,
      1.4687479138122537,
      -1.233720442443999,
      1.827013755714703,
      -1.7294501624626335,
      -1.601261993796501,
      -0.4967326290422455,
      -0.7669306750998944,
      -0.5200170163075969,
      -0.5342327025281235,
      -0.5412726474436163,
      2.1911549357941373,
      -7.604768831142196,
      -0.5427374802135184,
      2.2542159787609757
    ],
    [
      -0.7989520879281682,
      2.0595455322108873,
      -0.2939305540636166,
      -1.3336039259304142,
      -1.4719530937347605,
      -1.3553299381302053,
      0.6352351644910964,
      1.6055068012880724,
      -1.231275560083969,
      1.7725022532168022,
      -1.6875690156503174,
      -1.6149537230247364,
      -1.539738098264164,
      -0.8102761727573017,
      -1.3546712043612463,
      -1.196594941844358,
      -1.0623669467117052,
      2.1394485347908923,
      0.34075048781515616,
      -1.3754327141889444,
      2.0595455322075393
    ]
  ],
  "sample_order": [],
  "config": {
    "grid": [
      6,
      6
    ],
    "dim": 21,
    "learning_rate": 0.4,
    "sigma": 3,
    "num_epochs": 140,
    "num_samples": 300
  }
}