{
  "seed": 42,
  "initial_weights": [
    [
      -0.06981804507798173,
      -0.5710667872309708,
      0.38585612332439606,
      0.16980059469890776,
      0.6346356584490147,
      0.17323166292677852,
      0.6592774626625783,
      -0.4385297726176703,
      0.5544463681835128,
      -0.7440535874656854,
      0.8782538909636637,
      0.6424043363003085,
      0.18902840159510392,
      -0.017965325379873,
      0.17587615300422121,
      0.16455264182408524,
      0.1537132888391555,
      -0.6428111655959503,
      -0.2542470454378048,
      0.18163239726636132,
      -0.5710667872309885
    ],
    [
      -0.22798759431370716,
      -0.5804926979165262,
      1.8933477901124656,
      -0.22146041668599128,
      0.8785101244916509,
      -0.21972942824616393,
      1.8358690920797458,
      -0.29413242072530016,
      0.8076143090089362,
      -0.9028474287143816,
      1.2297797384053217,
      0.8537296119657642,
      -0.41107123506163057,
      -0.26523177727150826,
      -0.21465058621754357,
      -0.0528924129118626,
      0.0766761649206433,
      -0.6905256528176041,
      -0.8713335160345553,
      -0.2088040910852089,
      -0.5804926979165567
    ],
    [
      -0.45923095178029655,
      -0.4802024845950863,
      0.2514647044521554,
      -0.705651831655436,
      -0.14269214998184374,
      -0.7028282042308597,
      0.957078558369004,
      0.19527831828354347,
      -0.23522261508581893,
      -0.06901605193217249,
      0.18836120921072433,
      -0.06552679699818617,
      -0.8072706925385723,
      -0.41205288103487714,
      -0.7003041599739719,
      -0.6110313714588238,
      -0.5407222993110672,
      -0.379479517573651,
      -0.5578704767716501,
      -0.6954645369637179,
      -0.4802024845951687
    ],
    [
      -0.5233001333832507,
      -0.0035014049324415264,
      -0.7457935979689927,
      -0.5094727202737963,
      -0.8553855673157668,
      -0.5019545517884068,
      -0.9402464085889916,
      0.37867767421983334,
      -0.8397673462833285,
      0.78070973863141,
      -1.0869908620549227,
      -0.8091247950372809,
      -0.4241678138890148,
      -0.5241265536232236,
      -0.5046827237138239,
      -0.5619342043721638,
      -0.598450583381901,
      0.28114517371050174,
      -4.706161865533255,
      -0.5046435605939431,
      -0.0035014049309552847
    ],
    [
      -0.7247296927617204,
      1.1706615290191071,
      0.34675830517370493,
      -0.4655683008327132,
      -1.1614639654748034,
      -0.47921871281829165,
      0.7675994202819072,
      1.2849192200437387,
      -1.0389040203941649,
      1.3360416633770853,
      -1.2538544070191515,
      -1.2168528034089583,
      -0.5174095353834905,
      -0.729043292479115,
      -0.47675806895261624,
      -0.4416056714358185,
      -0.41164150735737615,
      1.2943982941393726,
      -0.5948649389482754,
      -0.48855814252564117,
      1.1706615290200149
    ],
    [
      -0.8041409188320949,
      2.089348469872968,
      0.3495958009066943,
      -0.5359304419274512,
      -1.4774850883218364,
      -0.5597312218668228,
      0.8404642969063726,
      1.6702458391157524,
      -1.2315841978171376,
      1.7841798331241188,
      -1.6618134406469551,
      -1.620154648039599,
      -0.6054240454780744,
      -0.8183941416041999,
      -0.5570742178253413,
      -0.5147213388685891,
      -0.4783583015206576,
      2.1465729232074557,
      0.10006987765181174,
      -0.578134727343477,
      2.089348469873254
    ],
    [
      0.4414760956304376,
      -0.5849024057751795,
      -0.5602661536535556,
      -0.7753349128525507,
      1.048233205085601,
      -0.7690861827153914,
      -0.1514514495907729,
      -0.8831150010951214,
      0.9857125341559028,
      -1.0109835424986144,
      1.0777637350651725,
      1.0027997642746513,
      -0.7788914960777475,
      0.44246823048288475,
      -0.7695691684940554,
      -0.7504451869458475,
      -0.7252836163289097,
      -0.7163695446273458,
      0.16296089966700433,
      -0.7636711571010313,
      -0.5849024057751979
    ],
    [
      -0.1777107900745159,
      -0.5707733707177698,
      -0.20985563394063564,
      -1.5053619981059454,
      0.5530269576459301,
      -1.5005946017214973,
      0.9785926712596597,
      -0.32958192886825294,
      0.4866272376552217,
      -0.7175439123730818,
      0.8854509008998492,
      0.5739125466716715,
      -1.837730125876976,
      -0.1699389788351877,
      -1.5002245670546563,
      -1.2512417648757344,
      -1.0655977437325783,
      -0.6344796397379501,
      0.6853704315756246,
      -1.4944760662842769,
      -0.5707733707177766
    ],
    [
      -0.36783803574102586,
      -0.28998822016528536,
      -0.7860753915423285,
      -1.2310506661786884,
      -0.34601325325579446,
      -1.2268589728411015,
      -0.23036972453591031,
      0.14440196730706772,
      -0.4276930375030484,
      0.21841312801327656,
      -0.37610922045451156,
      -0.27319763172066214,
      -1.3213225269098459,
      -0.3774146073809703,
      -1.2282227312034173,
      -1.1294017567201817,
      -1.0325358466017323,
      -0.1685944069282778,
      0.12551739865758535,
      -1.2252984497170236,
      -0.2899882201654365
    ],
    [
      -0.5772447006513595,
      -0.043016037107432986,
      -0.14198481264402057,
      -0.4247782121250936,
      -0.6383836244570733,
      -0.42610552747536007,
      0.2978478593224767,
      0.6002902897753475,
      -0.686510026017367,
      0.615990288713978,
      -0.6810571818235744,
      -0.5795609721774161,
      -0.4000994205925564,
      -0.5809910960848809,
      -0.4247623229198765,
      -0.4413561236312686,
      -0.452237599450026,
      0.13392104626978668,
      0.40327379846574574,
      -0.4243266902791189,
      -0.04301603710675831
    ],
    [
      -0.6776760684645323,
      0.1554045138542155,
      0.6546123093852932,
      -0.3901085803732348,
      -0.7879647363771709,
      -0.39549258750138006,
      1.2417794692604802,
      1.010710389461503,
      -0.8145317977161233,
      0.84318957706038,
      -0.691821752001839,
      -0.7461837404360474,
      -0.4616982338603872,
      -0.6697958285914137,
      -0.391539776610383,
      -0.3334524771897855,
      -0.2870547240147469,
      0.343981898641597,
      -0.12521010840480964,
      -0.3931070539346553,
      0.1554045138545804
    ],
    [
      -0.8059987066534655,
      1.979887308829696,
      1.1710140433022835,
      0.6399811722298305,
      -1.459127555040713,
      0.6163735109914594,
      0.989549784677155,
      1.6809268468997876,
      -1.227369642608845,
      1.7535409292348074,
      -1.6002496999775173,
      -1.5970716082888017,
      0.6316800422008014,
      -0.8147724399270198,
      0.620386617595437,
      0.6002576958783087,
      0.5734025117616361,
      2.0802580799387798,
      -0.3877840604658769,
      0.6004275242181631,
      1.9798873088317672
    ],
    [
      -0.2255255353619386,
      -0.5519119538349407,
      -0.11485988724069612,
      -0.7068221152381515,
      0.2554077948093822,
      -0.7033160308933224,
      0.4952655814361845,
      -0.25493293867346006,
      0.1814477803118837,
      -0.4906327183263482,
      0.5480111345888503,
      0.31117408660476564,
      -0.7627001189824524,
      -0.2343494460650158,
      -0.701987392084731,
      -0.6457885943167201,
      -0.5970606993418434,
      -0.5579150773194481,
      0.7078490604143883,
      -0.6964236047531154,
      -0.5519119538349458
    ],
    [
      -0.1459172718299986,
      -0.49724504295804134,
      -1.0742282165656691,
      -1.092056741952319,
      -0.24845407061012348,
      -1.0861657789539139,
      -1.3701547137287524,
      -0.4001756964515234,
      -0.3021937278268454,
      -0.07713965744976346,
      -0.2756027750543665,
      -0.1539389347900641,
      -1.0802224725347254,
      -0.21442559045702994,
      -1.090475588382518,
      -1.0679883687698832,
      -1.0238693487605828,
      -0.3795249808867109,
      3.3189075558661276,
      -1.0854596152444518,
      -0.4972450429577482
    ],
    [
      -0.16369410930034134,
      -0.505878466758342,
      -0.7832825416673859,
      -0.6403014539829911,
      -0.13614736766579388,
      -0.6332691906389311,
      -0.7692932762317956,
      -0.28174552937793107,
      -0.19394123068832336,
      -0.15429275715831822,
      -0.0999661103651896,
      -0.048971906403707036,
      -0.5799031552550938,
      -0.1843805431408965,
      -0.6354372067220133,
      -0.6652766403958771,
      -0.6755184218742754,
      -0.41807545694841064,
      0.22837879327273938,
      -0.6303343326333233,
      -0.5058784667583812
    ],
    [
      -0.06325671882417998,
      -0.5513260377887448,
      -0.21954856417954408,
      0.1853357370067867,
      0.2950775486107331,
      0.1904248486351164,
      -0.18278007993879403,
      -0.4339214183630814,
      0.21405573865402383,
      -0.5031321133331828,
      0.44471961830492557,
      0.34336981498179875,
      0.2824097392305952,
      -0.11155417561625366,
      0.19044946038400687,
      0.10469949418170435,
      0.027039896302108925,
      -0.5615826235718298,
      0.37485471853347685,
      0.19600891878603308,
      -0.5513260377888184
    ],
    [
      -0.5333820322419041,
      -0.023166341075634877,
      0.7015244451983279,
      0.41883874160004947,
      -0.3244610926466412,
      0.41568416764213334,
      0.8523101313928064,
      0.5857336340575202,
      -0.47264228923938084,
      0.44132005695328413,
      -0.3555753751421882,
      -0.28483624904112864,
      0.44658656775254696,
      -0.5177334220608995,
      0.41925838204724086,
      0.38941875637904655,
      0.3575836754778865,
      0.04293461194213882,
      -0.22010763473540723,
      0.4194913756068989,
      -0.023166341074495896
    ],
    [
      -0.8209689173108821,
      2.7536943151328392,
      3.380526561013428,
      1.7196216372298911,
      -1.4663526531725388,
      1.6856361339467971,
      1.7395748406667033,
      1.9026267733796052,
      -1.232934550850468,
      1.8091430082057305,
      -1.4615442305995245,
      -1.609366585475006,
      1.551410719994897,
      -0.8287097960769229,
      1.6920065911531164,
      1.8235426675091095,
      1.948923698790496,
      2.227671587231521,
      -0.10044391434458941,
      1.664239767038321,
      2.7536943151345743
    ],
    [
      -0.04702066902333699,
      -0.5407293587966875,
      -0.8200440685670539,
      -0.9940954936800313,
      0.1489095325535802,
      -0.987231097192106,
      -0.47801665927350845,
      -0.4101920795539795,
      0.06387999314586677,
      -0.3877528715794396,
      0.2476005279692173,
      0.214055730023534,
      -1.0104560749427018,
      -0.037821595044373504,
      -0.9888562274247199,
      -0.9483488880961224,
      -0.8977798836796093,
      -0.5226612537956529,
      0.22203052662439335,
      -0.9834031527605797,
      -0.540729358796679
    ],
    [
      -0.08701665159511962,
      -0.5415356940068734,
      -0.5883019948269188,
      -0.40280527266278693,
      0.12540009386198073,
      -0.3967209530698933,
      -0.39542890072697406,
      -0.3852019629659885,
      0.05143424855973724,
      -0.38669117212273907,
      0.2575870521502919,
      0.19471564506002087,
      -0.332324876271177,
      -0.07111809726561727,
      -0.3975590743625256,
      -0.44426847599224717,
      -0.47555231592466257,
      -0.5208103104299757,
      0.21289718825676532,
      -0.3920972353806225,
      -0.541535694006916
    ],
    [
      -0.24243103353338127,
      -0.5506310530520333,
      0.08833462470204859,
      -0.2159426381749481,
      0.2610253643681993,
      -0.2132859277169288,
      0.5649626819948049,
      -0.2336604849392055,
      0.17071888598950707,
      -0.47920671151268096,
      0.5561321545798444,
      0.3148777237835465,
      -0.23317781999232723,
      -0.224444285072104,
      -0.2113563621208018,
      -0.18707669364048404,
      -0.16378273740161295,
      -0.555741326534198,
      0.8582069977545591,
      -0.2058059044642373,
      -0.5506310530520986
    ],
    [
      -0.11461915911896178,
      -0.5191948291056925,
      -0.501790447623661,
      0.5145576494982541,
      -0.03688316070930133,
      0.5221414672094459,
      -0.7819581465724496,
      -0.351795966256022,
      -0.11935344636587888,
      -0.22319848023632297,
      -0.005261466988277473,
      0.04196923961863135,
      0.6431108104776235,
      -0.11844411324751902,
      0.5198817623705315,
      0.39715488607543536,
      0.2812662269962846,
      -0.45350862399120995,
      -0.04793602993296691,
      0.5251172010154799,
      -0.5191948291058659
    ],
    [
      -0.4318542898900087,
      -0.49197937679492115,
      1.666098296185664,
      1.344412677901976,
      0.014263536739065275,
      1.3455527932458677,
      1.0988614263674255,
      0.13758551053264856,
      -0.10483552606521893,
      -0.17936441368556544,
      0.33785712828610465,
      0.07437181785475205,
      1.3021199477615306,
      -0.43699398885272056,
      1.349767973318654,
      1.3884878700140049,
      1.4181456691408922,
      -0.41941252603014956,
      -0.24855214744732254,
      1.3547216179252457,
      -0.4919793767948817
    ],
    [
      -0.5720045050060377,
      -0.007134263809664063,
      3.2468550302749946,
      1.8680536289556884,
      -0.23144033167163075,
      1.8627718015503991,
      1.6556544403816038,
      0.6771136550398821,
      -0.35834432937698235,
      0.3136514497318427,
      -0.06414495794094038,
      -0.20084095020093495,
      1.6968842319996171,
      -0.5277606606741695,
      1.868580191371986,
      2.031242364865963,
      2.1860864776112563,
      -0.010753390320996708,
      -0.366419049988126,
      1.868641388790847,
      -0.007134263810279949
    ],
    [
      1.9752875056314616,
      -0.5950185719356197,
      -1.1340706290346818,
      -1.124883111143196,
      1.7295106724282885,
      -1.1145936675125072,
      -1.3419600101768567,
      -1.5512806724614001,
      1.788654264361512,
      -1.4032173744047267,
      1.4556891849394717,
      1.5984495804643752,
      -1.1300199621174445,
      1.934033320826686,
      -1.1190035218172016,
      -1.0795864730677656,
      -1.0228727720109896,
      -0.7997229156265838,
      0.14487234880781402,
      -1.1130024986729552,
      -0.595018571935647
    ],
    [
      0.36258271651514434,
      -0.5324443711898535,
      -1.1410438973028905,
      -0.4761758550676047,
      0.05811587487817874,
      -0.464844902019858,
      -2.01096262232585,
      -0.7370416555896151,
      -0.011498107748036219,
      -0.32801799301789913,
      -0.17602829146849003,
      0.13232861866402018,
      -0.3472177533543819,
      0.369556690210803,
      -0.4710825392215092,
      -0.5616481144439048,
      -0.6210386131400291,
      -0.49524986997045034,
      0.2567278050481864,
      -0.46571044006619566,
      -0.5324443711899397
    ],
    [
      -0.06474011541014124,
      -0.5126549583089416,
      -0.6605638371302932,
      0.007393662683071428,
      -0.03624741979858208,
      0.01451434000231528,
      -0.8343014182101555,
      -0.36404939494464833,
      -0.09796716518853368,
      -0.2324361180875428,
      -0.016115430014988927,
      0.04046078979074241,
      0.13153658681028035,
      -0.06366061017433557,
      0.012274110945220233,
      -0.09434296202174097,
      -0.18538237397216084,
      -0.446072270994302,
      0.2524276238552994,
      0.01744509430774561,
      -0.5126549583089699
    ],
    [
      -0.3659878784082832,
      -0.5007714503193625,
      0.3147967453714121,
      0.770565909473154,
      -0.15363805033271724,
      0.7747574852333207,
      0.21600047757250398,
      -0.021645340162633486,
      -0.21539866223086662,
      -0.13059901422307182,
      0.08841681552947421,
      -0.06693489312166438,
      0.831388712339289,
      -0.34950063884621574,
      0.7759960300877129,
      0.7083824929870921,
      0.6315122306915576,
      -0.4063340786278047,
      -0.3196814953161119,
      0.7810430261370538,
      -0.500771450319269
    ],
    [
      0.1439351367179041,
      -0.553346753804016,
      -0.302110279859687,
      1.296278206616091,
      0.36386659921388337,
      1.3050197811015616,
      -0.9092117988601967,
      -0.6584517279284393,
      0.2726005240604287,
      -0.543306710924482,
      0.3610228366354384,
      0.40278935921726206,
      1.3904348349585185,
      0.05384530168502801,
      1.3015354744421368,
      1.184954638215635,
      1.0509572081208591,
      -0.573475326583353,
      0.21664898055824472,
      1.3071117550240707,
      -0.5533467538040677
    ],
    [
      0.8435556099314814,
      -0.5947235081821958,
      1.1298970884393689,
      1.7917273797478694,
      1.842906915392332,
      1.7960492902071774,
      0.6376565124546035,
      -1.1051512802687933,
      1.911307339342763,
      -1.4316528147106498,
      1.7748367936125726,
      1.7177602425617113,
      1.7301530872660416,
      0.8399122971089102,
      1.7981046224505641,
      1.8559129785172095,
      1.9065194827797454,
      -0.8051323732438491,
      -0.29595950567543383,
      1.8040919640863433,
      -0.5947235081822191
    ],
    [
      3.652581020907599,
      -0.5986461444241413,
      -1.0015370848703515,
      -0.24208816000846448,
      2.363350887565464,
      -0.22695899209761647,
      -1.8159567336093432,
      -2.003345968408148,
      2.597136523849866,
      -1.6884970900495062,
      1.9639557460105501,
      2.2052439321467054,
      -0.11631140367109813,
      4.544977701005006,
      -0.23272657106267847,
      -0.32580522471236584,
      -0.3960791120904509,
      -0.8530304194072529,
      -3.1327909314337075,
      -0.2266881053880466,
      -0.5986461444241788
    ],
    [
      3.5562318561564465,
      -0.5999727327031703,
      -0.8489247295544797,
      -0.6316882894149213,
      2.635242749073475,
      -0.6220308454575247,
      -1.2750636339267298,
      -1.9867759956310065,
      3.081808185250515,
      -1.8515891956289514,
      2.2333047821671483,
      2.4749803219300976,
      -0.5593104612280795,
      2.9591218086645705,
      -0.6259657061101953,
      -0.669089058145974,
      -0.6918740827485097,
      -0.8747537849631755,
      0.3324686573302794,
      -0.6199140635658449,
      -0.5999727327031957
    ],
    [
      0.7231706519532448,
      -0.5812393036227473,
      -0.8075117246390423,
      -0.07545147569642448,
      0.8652324786769778,
      -0.0667032304552667,
      -1.0243766892650856,
      -1.0051767364668303,
      0.8210840041260914,
      -0.921017602985858,
      0.8087411225059877,
      0.8425331714780112,
      0.04536550072618191,
      1.1325886618963044,
      -0.06964575599186039,
      -0.1665983604385063,
      -0.24490768425742115,
      -0.6913343112057168,
      0.055749711564313256,
      -0.06378330103491503,
      -0.581239303622767
    ],
    [
      0.7222428194113446,
      -0.5643749206198384,
      -1.0070061600040425,
      0.5292342912407092,
      0.4025776802121942,
      0.5424115780742055,
      -2.255893392980119,
      -1.04281542869003,
      0.33414092066700407,
      -0.6221958069322546,
      0.14359219573465404,
      0.44458467808266977,
      0.706499211921844,
      0.622934944382917,
      0.5345174430043648,
      0.36114048799856746,
      0.1979245384555505,
      -0.6025718387645018,
      0.34895197152104945,
      0.5402096473841692,
      -0.5643749206198454
    ],
    [
      0.39993414599652916,
      -0.5591532773742283,
      -0.05892529123423425,
      2.5914755403593994,
      0.4918409273392352,
      2.603557446172637,
      -1.088705473128194,
      -0.7551253445430713,
      0.348874903791193,
      -0.5897052896753701,
      0.3995554352170359,
      0.5162668258102489,
      2.5191300108533894,
      0.5756172146342947,
      2.5972015529605175,
      2.621251461887501,
      2.5970437031652676,
      -0.6017410948992963,
      -0.11778308476619216,
      2.6028275658611966,
      -0.559153277374243
    ],
    [
      0.039970823015824705,
      -0.5251698957866077,
      0.2535728900626642,
      4.068840549501418,
      0.13173436221424978,
      4.08355813846979,
      -0.9491280264056137,
      -0.45166177500662735,
      -0.009178064193697025,
      -0.29181037820931544,
      0.03955363231770141,
      0.19009322975462964,
      3.688533143272617,
      0.1040889308517217,
      4.0746832634301215,
      4.4176451314873,
      4.710945583754373,
      -0.4922468367188388,
      -0.4216661930895373,
      4.079953329953035,
      -0.5251698957864935
    ]
  ],
  "sample_order": [],
  "config": {
    "grid": [
      6,
      6
    ],
    "dim": 21,
    "learning_rate": 0.4,
    "sigma": 3,
    "num_epochs": 140,
    "num_samples": 177
  }
}