{
  "seed": 42,
  "initial_weights": [
    [
      -0.1401439012848382,
      -0.5199425519116283,
      -0.7481817139296671,
      -0.6136571290548547,
      -0.06715668669884961,
      -0.6071229266098273,
      -0.5494883679518945,
      -0.2914328698000752,
      -0.12501878160594485,
      -0.23050103410642814,
      0.037594408463503065,
      0.01801077022617622,
      -0.5621245118157854,
      -0.11218286961685639,
      -0.6086145293352554,
      -0.6321194695053116,
      -0.6383109931833225,
      -0.452907267798841,
      0.20979640784975376,
      -0.6033702292624398,
      -0.5199425519117128
    ],
    [
      0.42123730471456244,
      -0.5408058418845425,
      -1.1268471056664426,
      -0.48797606589446385,
      0.15263746887312432,
      -0.47701244551039856,
      -1.909181545169329,
      -0.7793298332940691,
      0.08437564617742538,
      -0.4086030523807771,
      -0.04799912304587253,
      0.21788677729168332,
      -0.37169961201377705,
      0.42978333241243843,
      -0.48299079525484145,
      -0.563005608235178,
      -0.61455860947929,
      -0.5243180515116155,
      0.43840932176236,
      -0.4775347332078059,
      -0.5408058418845687
    ],
    [
      -0.22476525985381238,
      -0.5804870449507246,
      1.8703175541100052,
      -0.24124126139068464,
      0.8816567889809023,
      -0.23946746327757046,
      1.8316249203040025,
      -0.29591169958601893,
      0.8108497250139907,
      -0.9037113998208463,
      1.230180492202509,
      0.8563179352682844,
      -0.4341795409161761,
      -0.2558603433784574,
      -0.23444594016859294,
      -0.07034223739689155,
      0.0607364872920585,
      -0.690828907953976,
      -0.862121578511398,
      -0.22859953490409216,
      -0.5804870449507546
    ],
    [
      3.3514666037583516,
      -0.5979851778240811,
      -1.1455503467956676,
      -0.7218299179847641,
      2.193420239618684,
      -0.7048830731315677,
      -1.967460944753083,
      -1.9752596756339393,
      2.3330136352855537,
      -1.6139841526833543,
      1.814253538513443,
      2.0338298828009562,
      -0.6209013280333724,
      4.07828072091287,
      -0.710972675470579,
      -0.7636315417921893,
      -0.7856280729181638,
      -0.8401955010379573,
      -4.708108702870901,
      -0.704940134934253,
      -0.5979851778241166
    ],
    [
      4.043640250227568,
      -0.5996192301940542,
      -1.0540231922282701,
      -0.6319440060914301,
      2.545605366110549,
      -0.6214568770484311,
      -1.7061244730254004,
      -2.0579079533889453,
      2.8989597204608515,
      -1.8024070568837833,
      2.1227417925477368,
      2.3831565056822694,
      -0.5486206589530466,
      3.9710305796024747,
      -0.6268103709754256,
      -0.6747403713019747,
      -0.6975323299585378,
      -0.8680276407501885,
      0.9182647607901455,
      -0.6207619600610436,
      -0.5996192301940805
    ],
    [
      -0.44845436782935766,
      -0.10187172225999104,
      -0.673759163480883,
      -1.3937465857836857,
      -0.3479262053761124,
      -1.3925011583220077,
      0.18742905756088232,
      0.3610936048452849,
      -0.4606393449279011,
      0.3673243189312191,
      -0.41972214353585174,
      -0.29333250001132405,
      -1.552955051743713,
      -0.44470533709967597,
      -1.3930334993723854,
      -1.2450173993476568,
      -1.1126269166737472,
      -0.02218478525774064,
      0.3333823291929709,
      -1.3920068464004023,
      -0.10187172226054454
    ],
    [
      -0.23934332072807865,
      -0.5489298558711704,
      0.00017861640492068676,
      -0.5657066672939549,
      0.25288601274148553,
      -0.5624350624406944,
      0.5756987186197602,
      -0.22706703417628582,
      0.17144559482401622,
      -0.4751715271170899,
      0.5524160054596411,
      0.3071802022640039,
      -0.613206541793457,
      -0.2242797423429147,
      -0.5607607247777341,
      -0.5130950491284607,
      -0.4722600748776378,
      -0.5520473300278322,
      0.5240496061679473,
      -0.5552272011918328,
      -0.5489298558712198
    ],
    [
      1.2197943005680454,
      -0.5936732264564363,
      -0.4720234108080845,
      -0.30800600926242205,
      1.689279564740148,
      -0.30126198876410165,
      -0.35751068144196874,
      -1.2810123483060127,
      1.7331330553725297,
      -1.3622211230755483,
      1.5532168839887472,
      1.569941802886254,
      -0.24105700611308145,
      1.0636996765669617,
      -0.3020375497294173,
      -0.34746041411938167,
      -0.37995921906724417,
      -0.7915682223522831,
      0.0267621343874202,
      -0.2960505774136962,
      -0.5936732264564627
    ],
    [
      2.452422396779698,
      -0.5982326080982642,
      -0.8457047447936428,
      -0.7517739555668486,
      2.248670436061385,
      -0.7433988571326633,
      -0.7112260655997849,
      -1.6647713954186663,
      2.4917208087719356,
      -1.667071152245582,
      1.959806965266327,
      2.0904313425816974,
      -0.7314640512079276,
      2.6056088586609265,
      -0.7456684471067183,
      -0.7397493371368294,
      -0.7209580135233886,
      -0.844520849708781,
      -0.041997256383387506,
      -0.7396354689777165,
      -0.5982326080982916
    ],
    [
      4.662077234557761,
      -0.6002545653314474,
      -0.7280879985970865,
      0.9362576804692756,
      2.7476644706933424,
      0.9487864787764909,
      -1.7106752315240599,
      -2.13733646000465,
      3.3586144803575446,
      -1.905296396901708,
      2.3201681894486774,
      2.59440651994683,
      1.0664996823588393,
      4.3567940365533815,
      0.9423815918789408,
      0.802878554232654,
      0.658766461927663,
      -0.8824787840506023,
      -0.07800852849094592,
      0.9484328315210352,
      -0.600254565331477
    ],
    [
      -0.019777373537354544,
      -0.5703189241745578,
      0.25751728110181615,
      0.31103930208770647,
      0.6382110647991391,
      0.31484179796450323,
      0.39204630598702406,
      -0.49919607208749095,
      0.5453771471141642,
      -0.7375728862406724,
      0.8276928716281835,
      0.6460076490236119,
      0.361741729953281,
      0.005902762963382269,
      0.31671684269461786,
      0.2702742128635321,
      0.2233730156152628,
      -0.6419356927971844,
      0.02372368441980155,
      0.3224660192386318,
      -0.5703189241746309
    ],
    [
      -0.17465510573564985,
      -0.5333026961767244,
      -0.31009162380432964,
      -0.007930853665082255,
      0.07005144320123773,
      -0.002633807522060924,
      -0.23587295523286442,
      -0.30059358521188523,
      -0.002530273929922451,
      -0.3342376384464968,
      0.22868918547578004,
      0.14262908129611035,
      0.07548130032873572,
      -0.20386117531689976,
      -0.002879113523865537,
      -0.07285219511650846,
      -0.13440836157528765,
      -0.4974263918024822,
      0.2723668667631631,
      0.002498881532420033,
      -0.5333026961768498
    ],
    [
      0.19739710101249774,
      -0.5663137087595639,
      -0.7566307417695398,
      -0.8967939017500524,
      0.5405814523585011,
      -0.8896522239150634,
      -0.4921584972209315,
      -0.6758234250021364,
      0.4726901104988844,
      -0.6934000643544632,
      0.6118015385496149,
      0.5620486016482426,
      -0.9002419978963907,
      0.15486644489844958,
      -0.8912751083264715,
      -0.8657869249060162,
      -0.8305508184710072,
      -0.6208930480481368,
      0.21142763216608218,
      -0.8855640839776131,
      -0.566313708759564
    ],
    [
      0.22710184633043157,
      -0.566638340323004,
      -0.20606187822131533,
      1.1526595514752296,
      0.5709841522780134,
      1.1605255790836195,
      -0.6779454053913126,
      -0.7316219001792874,
      0.4691687530224445,
      -0.690876101302438,
      0.5964758493177841,
      0.5876390033828967,
      1.2413717204985022,
      0.26986982491663913,
      1.158077547120447,
      1.0525371673567683,
      0.9332801400011088,
      -0.6275322669901731,
      0.20727368303086732,
      1.1637880951295958,
      -0.5666383403230336
    ],
    [
      1.5679089725500983,
      -0.5969015241205894,
      0.34318726925038223,
      1.8534154767705282,
      2.0233199179439114,
      1.861571883274652,
      -0.3698329798922698,
      -1.4472597047767033,
      2.0904852482047995,
      -1.5208510374952715,
      1.7838018996853882,
      1.874156636518502,
      1.8577584617707013,
      1.3980962609255116,
      1.8595048208235,
      1.8256501988986416,
      1.7631952032449616,
      -0.8254009477068269,
      -0.056093082630303576,
      1.8655158148117936,
      -0.5969015241206225
    ],
    [
      -0.6892562641110516,
      0.22073286183463933,
      0.5321139627223077,
      -0.49516263434704727,
      -0.840522314568414,
      -0.5011406689369814,
      1.1899390010879107,
      1.0575779219495682,
      -0.8566343156358001,
      0.9167075028862626,
      -0.7776128874396496,
      -0.8064497983654942,
      -0.5737093217570289,
      -0.6820247557469866,
      -0.4974642650225037,
      -0.4351129176781298,
      -0.3852647976663305,
      0.4211199257330168,
      0.08774665330147394,
      -0.499689903192111,
      0.2207328618349389
    ],
    [
      -0.5551303657479908,
      -0.043938617154519174,
      -0.11284065023288656,
      -0.43863754900982144,
      -0.5526250935771463,
      -0.43997919759608567,
      0.37377620981067505,
      0.5667649669496624,
      -0.6232347629155147,
      0.5527997353469908,
      -0.5934063428963724,
      -0.4950710348911119,
      -0.4225340856198888,
      -0.5571000355669482,
      -0.43843316913007696,
      -0.4468554092205263,
      -0.4504960569417371,
      0.09690619755536224,
      0.215365571512345,
      -0.43798844425117806,
      -0.043938617154493764
    ],
    [
      -0.46447186029171766,
      -0.19182853875684663,
      0.2993072341504168,
      0.4730368452101678,
      -0.3219633234066104,
      0.4736909658764363,
      0.3446608189040517,
      0.3333247734398499,
      -0.42573439984062506,
      0.2810517832786638,
      -0.3053676447516947,
      -0.26386472632743274,
      0.5343433656693866,
      -0.44992900732390373,
      0.4754901981647365,
      0.41182396760556095,
      0.3462154290831774,
      -0.09348689368907348,
      -0.471789952690474,
      0.47742404976604536,
      -0.19182853875675307
    ],
    [
      -0.11954944300141247,
      -0.5681547164856525,
      1.7664578099649968,
      1.5063253797739447,
      0.717795868386792,
      1.5088470873652386,
      1.0796221020819987,
      -0.3616020757552723,
      0.6162451554342987,
      -0.7593073824574221,
      0.9765661898616771,
      0.712349851063137,
      1.433494461723043,
      -0.09615428979213747,
      1.512777002754393,
      1.5861683149538577,
      1.6541890565057382,
      -0.6443617042396828,
      -0.5403647928325263,
      1.5184970931291282,
      -0.5681547164856732
    ],
    [
      -0.27289076081114433,
      -0.2749351077850902,
      0.37020604754176456,
      1.9459273724119848,
      -0.11613752978561717,
      1.949907484420602,
      -0.23169926730438306,
      -0.005712688024625712,
      -0.2399212434109678,
      0.04852816938016129,
      -0.16390373825381654,
      -0.06149194342207234,
      1.9425833368786072,
      -0.26043049708334787,
      1.9485357603361737,
      1.9182804686069885,
      1.859546200156406,
      -0.23903422396867124,
      0.0825432262051523,
      1.9513008998766113,
      -0.27493510778490643
    ],
    [
      -0.6601499946495146,
      1.1801181166332462,
      -0.4206725138260715,
      -0.5654792868635354,
      -1.1658403228158167,
      -0.5702502067187691,
      -0.36734754142088377,
      0.9364159790572929,
      -1.0420331596490315,
      1.324047620976481,
      -1.4182608981940732,
      -1.217273830161814,
      -0.5256266200212552,
      -0.6552598618305228,
      -0.5711117070684313,
      -0.5993533019523292,
      -0.6134176105257364,
      1.280711989391795,
      -6.465244600362874,
      -0.5830043527566113,
      1.180118116636851
    ],
    [
      -0.8060431207693214,
      2.104028138954809,
      0.5027442840224057,
      -0.3599617884562939,
      -1.4764694253772783,
      -0.38443879054717545,
      0.9120646533660213,
      1.6885969662929916,
      -1.2322237850651399,
      1.7850264943956669,
      -1.64771160140884,
      -1.6195696283116554,
      -0.42080702328129593,
      -0.8186442287857271,
      -0.3814273264381798,
      -0.35185943369577144,
      -0.3304392574491939,
      2.1554798625015206,
      0.23944149384985103,
      -0.40263609962256247,
      2.1040281389540376
    ],
    [
      -0.8112340133101297,
      2.228286496350899,
      1.9964074454823997,
      1.209359963894777,
      -1.4662461638562745,
      1.1825920059284383,
      1.228823435469312,
      1.7608379883986136,
      -1.2300846079411374,
      1.7816843223917902,
      -1.568170728553898,
      -1.6063787004724517,
      1.1243516993608855,
      -0.8210583743978924,
      1.1871735633694922,
      1.2381921304166186,
      1.2794650590591174,
      2.1407462633938397,
      -0.25995567318838997,
      1.1647066992400645,
      2.228286496350461
    ],
    [
      -0.6306542545240578,
      -0.0012159817750280327,
      2.3891843188213437,
      1.6155279817929167,
      -0.522821960147071,
      1.6107062663408689,
      1.456781097227122,
      0.8168066872646862,
      -0.6235409610225401,
      0.54280353777014,
      -0.33324075919720875,
      -0.4710828888427634,
      1.509670023712616,
      -0.6126186760909259,
      1.616092711087069,
      1.7181404988672964,
      1.8173752249801678,
      0.08572930273985185,
      -0.43985688742376466,
      1.616096900034195,
      -0.0012159817743900847
    ],
    [
      0.4064075422169584,
      -0.5671485332875149,
      0.35996792240774456,
      3.3246888423502794,
      0.7023428149295671,
      3.3367193367388492,
      -0.7579116499652001,
      -0.7967884903858206,
      0.5758581014006173,
      -0.7285845071496985,
      0.6422485725607296,
      0.6996204091101046,
      3.088526337577367,
      0.6201525773519934,
      3.3304402754149085,
      3.5333756161576457,
      3.698685588029029,
      -0.6413726119859413,
      -0.07629137837221758,
      3.3361399237712175,
      -0.5671485332875245
    ]
  ],
  "sample_order": [],
  "config": {
    "grid": [
      5,
      5
    ],
    "dim": 21,
    "learning_rate": 0.4,
    "sigma": 3,
    "num_epochs": 140,
    "num_samples": 300
  }
}