{
  "seed": 42,
  "initial_weights": [
    [
      -0.8059987066534655,
      1.979887308829696,
      1.1710140433022835,
      0.6399811722298305,
      -1.459127555040713,
      0.6163735109914594,
      0.989549784677155,
      1.6809268468997876,
      -1.227369642608845,
      1.7535409292348074,
      -1.6002496999775173,
      -1.5970716082888017,
      0.6316800422008014,
      -0.8147724399270198,
      0.620386617595437,
      0.6002576958783087,
      0.5734025117616361,
      2.0802580799387798,
      -0.3877840604658769,
      0.6004275242181631,
      1.9798873088317672
    ],
    [
      -0.8041409188320949,
      2.089348469872968,
      0.3495958009066943,
      -0.5359304419274512,
      -1.4774850883218364,
      -0.5597312218668228,
      0.8404642969063726,
      1.6702458391157524,
      -1.2315841978171376,
      1.7841798331241188,
      -1.6618134406469551,
      -1.620154648039599,
      -0.6054240454780744,
      -0.8183941416041999,
      -0.5570742178253413,
      -0.5147213388685891,
      -0.4783583015206576,
      2.1465729232074557,
      0.10006987765181174,
      -0.578134727343477,
      2.089348469873254
    ],
    [
      -0.5333820322445191,
      -0.02316634108039476,
      0.70152444519713,
      0.418838741599808,
      -0.3244610926455414,
      0.4156841676419167,
      0.8523101313989907,
      0.5857336340601375,
      -0.4726422892404439,
      0.44132005695464416,
      -0.3555753751428415,
      -0.28483624903966065,
      0.44658656775280886,
      -0.5177334220630584,
      0.41925838204705035,
      0.3894187563783713,
      0.35758367547667413,
      0.042934611939109295,
      -0.2201076347391268,
      0.4194913756067565,
      -0.023166341079255783
    ],
    [
      -0.6452978015647944,
      0.09444154152728369,
      0.4047274164062761,
      -0.37865375154703074,
      -0.7393503838905378,
      -0.38277536821556873,
      0.9188273169706502,
      0.8765838337278203,
      -0.773651510902816,
      0.7727793289466999,
      -0.696445361959832,
      -0.691963891086073,
      -0.4140772608414872,
      -0.6415759756093444,
      -0.3796813519202746,
      -0.3506452687964576,
      -0.3273737535675124,
      0.2782085261109386,
      0.07287957746783766,
      -0.38063313229977147,
      0.09444154152787873
    ],
    [
      1.9752875056314727,
      -0.59501857193562,
      -1.134070629034683,
      -1.1248831111431996,
      1.7295106724282994,
      -1.1145936675125105,
      -1.3419600101768567,
      -1.5512806724614066,
      1.7886542643615233,
      -1.403217374404734,
      1.4556891849394813,
      1.5984495804643843,
      -1.1300199621174485,
      1.9340333208266955,
      -1.1190035218172052,
      -1.0795864730677684,
      -1.0228727720109918,
      -0.7997229156265858,
      0.14487234880781624,
      -1.1130024986729588,
      -0.5950185719356473
    ],
    [
      3.6525810209110645,
      -0.5986461444241467,
      -1.0015370848702818,
      -0.24208816000581482,
      2.3633508875663085,
      -0.2269589920949469,
      -1.8159567336109907,
      -2.003345968409044,
      2.5971365238506694,
      -1.6884970900497962,
      1.963955746011167,
      2.205243932147497,
      -0.11631140366810226,
      4.54497770101397,
      -0.23272657106001418,
      -0.3258052247100531,
      -0.39607911208848223,
      -0.8530304194073265,
      -3.132790931447502,
      -0.2266881053853822,
      -0.5986461444241841
    ],
    [
      -0.8209689173108821,
      2.7536943151328392,
      3.380526561013428,
      1.7196216372298911,
      -1.4663526531725388,
      1.6856361339467971,
      1.7395748406667033,
      1.9026267733796054,
      -1.232934550850468,
      1.8091430082057305,
      -1.4615442305995245,
      -1.609366585475006,
      1.551410719994897,
      -0.8287097960769229,
      1.6920065911531166,
      1.8235426675091095,
      1.948923698790496,
      2.227671587231521,
      -0.1004439143445894,
      1.664239767038321,
      2.7536943151345743
    ],
    [
      -0.41237486587619365,
      -0.13908102697237906,
      1.9371177848126964,
      0.24185729851443663,
      0.22005430827351247,
      0.23887345195903684,
      1.6140180746381143,
      0.23125972552019522,
      0.16239494793398607,
      -0.20221394998606307,
      0.46666820765811945,
      0.20911598048195895,
      0.11082485600433961,
      -0.40775066656398873,
      0.24391103235823527,
      0.35296635910395197,
      0.4401421009652454,
      -0.17971431836347873,
      -0.6009736347315072,
      0.245308428027546,
      -0.13908102697243852
    ],
    [
      -0.22798759431370716,
      -0.5804926979165262,
      1.8933477901124656,
      -0.22146041668599128,
      0.8785101244916509,
      -0.21972942824616393,
      1.8358690920797458,
      -0.2941324207253002,
      0.8076143090089362,
      -0.9028474287143816,
      1.2297797384053217,
      0.8537296119657642,
      -0.41107123506163057,
      -0.26523177727150826,
      -0.21465058621754357,
      -0.0528924129118626,
      0.07667616492064333,
      -0.6905256528176041,
      -0.8713335160345553,
      -0.2088040910852089,
      -0.5804926979165567
    ],
    [
      -0.45944448252245323,
      -0.48012467226124267,
      0.25137233657851443,
      -0.7057647441439248,
      -0.1432705071986919,
      -0.702941800273247,
      0.9571448001391712,
      0.19573095475903923,
      -0.2357924255137488,
      -0.06849330541948628,
      0.18780042327832241,
      -0.06606108079350574,
      -0.8074006739796816,
      -0.4122250930912637,
      -0.7004176972097488,
      -0.6111224620816189,
      -0.5407882874852685,
      -0.37926504267087036,
      -0.5579172105273141,
      -0.6955788586721059,
      -0.4801246722613249
    ],
    [
      -0.17771079007451715,
      -0.5707733707177706,
      -0.20985563394063644,
      -1.505361998105951,
      0.5530269576459311,
      -1.500594601721503,
      0.9785926712596665,
      -0.32958192886825266,
      0.48662723765522287,
      -0.7175439123730837,
      0.8854509008998523,
      0.5739125466716726,
      -1.8377301258769838,
      -0.16993897883518866,
      -1.5002245670546621,
      -1.2512417648757386,
      -1.0655977437325816,
      -0.6344796397379513,
      0.6853704315756305,
      -1.4944760662842824,
      -0.5707733707177775
    ],
    [
      3.5562318561564625,
      -0.5999727327031705,
      -0.8489247295544784,
      -0.6316882894149227,
      2.635242749073487,
      -0.6220308454575263,
      -1.2750636339267267,
      -1.9867759956310127,
      3.0818081852505297,
      -1.8515891956289585,
      2.2333047821671594,
      2.4749803219301088,
      -0.5593104612280814,
      2.9591218086645807,
      -0.625965706110197,
      -0.6690890581459752,
      -0.6918740827485108,
      -0.8747537849631772,
      0.33246865733028375,
      -0.6199140635658466,
      -0.599972732703196
    ],
    [
      -0.4063754379706783,
      -0.5636334177599536,
      5.306923341551179,
      1.9389139372651787,
      0.5461430278055223,
      1.9384424179241604,
      2.2177588474339602,
      0.04115811288101085,
      0.4202766788658861,
      -0.6323518790490607,
      0.9825485062479384,
      0.5625408439952024,
      1.638749380719578,
      -0.3054782648667834,
      1.945653335042009,
      2.241128541933972,
      2.521106023719059,
      -0.6166457544116755,
      -0.8951369675589045,
      1.9513200081275202,
      -0.5636334177599981
    ],
    [
      0.22642979959437926,
      -0.5579487361024384,
      0.11706009469955143,
      2.6400712314371515,
      0.47072346338098275,
      2.6509785322442454,
      -0.8160065966645591,
      -0.6743500736623088,
      0.3310458359636357,
      -0.5769221188978433,
      0.4351272431933662,
      0.49735066965018576,
      2.5525793897485727,
      0.3578848875863738,
      2.645792076416421,
      2.687335635238747,
      2.6821857180108033,
      -0.5970110856474502,
      -0.11766303753099941,
      2.6514053641267155,
      -0.5579487361024692
    ],
    [
      -0.2575874261836907,
      -0.5138457798205642,
      -0.03308097454462302,
      0.5839348915085097,
      -0.0792320864609246,
      0.5894313058845312,
      -0.15004542995101644,
      -0.16796278889856073,
      -0.15310935878770002,
      -0.1931185396823952,
      0.08754629858788475,
      0.0029726261770171257,
      0.6708883714458562,
      -0.2509917361443888,
      0.5893934525999712,
      0.5045383010062336,
      0.41982850325844556,
      -0.4386345124517423,
      -0.2146551928146444,
      0.5945735650828969,
      -0.5138457798206371
    ],
    [
      -0.22638445741544955,
      -0.5465543549655089,
      0.027181136683338755,
      -0.23824437899069256,
      0.24590582912836517,
      -0.23533914661543365,
      0.5337210001008234,
      -0.22392352708653243,
      0.14998828430926664,
      -0.45295138648912814,
      0.5267315784137508,
      0.299904351380362,
      -0.2560254280728642,
      -0.17511427576099048,
      -0.2335288995651959,
      -0.206720515028751,
      -0.179932032589576,
      -0.5469534822292317,
      0.7053219327020956,
      -0.22801948569874347,
      -0.5465543549656221
    ],
    [
      -0.22745805770273095,
      -0.5514415431324785,
      -0.1179606912493503,
      -0.6875932455589157,
      0.24601786585377985,
      -0.6840557636183671,
      0.4766765192661013,
      -0.2541260726618733,
      0.173104090941823,
      -0.4848631567510541,
      0.5375257212015807,
      0.3029332456689404,
      -0.738429819449232,
      -0.24093320368890075,
      -0.6827512460233565,
      -0.6307361140525709,
      -0.5854113260999099,
      -0.5557910592254841,
      0.6984354056901004,
      -0.6771921167487214,
      -0.5514415431324866
    ],
    [
      -0.1459172706813046,
      -0.49724501443503416,
      -1.0742286488092587,
      -1.0920570980547615,
      -0.24845435250573358,
      -1.0861661348309586,
      -1.3701556258569227,
      -0.4001757595725104,
      -0.30219399724580326,
      -0.077139434767403,
      -0.27560319454221965,
      -0.1539391946034098,
      -1.0802228265329799,
      -0.214425653393879,
      -1.090475947120376,
      -1.0679887120236946,
      -1.0238696639546698,
      -0.3795248833898877,
      3.318909824066151,
      -1.0854599742685729,
      -0.497245014434741
    ],
    [
      -0.6338289460201039,
      0.19014064945786302,
      2.5749707978568215,
      1.8146803971520424,
      -0.511919974284341,
      1.8076247682490882,
      1.4861922630567912,
      0.9105009098109097,
      -0.6350317716953635,
      0.6493446769193288,
      -0.4305081745001153,
      -0.47626864244679323,
      1.6885420806965792,
      -0.6091691791592143,
      1.8130520338130869,
      1.9290408889174475,
      2.039367350313264,
      0.2058315651216908,
      -0.2132534347051363,
      1.8111261973600843,
      0.19014064945717046
    ],
    [
      -0.4318542898900117,
      -0.49197937679492226,
      1.666098296185675,
      1.3444126779019763,
      0.014263536739064275,
      1.345552793245868,
      1.0988614263674372,
      0.13758551053265178,
      -0.10483552606522004,
      -0.17936441368556508,
      0.3378571282861063,
      0.07437181785475121,
      1.3021199477615304,
      -0.43699398885272356,
      1.3497679733186547,
      1.3884878700140062,
      1.4181456691408945,
      -0.41941252603015006,
      -0.24855214744732498,
      1.354721617925246,
      -0.49197937679488274
    ],
    [
      -0.21504861820284252,
      -0.4909255426427734,
      -0.7392467482051389,
      -0.5496091824991264,
      -0.21501407887899243,
      -0.5431335234593148,
      -0.6810146669122403,
      -0.19475529337162542,
      -0.27002009739544214,
      -0.0735239465506539,
      -0.1753256418326529,
      -0.12464464917013056,
      -0.48055942808607055,
      -0.23249601462850908,
      -0.5449584500459019,
      -0.5849388597345461,
      -0.605413582845618,
      -0.38024672291837947,
      0.27616813781341665,
      -0.5400063318852257,
      -0.4909255426428264
    ],
    [
      -0.061476014389866156,
      -0.5394981166838376,
      -0.7621350953914655,
      -0.7392972053967697,
      0.10935993216062623,
      -0.7325330559127404,
      -0.5146661515800687,
      -0.401266057405087,
      0.035010111594646835,
      -0.37107221047260114,
      0.21522406340423517,
      0.17969330501364444,
      -0.7104460464850235,
      -0.031198729394300413,
      -0.734025273808171,
      -0.7358471106083464,
      -0.7229382143228944,
      -0.5143722172674834,
      0.18524868543003228,
      -0.7285841146501766,
      -0.5394981166838096
    ],
    [
      -0.16172696784717985,
      -0.5156812195181772,
      -0.5459605400615525,
      -0.16772250089234142,
      -0.030060916355447068,
      -0.1617375954077822,
      -0.49901364007007626,
      -0.28620900249226866,
      -0.09608493993930178,
      -0.23822944454800238,
      0.06034640824370624,
      0.04721207646663775,
      -0.06747469900308667,
      -0.18070628918858997,
      -0.16280517749087192,
      -0.24455143418202063,
      -0.3118831206815834,
      -0.45186214491470134,
      0.24952119871664588,
      -0.15760382674918105,
      -0.5156812195182369
    ],
    [
      -0.3678225366757625,
      -0.29001761996168485,
      -0.7860852575036689,
      -1.2310202438341484,
      -0.34599938370171324,
      -1.2268282357497062,
      -0.2304134391895947,
      0.1443637231938091,
      -0.42767644556399037,
      0.21837793667627803,
      -0.37608302717144,
      -0.2731812677510392,
      -1.3212816560206393,
      -0.3774027069894346,
      -1.228192060223348,
      -1.1293788877369713,
      -1.0325188262146838,
      -0.1686227900312958,
      0.12556511341235216,
      -1.2252674821882286,
      -0.290017619961836
    ],
    [
      0.03997068078946335,
      -0.5251698835677099,
      0.25357292615528204,
      4.068840984207621,
      0.13173417192498899,
      4.083558574204203,
      -0.9491280615902418,
      -0.45166165545549924,
      -0.0091782687901864,
      -0.2918102360360148,
      0.03955344525876255,
      0.19009305881118713,
      3.688533494528405,
      0.10408876552491227,
      4.074683698142789,
      4.417645650629973,
      4.710946185083796,
      -0.4922467912327435,
      -0.42166627907053994,
      4.0799537645388,
      -0.5251698835675958
    ],
    [
      1.299713149016954,
      -0.5695477597188728,
      -0.8467153254295154,
      2.390069713747163,
      0.6588977564938385,
      2.4079171520961906,
      -2.442800726729279,
      -1.2035382453673593,
      0.5061499084527981,
      -0.7020834578382337,
      0.28866770348960225,
      0.6646123760437533,
      2.385293274186871,
      1.6150271611501503,
      2.395678949466257,
      2.339233755790872,
      2.224989874213179,
      -0.6404510543517047,
      0.025296065879342786,
      2.401412298495595,
      -0.5695477597188328
    ],
    [
      0.14393514660041207,
      -0.553346754620651,
      -0.30211028564663883,
      1.2962782104139723,
      0.3638666071715992,
      1.3050197849825795,
      -0.9092118156036856,
      -0.6584517379848228,
      0.272600532354276,
      -0.5433067179983122,
      0.3610228416938307,
      0.4027893664627337,
      1.3904348389559424,
      0.05384531105192826,
      1.301535478248294,
      1.184954641562663,
      1.050957210784638,
      -0.5734753291943929,
      0.21664897973796912,
      1.3071117588384535,
      -0.5533467546207028
    ],
    [
      0.4414760956304376,
      -0.5849024057751795,
      -0.5602661536535556,
      -0.7753349128525507,
      1.048233205085601,
      -0.7690861827153914,
      -0.1514514495907729,
      -0.8831150010951214,
      0.9857125341559028,
      -1.0109835424986144,
      1.0777637350651725,
      1.0027997642746513,
      -0.7788914960777475,
      0.44246823048288475,
      -0.7695691684940554,
      -0.7504451869458475,
      -0.7252836163289097,
      -0.7163695446273458,
      0.16296089966700433,
      -0.7636711571010313,
      -0.5849024057751979
    ],
    [
      0.36258271651514434,
      -0.5324443711898535,
      -1.1410438973028905,
      -0.4761758550676047,
      0.05811587487817874,
      -0.464844902019858,
      -2.01096262232585,
      -0.7370416555896151,
      -0.011498107748036219,
      -0.32801799301789913,
      -0.17602829146849003,
      0.13232861866402018,
      -0.3472177533543819,
      0.369556690210803,
      -0.4710825392215092,
      -0.5616481144439048,
      -0.6210386131400291,
      -0.49524986997045034,
      0.2567278050481864,
      -0.46571044006619566,
      -0.5324443711899397
    ],
    [
      -0.5233001333833451,
      -0.00350140493078005,
      -0.7457935979741079,
      -0.5094727202735746,
      -0.855385567318908,
      -0.501954551788139,
      -0.9402464085990392,
      0.3786776742197688,
      -0.8397673462859081,
      0.7807097386347576,
      -1.0869908620603994,
      -0.8091247950405467,
      -0.4241678138880459,
      -0.5241265536233877,
      -0.5046827237135865,
      -0.5619342043724835,
      -0.5984505833826093,
      0.2811451737131324,
      -4.706161865565177,
      -0.5046435605937224,
      -0.003501404929293836
    ],
    [
      1.6333946755840965,
      -0.5985393506213725,
      0.7432168570739621,
      2.2725710162766752,
      2.3261349865435883,
      2.2786009559150395,
      0.17904200481927535,
      -1.4564118093429452,
      2.488880789759472,
      -1.6616499507293856,
      2.0708483730065765,
      2.1695141657844577,
      2.175218833734197,
      1.8496203513319138,
      2.278288847426132,
      2.3674534035597756,
      2.448324426702506,
      -0.8503639812782562,
      0.2006710857167469,
      2.284312156111844,
      -0.5985393506213904
    ],
    [
      0.46543084177073557,
      -0.5928346989913772,
      1.3090908065864488,
      1.5674831166740062,
      1.6061979440661656,
      1.5710052357336097,
      0.8542634560841392,
      -0.9349115198145399,
      1.6290759005027782,
      -1.318849820816922,
      1.6292431201671336,
      1.4968067418681557,
      1.5222740289431205,
      0.36101145397089873,
      1.5741746172015787,
      1.617896946323064,
      1.6551335975525157,
      -0.7828868522218474,
      -0.5353328478028906,
      1.5801440746084785,
      -0.5928346989914028
    ],
    [
      -0.06981804507798278,
      -0.5710667872309708,
      0.3858561233243957,
      0.16980059469891112,
      0.6346356584490133,
      0.17323166292678188,
      0.6592774626625781,
      -0.43852977261766934,
      0.5544463681835112,
      -0.7440535874656844,
      0.8782538909636626,
      0.642404336300307,
      0.18902840159510775,
      -0.017965325379873748,
      0.17587615300422457,
      0.16455264182408819,
      0.15371328883915802,
      -0.64281116559595,
      -0.2542470454378045,
      0.1816323972663647,
      -0.5710667872309884
    ],
    [
      0.7222428194144591,
      -0.564374920619923,
      -1.007006160010684,
      0.5292342912323402,
      0.40257768021185003,
      0.5424115780658625,
      -2.2558933929908793,
      -1.0428154286928042,
      0.33414092066691026,
      -0.6221958069325859,
      0.14359219573246293,
      0.44458467808244373,
      0.7064992119147947,
      0.6229349443841803,
      0.534517442995993,
      0.36114048798908677,
      0.19792453844522723,
      -0.6025718387646418,
      0.3489519715243138,
      0.5402096473757985,
      -0.56437492061993
    ],
    [
      0.7231706519516861,
      -0.5812393036230058,
      -0.8075117246413073,
      -0.07545147569736271,
      0.865232478678028,
      -0.06670323045619643,
      -1.0243766892665493,
      -1.0051767364683306,
      0.8210840041263245,
      -0.9210176029874548,
      0.8087411225070871,
      0.8425331714787839,
      0.04536550072535373,
      1.1325886619001195,
      -0.06964575599279424,
      -0.16659836043947024,
      -0.24490768425835702,
      -0.6913343112065086,
      0.055749711562743914,
      -0.06378330103584627,
      -0.5812393036230256
    ],
    [
      0.05201952771664624,
      -0.5559072273898392,
      -0.44601280545546546,
      0.15366922215213596,
      0.3226323538048081,
      0.1602989515283982,
      -0.6117316622541913,
      -0.5669749262182796,
      0.24743250770331315,
      -0.5381756698452285,
      0.39472923709062374,
      0.3700396280998326,
      0.2724993722894312,
      -0.0009103698752494054,
      0.15882284848449563,
      0.053628955884716806,
      -0.039914379094803894,
      -0.5746080746687188,
      0.38160067053841074,
      0.16442920384486476,
      -0.5559072273899083
    ]
  ],
  "sample_order": [],
  "config": {
    "grid": [
      6,
      6
    ],
    "dim": 21,
    "learning_rate": 0.4,
    "sigma": 3,
    "num_epochs": 140,
    "num_samples": 177
  }
}