{
  "seed": 42,
  "initial_weights": [
    [
      0.039992520788658156,
      -0.5251714009332883,
      0.2535451014009677,
      4.068784792516115,
      0.1317506277079265,
      4.083502348105367,
      -0.9491488600650958,
      -0.45167913788657466,
      -0.009161329253463964,
      -0.2918245191897951,
      0.03956735420624759,
      0.190108013141123,
      3.6884900172136468,
      0.10412339253996505,
      4.074627498246874,
      4.4175759988555985,
      4.710862915654711,
      -0.4922520300349443,
      -0.4216523078158075,
      4.079897580476072,
      -0.5251714009331742
    ],
    [
      -0.4418824683647068,
      -0.3686755907998372,
      1.4673404136577466,
      1.4755437002300298,
      -0.059851477300859726,
      1.475986596327941,
      0.9133699730048519,
      0.19984592095758053,
      -0.18367484732993072,
      -0.047399022613211605,
      0.16251795158088173,
      -0.003561331734805301,
      1.4390867973724604,
      -0.44327273318111843,
      1.4794560867756057,
      1.505424879764826,
      1.5184885317212313,
      -0.31833347038650023,
      -0.12340792502350173,
      1.483166619396454,
      -0.3686755907995244
    ],
    [
      -0.6129735027577263,
      0.06303736290785232,
      2.928989984357095,
      1.67787694246488,
      -0.38456929649721433,
      1.6718455245962924,
      1.6195062241733882,
      0.8072920560293333,
      -0.5039265627334638,
      0.48142001531569606,
      -0.2412565089101389,
      -0.34834687070139,
      1.5450314142841648,
      -0.5892929448216678,
      1.6777517544827614,
      1.8001461985360228,
      1.9132465748553948,
      0.09081736049284947,
      -0.37129999571119654,
      1.677107320300436,
      0.06303736290796606
    ],
    [
      -0.8210158715890931,
      2.7508908456528682,
      3.384890265926659,
      1.7150896800450892,
      -1.4662738077768993,
      1.681137167731526,
      1.7430309923133807,
      1.9036430211140476,
      -1.2329250217726928,
      1.8092782511105132,
      -1.4610440142345604,
      -1.6092893815542486,
      1.547030185431986,
      -0.8287248912561648,
      1.687521612019499,
      1.8188949233566105,
      1.944042377186331,
      2.2272582944125108,
      -0.11210203986918896,
      1.659783064132943,
      2.7508908456545367
    ],
    [
      -0.8050907062856938,
      2.0175069284372915,
      0.9891659253486854,
      0.44248256760780025,
      -1.4674457392023987,
      0.4189639712343828,
      0.910379956848482,
      1.664007676954192,
      -1.2289802525419902,
      1.7640291936187464,
      -1.6197704629502652,
      -1.6076379635119384,
      0.44284123186715657,
      -0.8143580302511051,
      0.42270644015171344,
      0.39653414711519647,
      0.3659191731033681,
      2.1064836241049614,
      -0.5264815751727581,
      0.40236900459368197,
      2.017506928437932
    ],
    [
      -0.8064168594670136,
      2.1509665785676435,
      0.5377802702859601,
      -0.41149967316462144,
      -1.4808113095854438,
      -0.43628361687609557,
      0.9298264327134906,
      1.699385194148848,
      -1.2336479369124895,
      1.7941188131085364,
      -1.6481080483093387,
      -1.6259138308294756,
      -0.47652335041849664,
      -0.8204835973597178,
      -0.4332655803025923,
      -0.39810152982884295,
      -0.3695482737313729,
      2.1786219593926353,
      0.11511722278766182,
      -0.45494744740854337,
      2.15096657857001
    ],
    [
      1.8980156218622766,
      -0.597790863776813,
      0.19426476659873781,
      2.051839218825159,
      2.1816005877095925,
      2.0601192780230555,
      -0.4799897050448038,
      -1.5513540953478295,
      2.297798958880181,
      -1.5956145471999672,
      1.8920454736525123,
      2.0277045815664736,
      2.0317085924618317,
      1.8298999882584968,
      2.057408619939801,
      2.0533959687737284,
      2.0281422673273246,
      -0.8386018626867203,
      0.2925945846657934,
      2.063427278958239,
      -0.5977908637768345
    ],
    [
      0.5048500766063205,
      -0.5637495558942746,
      -0.09655124180756539,
      2.696375231261649,
      0.5599263486003822,
      2.7093321875989713,
      -1.2356898923330306,
      -0.8407485531096579,
      0.4257896510625738,
      -0.6462848608940855,
      0.44038225449854923,
      0.5763354718838544,
      2.608373258482022,
      0.6190458566429338,
      2.7020713947330237,
      2.7395130480110303,
      2.7258884778680423,
      -0.6193244175336574,
      -0.05587935533638739,
      2.707742966263157,
      -0.5637495558943088
    ],
    [
      -0.24694807011894887,
      -0.49665697061470343,
      -0.3609315559028684,
      0.186653887339677,
      -0.15026039023339471,
      0.19217034976818415,
      -0.39589797518537573,
      -0.16315661168119683,
      -0.2171359578690426,
      -0.11796829549567725,
      -0.05629992459826999,
      -0.06626498316378222,
      0.29707662641344623,
      -0.2592745823620845,
      0.1914707934674885,
      0.09201794327102075,
      0.002013384311562151,
      -0.39978407190831977,
      0.15402372980240986,
      0.19647956774636835,
      -0.4966569706148095
    ],
    [
      -0.4556315705977958,
      -0.20844151607273817,
      0.5868979603314934,
      0.5785030158029495,
      -0.19529888505546275,
      0.5782177007739422,
      0.6308271425764126,
      0.3244701005700191,
      -0.32705391730760985,
      0.18255747067920292,
      -0.13628376612148735,
      -0.14252666383288706,
      0.6191785690825604,
      -0.44213104982153195,
      0.5809985811687226,
      0.5360941609088554,
      0.4860969165472753,
      -0.14890791715695822,
      -0.3878348293025502,
      0.5830989750815739,
      -0.2084415160724908
    ],
    [
      -0.7212029019269766,
      1.1179763816762207,
      0.718969543409031,
      0.02822041503005477,
      -1.0769211499202775,
      0.013859880296543706,
      0.9665370873225767,
      1.2831722985789413,
      -0.9817166230026477,
      1.2708498986821612,
      -1.142142707300445,
      -1.1317080517733948,
      -0.009200207898541106,
      -0.7217475707749561,
      0.017304772889091952,
      0.03450263434920497,
      0.04364020619174564,
      1.23019323700573,
      -0.32611868341837313,
      0.006034636725718282,
      1.1179763816771264
    ],
    [
      -0.7975496312705385,
      1.9982729149770935,
      -0.2501988763021973,
      -1.2159035695395777,
      -1.4710862231002302,
      -1.2369001235738748,
      0.601694750808146,
      1.5995992063337423,
      -1.2273747639547092,
      1.769633799452505,
      -1.7035081337012534,
      -1.608784435766041,
      -1.384322764672533,
      -0.8120439592301126,
      -1.2360184983794755,
      -1.1059713616309477,
      -0.993320865849409,
      2.0868271228182462,
      0.03970309281477968,
      -1.2561616939939249,
      1.9982729149744436
    ],
    [
      0.2588100662280771,
      -0.587348414754937,
      1.1173110910908566,
      1.4074940406886627,
      1.2867697148127764,
      1.4109694232812282,
      0.8374902330466916,
      -0.7668540010423812,
      1.2513538748950404,
      -1.1293592585195844,
      1.3980180416170795,
      1.2158767578774037,
      1.3735783068380116,
      0.2274326711388128,
      1.414127023029873,
      1.4501452128668406,
      1.4828847704158858,
      -0.7414884928401171,
      -0.5113612685095669,
      1.4200420002922127,
      -0.5873484147549564
    ],
    [
      0.06001402418761842,
      -0.5581786700117958,
      -0.06977944844257389,
      1.2676220983203745,
      0.4312859468566879,
      1.274326335133695,
      -0.4798212914144878,
      -0.5887817662845772,
      0.325438017876515,
      -0.5812554592027835,
      0.49753891710735004,
      0.46296864310456487,
      1.3413366892442484,
      0.03447453163473391,
      1.2725824390671288,
      1.1788374995698376,
      1.068389140585462,
      -0.5916867395875335,
      0.4853407503094106,
      1.278206941293093,
      -0.5581786700118512
    ],
    [
      0.1180076728813303,
      -0.5602371667668347,
      -0.5467064560396504,
      0.08884544220475901,
      0.37203286975696176,
      0.096032417758212,
      -0.740812335028064,
      -0.6358513987209427,
      0.30175169170785104,
      -0.5835814260590906,
      0.422474630375471,
      0.4147921969186558,
      0.2138873833720906,
      0.05921044108700165,
      0.09414274321395505,
      -0.014980325663527104,
      -0.11024903842351601,
      -0.5898713429484317,
      0.2925876230925879,
      0.0997931193626044,
      -0.5602371667668762
    ],
    [
      -0.5533505852834429,
      -0.054604978317575985,
      -0.1156452170099814,
      -0.5344292553741792,
      -0.5261998522112765,
      -0.5355754526419285,
      0.46402242871277877,
      0.574808333081253,
      -0.6078935188833658,
      0.5373433369735631,
      -0.5539694320406481,
      -0.4701109496657689,
      -0.536717699980678,
      -0.5532068958571719,
      -0.5338674179431379,
      -0.5250324007112199,
      -0.5133319940728337,
      0.08253239160218061,
      -0.019839662825156826,
      -0.5333154127492138,
      -0.05460497831708619
    ],
    [
      -0.6811923652488839,
      0.17467233627971177,
      0.6169325169403871,
      -0.42037682558102857,
      -0.8033335159531892,
      -0.4259484908362401,
      1.2208126216757826,
      1.0237413533861648,
      -0.8269588481935021,
      0.8652655872176007,
      -0.7191819759322929,
      -0.7639161086194266,
      -0.4929168684153399,
      -0.6742219078296455,
      -0.4220872355642653,
      -0.36404346604026644,
      -0.3180103216040375,
      0.3673892224931509,
      -0.042344180058295856,
      -0.4238486587171151,
      0.17467233628093776
    ],
    [
      -0.5227346729793919,
      -0.004879645620822881,
      -0.7469327848369661,
      -0.5086247586597511,
      -0.8549316240963998,
      -0.5010846962208655,
      -0.9434443206274279,
      0.3769932337938625,
      -0.8393238546194206,
      0.7795265913962768,
      -1.0866538804412402,
      -0.8085488253459161,
      -0.423078444917473,
      -0.5236691451671415,
      -0.5038230713459602,
      -0.5612827805541171,
      -0.5979745408520217,
      0.27990813968114653,
      -4.703183474852943,
      -0.5037700115295505,
      -0.0048796456193379995
    ],
    [
      0.360937490714067,
      -0.5481806819977613,
      -0.8143886968526691,
      0.6555501061510738,
      0.23377406763471875,
      0.6665740732024052,
      -1.576794329521841,
      -0.7530363209264962,
      0.16053148899359437,
      -0.4708587569394593,
      0.11741891952382712,
      0.2894590703811918,
      0.8061513456196477,
      0.29202103205595903,
      0.6611686980630358,
      0.5136591447614427,
      0.3737323843895939,
      -0.5461469677262863,
      -0.03616346010980935,
      0.6666964980538466,
      -0.5481806819978788
    ],
    [
      1.4300855310957594,
      -0.5934371474629355,
      -0.626902368593157,
      -0.11524826408401424,
      1.6804963931167316,
      -0.1073787103860384,
      -0.7862390695519722,
      -1.3827424333870124,
      1.725835658357793,
      -1.3599381240070025,
      1.48759396258697,
      1.5617710961705618,
      -0.010609269792656723,
      1.2435390646124216,
      -0.10947173763012664,
      -0.19029792591135253,
      -0.2537339499796376,
      -0.7901912540995031,
      0.1951783089410835,
      -0.10348666379353097,
      -0.5934371474629588
    ],
    [
      -0.05813480324867318,
      -0.5450650493453844,
      -0.5766305567293826,
      -0.4564313401964062,
      0.19474101878923086,
      -0.45025401134669407,
      -0.346413661646929,
      -0.41043555208413207,
      0.11171329509515285,
      -0.4282279733275755,
      0.32139383214068584,
      0.2558511208498122,
      -0.4026531211452582,
      -0.008828812096462444,
      -0.4510412151934138,
      -0.48493775767989283,
      -0.5068266559482987,
      -0.5372635404194087,
      0.09666701209151587,
      -0.4455441140301496,
      -0.5450650493453996
    ],
    [
      -0.2466599714190281,
      -0.496104123879613,
      -0.6587282013247656,
      -0.5530759661448359,
      -0.18609546351885692,
      -0.5472914587173809,
      -0.48382818510344955,
      -0.16991112282337958,
      -0.24002967070681963,
      -0.10379361890803522,
      -0.0965677741479801,
      -0.09713522774552927,
      -0.4925798286533249,
      -0.2444024683693804,
      -0.548483917857244,
      -0.5825998847060894,
      -0.5996326207759892,
      -0.3934811841491673,
      0.3870815634836702,
      -0.5434798304184191,
      -0.49610412387968095
    ],
    [
      -0.3917467220359405,
      -0.21757016343344454,
      -0.7522559539975199,
      -1.166368844049605,
      -0.39519254293789574,
      -1.1631501792669994,
      -0.15543649439589285,
      0.23759888896403192,
      -0.48321766322356063,
      0.31845895832457477,
      -0.4549694864434046,
      -0.32679096346677483,
      -1.246109009102411,
      -0.3868170972656161,
      -1.1641806549328386,
      -1.0737538843879764,
      -0.9830202585479424,
      -0.09518050777420164,
      0.06087167743255492,
      -1.1619862361691582,
      -0.21757016343350555
    ],
    [
      -0.2015071003226104,
      -0.5510675014864352,
      -0.5068134145818474,
      -1.6392055733582869,
      0.34173521751669417,
      -1.6332361260252017,
      0.6155903032262996,
      -0.27123272545004284,
      0.2748315508964914,
      -0.5421846045651884,
      0.625773990639986,
      0.38325677096355326,
      -1.962880977774881,
      -0.23247697369335102,
      -1.6339228120274218,
      -1.3801343972086526,
      -1.18400415641795,
      -0.5690257489216379,
      0.336468017339618,
      -1.6283722884578609,
      -0.5510675014863815
    ],
    [
      2.10361545044065,
      -0.595549134344911,
      -1.1364228789695079,
      -1.1615425394308891,
      1.809408032605604,
      -1.1512900949134535,
      -1.3175973605659141,
      -1.582145272655476,
      1.8725927450991111,
      -1.4367230579518937,
      1.5173640821842516,
      1.6732734397831157,
      -1.1739848150725312,
      1.9847350362423344,
      -1.15564054619965,
      -1.109161001223013,
      -1.0461081784401642,
      -0.8067823752807324,
      0.12936723468355282,
      -1.1496342699238844,
      -0.5955491343449361
    ],
    [
      0.5064696854108492,
      -0.5850239940775807,
      -0.6097632662024495,
      -0.7563022640523709,
      1.0561947199038182,
      -0.7496009761559689,
      -0.29728036644936096,
      -0.9214707636430924,
      0.9876296593007549,
      -1.0122694906843015,
      1.0582205247860175,
      1.0101891908440872,
      -0.7450843723434372,
      0.4989569345279875,
      -0.7504610933822371,
      -0.7409656038225193,
      -0.7215132839432181,
      -0.7173934886747124,
      0.08756363477137355,
      -0.7445614964825572,
      -0.5850239940776049
    ],
    [
      -0.25158444408734604,
      -0.5451195247624167,
      0.031157289931893553,
      -0.20590313047639364,
      0.20409334971713236,
      -0.2031460013207854,
      0.5171187346987639,
      -0.2032514853158121,
      0.11306938401640762,
      -0.42931559106715844,
      0.49292735400479404,
      0.2630802968793891,
      -0.22441842566581832,
      -0.226146223518971,
      -0.20139784754753226,
      -0.17794628596058856,
      -0.15837804868825708,
      -0.5374645870610638,
      0.8695807312241374,
      -0.19590301192433873,
      -0.5451195247624783
    ],
    [
      -0.010092213659806417,
      -0.5411498953429084,
      -0.889117230078358,
      -1.069684005413386,
      0.1572337381849876,
      -1.0624682711042543,
      -0.5773310918478427,
      -0.43754260550318674,
      0.06672738706061522,
      -0.3884830296299575,
      0.2304671554156691,
      0.22131937255232034,
      -1.0932820615195045,
      0.005492200231681121,
      -1.064454650305196,
      -1.015115769965705,
      -0.9549248526069819,
      -0.5243894414826827,
      0.23750667942988168,
      -1.0589973074089705,
      -0.5411498953428728
    ],
    [
      -0.15970021956422284,
      -0.557564184815428,
      -0.23467978147901525,
      -0.7538699736923129,
      0.34193090219883987,
      -0.7501071596438667,
      0.4673639776261048,
      -0.31257602316872307,
      0.2587585016693059,
      -0.5480303578850186,
      0.6115333182772725,
      0.3877878081399852,
      -0.8055356024967854,
      -0.08108980487824746,
      -0.7488541609241802,
      -0.6976750880206042,
      -0.6526952812193872,
      -0.5804333549725579,
      0.5883579857275762,
      -0.7432331375374766,
      -0.5575641848154661
    ],
    [
      -0.4840702954034661,
      -0.45592051350695184,
      0.21369727499475052,
      -0.6376363388029723,
      -0.25105140452094643,
      -0.6351146278592187,
      0.9155658186678255,
      0.2651181948087355,
      -0.33121392736739774,
      0.03403816127483262,
      0.07554812745870088,
      -0.17051708431600981,
      -0.718671318414021,
      -0.4495560659927004,
      -0.6325398430093306,
      -0.5578850612863766,
      -0.496874062976209,
      -0.3228074590042995,
      -0.5203335937532485,
      -0.6279446015135709,
      -0.455920513507
    ],
    [
      3.693947390144393,
      -0.5987369472939357,
      -0.9817523974988421,
      -0.1761813959213267,
      2.3866958522330877,
      -0.16130194466391978,
      -1.7951424376173484,
      -2.0072042362178526,
      2.6334216227205824,
      -1.6987336379059559,
      1.9845217984905734,
      2.228792693152024,
      -0.04699106265195127,
      4.6090915006675965,
      -0.167025282179962,
      -0.2656567529757531,
      -0.34256294093432826,
      -0.8547936709930471,
      -2.9163715105521657,
      -0.16098600251836817,
      -0.5987369472939734
    ],
    [
      3.542729768479649,
      -0.5999298441747588,
      -0.8526864584278477,
      -0.5946567732237991,
      2.6205660618286517,
      -0.5851065363707784,
      -1.2160625115288886,
      -1.9668550235663744,
      3.0512764749336516,
      -1.845116652639249,
      2.224721442033655,
      2.459505721264606,
      -0.5202690083756172,
      3.046351649691406,
      -0.5888455954279691,
      -0.634170883046501,
      -0.6592781712949677,
      -0.8737183440156926,
      0.23083840044483758,
      -0.5827944459651889,
      -0.5999298441747846
    ],
    [
      0.4356918125455883,
      -0.5386148606948691,
      -1.1553014261270127,
      -0.4505082921129632,
      0.09774368763694073,
      -0.438882291307534,
      -2.0909336944331285,
      -0.7898649308300391,
      0.030078130682978675,
      -0.36870336431997525,
      -0.1437820791302262,
      0.16935893290758974,
      -0.3176007564585937,
      0.44263487978195915,
      -0.4454183895140137,
      -0.5405011294958804,
      -0.6043812184771724,
      -0.5115736619554434,
      0.32192091633751674,
      -0.4399840582684505,
      -0.5386148606949575
    ],
    [
      -0.14591718176580734,
      -0.4972450324786531,
      -1.0742284485766325,
      -1.0920568468977014,
      -0.24845416742216603,
      -1.086165883050892,
      -1.3701553282957766,
      -0.40017579316495266,
      -0.3021938224950274,
      -0.07713957806827322,
      -0.2756029852193744,
      -0.15393902457560057,
      -1.0802225633847118,
      -0.21442552855736316,
      -1.0904756943631755,
      -1.0679884760639007,
      -1.0238694482057984,
      -0.3795249459773472,
      3.3189084548157766,
      -1.085459721329981,
      -0.49724503247835994
    ],
    [
      -0.12264990500479866,
      -0.570408795841703,
      0.4636616100761466,
      0.12347900379354831,
      0.5957017759823953,
      0.12623978351803225,
      0.8059196587974228,
      -0.3819804631089071,
      0.515755314272245,
      -0.723465202854502,
      0.8736325502329976,
      0.6092586376629473,
      0.1202864463878579,
      -0.09922374960848084,
      0.1292512459608786,
      0.12879765871808385,
      0.12083995884995669,
      -0.6374549490426253,
      0.019402359661031654,
      0.13500037175219684,
      -0.5704087958416719
    ],
    [
      -0.22061992746160042,
      -0.5803310329649898,
      1.8157721714291668,
      -0.26531130081251986,
      0.8791458099178552,
      -0.2634660263328896,
      1.8150544454220825,
      -0.2976603849437128,
      0.8080832650554097,
      -0.9011768121646595,
      1.225149084685505,
      0.8540401832255248,
      -0.46014129453222075,
      -0.24100836039513307,
      -0.25853599239778025,
      -0.0928338174890949,
      0.0395152869975864,
      -0.6902204173086318,
      -0.8485536675177813,
      -0.25269113814398825,
      -0.5803310329650186
    ]
  ],
  "sample_order": [],
  "config": {
    "grid": [
      6,
      6
    ],
    "dim": 21,
    "learning_rate": 0.4,
    "sigma": 3,
    "num_epochs": 140,
    "num_samples": 220
  }
}